-1.347708748653531075e-03
1.744555192999541759e-04
-4.096619159099645913e-05
1.010652165859937668e-03
-2.369634574279189110e-03
2.349346643313765526e-03
5.759868072345852852e-04
-1.784872845746576786e-03
9.566969310981221497e-06
-7.824471686035394669e-04
1.837364397943019867e-03
-3.051989711821079254e-03
-9.329752065241336823e-04
-3.881150405504740775e-05
3.785374574363231659e-03
4.956898046657443047e-04
-1.867204264272004366e-04
2.047072164714336395e-03
-1.974045007955282927e-04
1.594488625414669514e-03
2.538691507652401924e-03
6.567613454535603523e-04
1.864249934442341328e-03
2.901967382058501244e-04
-2.819813380483537912e-04
1.665322226472198963e-03
3.991369158029556274e-04
-1.094748731702566147e-03
7.528194109909236431e-04
-2.774699591100215912e-03
-1.690528588369488716e-03
3.015680937096476555e-03
-2.480979543179273605e-03
9.166634117718786001e-05
2.503531932830810547e+00
-1.949309254996478558e-03
-1.164406770840287209e-03
-1.681452617049217224e-03
1.740627340041100979e-03
2.792622835841029882e-04
4.225372336804866791e-03
1.756551675498485565e-03
-2.241556765511631966e-03
-2.907051937654614449e-03
1.944144372828304768e-03
7.241206476464867592e-04
5.836385535076260567e-04
1.752481330186128616e-03
-1.534124719910323620e-03
9.252653690055012703e-04
1.821436220780014992e-03
3.291108369827270508e+00
1.674607046879827976e-04
2.387708187103271484e+00
2.448866844177246094e+00
1.457706210203468800e-03
3.399338960647583008e+00
3.627622267231345177e-03
-5.149327334947884083e-04
-1.909051788970828056e-03
8.101049461401998997e-04
2.431157350540161133e+00
-2.107591135427355766e-03
-1.586933969520032406e-03
-2.689269604161381721e-04
1.092989929020404816e-03
3.769394636154174805e+00
1.138336258009076118e-03
-1.119542750529944897e-03
1.290134619921445847e-03
-5.623350152745842934e-04
-6.058574654161930084e-04
-1.057161600328981876e-03
3.379439585842192173e-04
-2.973406517412513494e-04
1.971432240679860115e-03
1.160628860816359520e-03
-4.617029044311493635e-04
-3.625944373197853565e-04
1.659019384533166885e-03
1.449649571441113949e-03
1.378940767608582973e-03
1.480742474086582661e-03
-1.055839587934315205e-03
3.988644108176231384e-03
-2.962996484711766243e-03
3.687088843435049057e-03
1.757132005877792835e-03
-1.736632431857287884e-03
-3.012218512594699860e-03
2.796375192701816559e-03
-8.264791686087846756e-04
-1.442474662326276302e-03
-4.060982610099017620e-05
-1.487020053900778294e-03
7.658620597794651985e-04
9.724856936372816563e-04
-6.712871254421770573e-04
9.677864727564156055e-05
4.827769953408278525e-05
-2.741396310739219189e-04
-2.388275228440761566e-03
-2.077585784718394279e-03
-4.358534933999180794e-04
4.065948963165283203e+00
3.673025872558355331e-03
1.449027447961270809e-03
-1.165335881523787975e-03
1.123785274103283882e-03
-2.246869029477238655e-03
-1.209203153848648071e-03
2.892804099246859550e-03
-2.701964229345321655e-03
-3.229356661904603243e-04
-1.689118682406842709e-03
-2.008434152230620384e-03
3.827602195087820292e-04
-1.927861361764371395e-03
-1.223008148372173309e-03
-5.250475369393825531e-04
-2.819122280925512314e-03
-2.504744768142700195e+00
1.483369152992963791e-03
3.659812927246093750e+00
2.161334967240691185e-03
-5.163781461305916309e-04
6.273537292145192623e-04
-7.192156626842916012e-04
2.830017805099487305e+00
1.155078993178904057e-03
-1.490950118750333786e-03
3.733396053314208984e+00
3.520107420627027750e-04
7.612810004502534866e-04
2.162997552659362555e-04
1.802247832529246807e-03
1.178623759187757969e-03
2.214847831055521965e-03
1.701177243376150727e-04
-1.971656689420342445e-03
-1.753676333464682102e-03
-1.780673512257635593e-03
4.862510104430839419e-05
1.621196628548204899e-03
-7.701653521507978439e-04
1.697110827080905437e-03
1.982584595680236816e-03
6.173191359266638756e-04
1.085637370124459267e-03
-1.620949864387512207e+00
1.523141690995544195e-04
2.453569322824478149e-03
-1.377568551106378436e-04
-6.995787261985242367e-04
2.530159195885062218e-03
-1.848872285336256027e-03
8.988843113183975220e-02
-2.371896058320999146e-03
1.913160085678100586e-03
6.799784605391323566e-04
4.806734505109488964e-04
3.033503526239655912e-05
-7.768396753817796707e-04
7.212945092760492116e-06
1.771335882949642837e-05
1.969491364434361458e-03
2.539619337767362595e-03
1.263746758922934532e-03
-1.510854577645659447e-03
1.699618529528379440e-03
-1.334080821834504604e-03
3.194312810897827148e+00
-3.030678723007440567e-03
-3.834735834971070290e-03
9.114774911722633988e-06
-1.233265968039631844e-03
1.285265607293695211e-04
-1.838231110014021397e-03
-1.370370009681209922e-04
-2.030578907579183578e-03
-8.575592073611915112e-04
-9.943236364051699638e-04
-1.665999996475875378e-03
1.830028137192130089e-03
-2.023982286453247070e+00
1.332047820091247559e+00
-1.110237091779708862e-03
2.773313317447900772e-03
1.696892664767801762e-03
-1.745808636769652367e-03
-2.719672629609704018e-03
-2.509035635739564896e-03
9.079448063857853413e-04
-1.680557266809046268e-03
7.981614180607721210e-05
-5.411170423030853271e-04
-5.768333212472498417e-04
-1.650606514886021614e-03
4.612369521055370569e-04
1.723955734632909298e-03
3.973074399254983291e-06
-1.822158810682594776e-03
-6.146408268250524998e-04
-1.816014875657856464e-03
1.053359392244601622e-05
3.821311111096292734e-04
-2.890241384506225586e+00
1.654573134146630764e-03
2.495366788934916258e-04
-1.710097771137952805e-03
1.661805436015129089e-03
2.939990023151040077e-03
-1.335081527940928936e-03
-3.030615043826401234e-04
-3.372450300958007574e-04
-1.651234459131956100e-03
-6.252470193430781364e-04
4.328064678702503443e-04
1.985646784305572510e-03
-3.463509347056970000e-05
-1.852980232797563076e-03
-1.792760915122926235e-03
3.064272403717041016e+00
-1.721099833957850933e-03
-6.083535263314843178e-04
1.822013291530311108e-03
-1.269066706299781799e-03
-1.737325801514089108e-03
-6.577481981366872787e-04
-3.578665491659194231e-04
-3.080974565818905830e-03
-5.254323477856814861e-04
3.361605631653219461e-04
2.728767867665737867e-04
-2.879760926589369774e-03
2.875341451726853848e-04
9.731628233566880226e-04
4.221995361149311066e-03
3.705866169184446335e-03
4.137280862778425217e-03
-2.449373248964548111e-03
-1.646129880100488663e-03
2.233193721622228622e-03
4.370301612652838230e-04
3.031512722373008728e-03
1.496403710916638374e-03
2.840504981577396393e-03
1.561065316200256348e+00
-1.755471690557897091e-03
-1.939062261953949928e-03
1.110043260268867016e-03
-4.165311809629201889e-03
1.126400893554091454e-03
2.041963860392570496e-03
-6.277177017182111740e-04
-9.028456406667828560e-04
-8.886067080311477184e-04
7.420060574077069759e-04
-2.067561494186520576e-03
-2.926195738837122917e-03
-3.994378805160522461e+00
-2.018989653151948005e-05
5.467331502586603165e-04
-9.197435574606060982e-04
-1.526645733974874020e-03
-1.020643860101699829e-03
2.422412857413291931e-03
-2.353120362386107445e-03
7.538462523370981216e-04
-7.684319280087947845e-04
1.890208950499072671e-04
-3.868811472784727812e-04
-1.508279354311525822e-03
-4.333696560934185982e-04
-1.980988236027769744e-05
3.752738703042268753e-04
1.108688651584088802e-03
1.875909510999917984e-03
1.682460191659629345e-03
6.064793560653924942e-04
-3.559160395525395870e-04
1.575527276145294309e-04
-5.871466128155589104e-04
1.180425868369638920e-03
5.812157178297638893e-04
2.830906538292765617e-03
-1.998517429456114769e-03
9.409729973413050175e-04
-2.791920211166143417e-03
5.289242253638803959e-04
1.915745553560554981e-03
-1.843828707933425903e-03
-7.322510355152189732e-04
-3.149507101625204086e-04
-1.619364134967327118e-03
1.109707634896039963e-03
-5.175545993552077562e-06
5.335823516361415386e-04
1.766795990988612175e-03
-1.722353277727961540e-03
-1.575317815877497196e-03
-1.931923325173556805e-03
1.064829528331756592e-03
1.668740063905715942e-03
7.609163731103762984e-05
8.468130836263298988e-04
1.300383126363158226e-03
2.637766592670232058e-04
-4.217219073325395584e-03
8.147678454406559467e-04
-3.680011723190546036e-03
-1.616898342035710812e-03
4.546682466752827168e-04
6.330151809379458427e-04
1.928062993101775646e-04
-1.520315709058195353e-05
-3.028007813554722816e-05
2.392146503552794456e-03
1.682589063420891762e-03
-1.600223360583186150e-03
7.427321397699415684e-04
-2.767201280221343040e-03
9.141631890088319778e-04
3.422927984502166510e-04
2.670626621693372726e-03
-1.224333303980529308e-03
-1.407287898473441601e-03
4.431372217368334532e-04
1.747475820593535900e-03
-1.136596711148740724e-05
4.939226782880723476e-04
1.738777733407914639e-03
-3.413372905924916267e-04
-2.733925590291619301e-03
-7.118361536413431168e-04
-1.692149788141250610e-03
2.305751404492184520e-04
-3.210874557495117188e+00
2.056397963315248489e-03
2.864194393623620272e-04
1.142237568274140358e-03
-1.055599888786673546e-03
-2.263627247884869576e-03
6.911453674547374249e-04
5.514770746231079102e-04
1.805241103284060955e-03
-2.202913165092468262e-03
2.192990177718456835e-05
-9.752108599059283733e-04
-1.176231075078248978e-03
1.607682323083281517e-03
1.083700684830546379e-03
-4.056101170135661960e-05
5.598122370429337025e-04
1.601089024916291237e-03
5.689414101652801037e-04
1.906484947539865971e-03
-1.963309245184063911e-03
-2.154412504751235247e-04
1.713769044727087021e-03
-1.767695997841656208e-03
5.934924702160060406e-04
3.226944245398044586e-04
-2.066662535071372986e-03
-1.520256046205759048e-03
-4.808700759895145893e-04
9.242576779797673225e-04
-2.034988254308700562e-03
1.294581055641174316e+00
1.010141917504370213e-03
1.806727814255282283e-04
2.718624018598347902e-04
3.078819036483764648e+00
-9.375727968290448189e-04
3.034683759324252605e-04
-1.744083594530820847e-03
5.850833840668201447e-04
2.048744354397058487e-03
-1.740620471537113190e-03
-5.093252402730286121e-04
1.260080989595735446e-05
-2.879243576899170876e-03
2.316681435331702232e-03
1.144433510489761829e-03
1.072531682439148426e-03
1.029562845360487700e-04
-1.616351655684411526e-04
9.120764443650841713e-04
-5.701265763491392136e-04
7.934228633530437946e-04
-1.470100105507299304e-04
1.129387645050883293e-03
-1.047264668159186840e-03
-4.684659143094904721e-05
1.166722155176103115e-03
2.181176387239247561e-05
-4.084146581590175629e-03
-1.170392148196697235e-03
2.038931939750909805e-03
-1.421583350747823715e-03
-3.452251195907592773e+00
7.235984667204320431e-04
-1.782390754669904709e-03
-3.373147628735750914e-04
1.731344265863299370e-03
-1.168446964584290981e-03
-2.458221511915326118e-03
-1.519234385341405869e-03
1.515007461421191692e-03
-1.370884594507515430e-03
1.515374286100268364e-03
-1.684342161752283573e-03
1.752824173308908939e-03
-1.544049824588000774e-03
-1.830726687330752611e-04
-9.062697063200175762e-04
-6.074270932003855705e-04
1.537580275908112526e-03
-3.827082458883523941e-03
-4.078578058397397399e-05
-3.306108951568603516e+00
-1.601170632056891918e-03
-5.653260159306228161e-04
5.070228944532573223e-04
5.978956469334661961e-04
1.542368321679532528e-03
9.363486315123736858e-04
2.476685214787721634e-03
-2.040339168161153793e-03
2.397144911810755730e-03
8.612999808974564075e-04
2.022978849709033966e-03
-1.838665484683588147e-04
4.042701912112534046e-04
-8.124291343847289681e-05
1.813452807255089283e-03
-6.603180663660168648e-04
8.511763880960643291e-04
3.185541718266904354e-04
1.807022956199944019e-03
3.623277298174798489e-04
-1.214923850056948140e-05
-3.439018968492746353e-03
-1.991401659324765205e-03
-5.555073585128411651e-05
1.990804448723793030e-03
-2.310571908950805664e+00
-1.732958480715751648e-03
1.201413833769038320e-04
-6.572192069143056870e-04
4.919818020425736904e-04
9.921176824718713760e-04
-3.105294890701770782e-03
1.639451249502599239e-03
-9.667935664765536785e-04
-2.163607132388278842e-04
-1.665688585489988327e-03
4.513688036240637302e-04
-1.636179629713296890e-03
1.769928843714296818e-03
1.305146608501672745e-03
6.263262475840747356e-04
1.160619547590613365e-03
6.032796809449791908e-04
1.248768530786037445e-03
4.927736008539795876e-04
-2.731802873313426971e-03
-1.561948214657604694e-03
-1.569539890624582767e-03
-1.405330491252243519e-03
7.441263878718018532e-04
1.062324969097971916e-03
-1.093693426810204983e-03
1.172018586657941341e-03
-5.144150345586240292e-04
-1.940651796758174896e-03
1.101022353395819664e-03
-6.858059205114841461e-04
2.858911640942096710e-03
-1.716606318950653076e-03
-2.486848738044500351e-03
4.448736144695430994e-04
2.542369842529296875e+00
-1.711738877929747105e-03
9.846192551776766777e-05
-4.776730784215033054e-04
1.597011229023337364e-03
-7.442666537826880813e-05
2.313439617864787579e-04
1.972852274775505066e-03
1.745900139212608337e-03
1.502871164120733738e-03
1.171343610621988773e-03
-2.367458771914243698e-03
1.228041131980717182e-03
-5.315349335432983935e-05
-1.019703922793269157e-03
9.408824262209236622e-04
4.872135468758642673e-04
4.692371876444667578e-04
-1.000195625238120556e-03
-3.236309051513671875e+00
1.156289479695260525e-03
4.274765087757259607e-04
-3.311633481644093990e-04
1.192327355965971947e-03
-1.580365205882117152e-04
-4.163059405982494354e-03
3.404757590033113956e-04
1.763091189786791801e-03
-1.559481257572770119e-03
1.719826686894521117e-04
-2.768350532278418541e-03
3.292201145086437464e-04
1.439316692994907498e-04
2.961100311949849129e-03
1.819833065383136272e-03
1.711564138531684875e-03
8.672945550642907619e-04
-1.117902807891368866e-03
7.476853206753730774e-04
1.822569873183965683e-03
1.471654650231357664e-05
1.624993048608303070e-03
-2.062670188024640083e-03
2.851532772183418274e-03
2.379749435931444168e-03
1.696223742328584194e-03
1.757993828505277634e-03
-1.564704230986535549e-03
1.481653656810522079e-03
9.028834756463766098e-04
3.236089542042464018e-04
-1.735662226565182209e-03
3.786028129979968071e-03
-3.484673798084259033e-04
-1.015540794469416142e-03
9.331476176157593727e-04
-1.748527167364954948e-03
-2.201816299930214882e-03
1.642638468183577061e-03
3.138989686965942383e+00
1.075036125257611275e-03
7.019859622232615948e-04
2.924962997436523438e+00
-3.849208296742290258e-04
-1.931189675815403461e-03
-1.730430405586957932e-03
-2.070249523967504501e-03
1.712506054900586605e-03
3.822667524218559265e-03
-1.720607979223132133e-04
-1.663421746343374252e-03
2.078726422041654587e-03
8.815411129035055637e-04
-4.778347793035209179e-04
-1.855982118286192417e-03
-1.856842194683849812e-03
-4.104982144781388342e-05
1.806178479455411434e-03
1.114138634875416756e-03
-1.360319438390433788e-04
6.580178160220384598e-05
-1.453242148272693157e-04
1.765890163369476795e-03
8.606454939581453800e-04
1.095474348403513432e-03
6.765402504242956638e-04
-1.014706678688526154e-03
2.067952882498502731e-03
1.706580515019595623e-03
-1.204346772283315659e-03
1.694862148724496365e-03
1.574567984789609909e-03
2.039019018411636353e-03
4.729114007204771042e-04
4.433240974321961403e-04
-3.083242336288094521e-04
-6.295008934102952480e-04
1.018500188365578651e-03
-2.352062801946885884e-05
-2.279507316416129470e-04
-9.827168832998722792e-05
1.148187438957393169e-03
-1.433227880625054240e-04
-2.417448675259947777e-03
-7.630235631950199604e-04
-8.992634830065071583e-04
-1.175036071799695492e-03
7.821305189281702042e-04
1.442763488739728928e-03
6.756914081051945686e-04
4.980472922325134277e-01
1.036075875163078308e-03
-2.841677283868193626e-03
1.010204199701547623e-03
1.513380790129303932e-03
1.750093302689492702e-03
-1.774222939275205135e-03
-3.533031558617949486e-04
-6.040224106982350349e-04
-1.785460859537124634e-03
-2.774171065539121628e-03
-3.217748599126935005e-04
4.933002055622637272e-04
1.722055370919406414e-03
4.116167314350605011e-03
1.947875949554145336e-03
1.757617457769811153e-03
4.424551661941222847e-05
-1.035624300129711628e-04
-4.991308669559657574e-04
1.617938163690268993e-03
1.156945945695042610e-03
-1.514420146122574806e-03
1.812444766983389854e-03
-2.889927476644515991e-03
-2.073579933494329453e-03
1.609605387784540653e-03
-3.796950913965702057e-03
-1.674597850069403648e-03
1.316226786002516747e-03
-1.876237452961504459e-03
7.478913903469219804e-05
-1.955436076968908310e-03
-1.787203014828264713e-03
-1.563515164889395237e-03
-1.541136996820569038e-03
1.502662431448698044e-03
2.086688280105590820e+00
-3.628100156784057617e+00
-2.136992057785391808e-03
-1.106583047658205032e-03
-7.163006230257451534e-04
-1.702215638943016529e-03
-1.836329814977943897e-03
9.254504111595451832e-04
7.003894279478117824e-05
1.796900061890482903e-03
6.267272401601076126e-04
6.865746399853378534e-06
-1.228082808665931225e-03
-3.511129398248158395e-05
-7.333750254474580288e-04
7.741510489722713828e-05
-2.070473507046699524e-03
-2.671613823622465134e-03
-9.427758050151169300e-04
-2.877889492083340883e-04
-2.817542990669608116e-03
-2.009703079238533974e-03
-3.022428834810853004e-03
3.706972056534141302e-04
6.704319384880363941e-04
-3.124628216028213501e-03
-6.844969466328620911e-04
-1.888350700028240681e-03
2.688503026962280273e+00
-4.739092255476862192e-04
3.085499713506578701e-07
-4.798528680112212896e-04
-6.892237579450011253e-04
3.605426754802465439e-04
5.362815136322751641e-05
7.084005046635866165e-04
-1.622836338356137276e-03
-1.822193036787211895e-03
-1.915754750370979309e-03
4.673556832130998373e-04
-2.076165284961462021e-03
2.837675157934427261e-03
1.621232135221362114e-03
1.897695590741932392e-03
9.116243454627692699e-04
-5.668169469572603703e-04
9.807666065171360970e-04
1.603909069672226906e-03
1.748516107909381390e-03
-3.165384056046605110e-03
-1.647033030167222023e-03
-3.161940025165677071e-03
1.707738731056451797e-03
-1.148214447312057018e-03
3.431018590927124023e+00
1.140311717987060547e+00
-1.756011624820530415e-03
1.689851167611777782e-03
-1.339559239568188787e-04
-4.303416790207847953e-05
-1.758239232003688812e-03
-2.371867652982473373e-03
1.623565680347383022e-03
2.300111532211303711e+00
-4.975912743248045444e-04
-2.847269410267472267e-03
-1.200497732497751713e-03
2.341609681025147438e-03
1.524132792837917805e-03
-5.292733549140393734e-04
-7.126744603738188744e-04
-1.171627518488094211e-04
2.675426425412297249e-03
2.322637796401977539e+00
8.161262667272239923e-05
1.680139452219009399e-03
5.298089818097651005e-04
1.079979003407061100e-03
-1.640597707591950893e-03
-1.894633285701274872e-03
3.123436499663512222e-06
-2.995203947648406029e-03
2.066188957542181015e-03
2.729048252105712891e+00
-1.142874476499855518e-03
-1.476160367019474506e-03
1.458146725781261921e-03
-1.721770502626895905e-03
-9.283759281970560551e-04
-1.142520806752145290e-03
-8.033621270442381501e-06
9.261237573809921741e-04
-1.600499497726559639e-03
5.761808097304310650e-06
-1.888172817416489124e-03
-1.204720232635736465e-03
-1.790519803762435913e-03
3.177621983923017979e-04
-5.546535830944776535e-04
4.989238223060965538e-04
-2.978213829919695854e-03
-9.986000368371605873e-04
-5.645671044476330280e-04
1.688928110525012016e-03
1.781761297024786472e-03
9.472699020989239216e-04
-4.113794304430484772e-03
1.727822818793356419e-03
-2.040019957348704338e-03
1.623241463676095009e-03
-9.919849690049886703e-04
7.938480848679319024e-05
2.054053125903010368e-03
3.514634678140282631e-03
1.732929609715938568e-03
-4.048842005431652069e-03
-1.467041438445448875e-03
7.869575056247413158e-04
7.654972141608595848e-04
1.710527343675494194e-03
1.708961324766278267e-03
4.110230074729770422e-04
2.048357389867305756e-03
1.047468394972383976e-03
7.426028605550527573e-04
-1.961048459634184837e-03
2.674853324890136719e+00
-1.706202514469623566e-03
-1.467928057536482811e-03
2.361443519592285156e+00
-1.357690431177616119e-03
3.290277963969856501e-04
-1.188317546620965004e-03
1.134858815930783749e-03
1.695173094049096107e-03
2.921429229900240898e-03
-1.002113102003931999e-03
9.443052113056182861e-05
-1.195210032165050507e-03
-1.113353064283728600e-04
-2.633873838931322098e-03
-3.636994399130344391e-03
-3.578421659767627716e-03
-1.686454517766833305e-03
-9.971531108021736145e-04
7.885589002398774028e-05
-1.071765786036849022e-03
-1.955867774086073041e-04
3.264956176280975342e-04
-1.581390388309955597e-03
-1.808077446185052395e-03
-1.943524694070219994e-05
1.605357974767684937e-03
1.904277596622705460e-03
-1.890686253318563104e-04
-1.860883057815954089e-04
1.803955761715769768e-03
-1.542189856991171837e-04
2.022908534854650497e-03
1.095582265406847000e-03
1.543502672575414181e-03
1.178880105726420879e-03
2.164946490665897727e-04
-1.598348142579197884e-03
-2.857945919036865234e+00
4.705015744548290968e-04
-1.842126483097672462e-03
-1.951408106833696365e-03
-1.697365660220384598e-03
-7.690527127124369144e-05
-5.230173119343817234e-04
-1.730567426420748234e-03
-1.503702951595187187e-03
-1.117829466238617897e-03
-1.168948831036686897e-03
-1.706334413029253483e-03
-1.263639191165566444e-03
-3.239467914681881666e-04
2.168565522879362106e-03
9.377882815897464752e-04
-1.977310050278902054e-03
-1.648206147365272045e-03
3.002426819875836372e-03
-2.770884893834590912e-03
-3.625775570981204510e-04
-4.753617686219513416e-04
1.708454219624400139e-04
-1.598918315721675754e-04
2.850627060979604721e-03
7.650977349840104580e-04
1.065826741978526115e-03
7.810503011569380760e-04
-1.718407002044841647e-04
-1.490569673478603363e-03
2.989042550325393677e-03
-2.490927872713655233e-04
1.752762473188340664e-03
-9.217654466629028320e-01
3.839944838546216488e-04
5.721256602555513382e-04
8.726135711185634136e-04
1.872025197371840477e-03
-1.546812243759632111e-03
-1.659649657085537910e-03
-5.405041738413274288e-04
2.806514501571655273e-03
1.310902880504727364e-04
4.997031064704060555e-04
-4.278617382049560547e+00
9.214904857799410820e-04
-6.187357939779758453e-04
-1.212809816934168339e-03
-1.498070894740521908e-03
-1.131900819018483162e-03
-9.294815245084464550e-04
3.680864174384623766e-04
-2.874067751690745354e-03
-3.241396334487944841e-04
-2.530323574319481850e-03
-3.065383061766624451e-03
-6.273784674704074860e-04
-3.702745074406266212e-03
1.923468196764588356e-03
7.224429282359778881e-04
-3.166639246046543121e-03
1.506844186224043369e-03
-2.259277098346501589e-04
-2.032183110713958740e-03
-9.600730845704674721e-04
-2.066311280941590667e-04
1.401678076945245266e-03
2.614400582388043404e-03
-5.289409727993188426e-06
-1.210543996421620250e-04
-4.930781433358788490e-04
-1.388462551403790712e-04
1.903942320495843887e-04
-7.456560269929468632e-04
1.297442850045626983e-05
-1.546920160762965679e-03
1.016740803606808186e-03
6.901854649186134338e-04
-2.630949253216385841e-03
1.809521811082959175e-03
-1.425507827661931515e-03
4.626650479622185230e-04
-2.789128047879785299e-04
1.716881641186773777e-03
-1.809975219657644629e-04
-2.284952788613736629e-04
4.069360729772597551e-04
2.476497320458292961e-03
1.772512914612889290e-03
7.094909669831395149e-04
-2.079263096675276756e-03
-1.065861433744430542e-03
-1.517890021204948425e-03
-1.101694186218082905e-03
1.011259373626671731e-04
-7.377693546004593372e-04
-7.400089525617659092e-04
7.320636650547385216e-04
3.318704839330166578e-04
-5.770706338807940483e-04
7.819782476872205734e-04
7.659418624825775623e-04
-1.089551718905568123e-03
-1.620330614969134331e-03
4.007503157481551170e-04
-1.328698272118344903e-04
1.118922373279929161e-03
-1.801458885893225670e-03
1.799028599634766579e-03
-5.024820566177368164e-04
-2.855998172890394926e-04
-3.944016934838145971e-04
1.708996715024113655e-03
-1.075410051271319389e-03
-3.791628172621130943e-03
1.452343887649476528e-03
1.678323373198509216e-03
5.814582891616737470e-06
2.809099096339195967e-04
-1.070734346285462379e-03
1.158290309831500053e-03
-1.101475441828370094e-03
-7.307640044018626213e-04
-8.841871167533099651e-04
-1.711432356387376785e-03
-2.756689209491014481e-03
-1.886959653347730637e-03
-1.087085809558629990e-03
-2.938135003205388784e-05
-2.910288283601403236e-03
-1.174706965684890747e-03
-7.803300395607948303e-04
1.435407757759094238e+00
9.321411489509046078e-04
-1.662459340877830982e-03
-3.824085462838411331e-03
-1.182365813292562962e-03
3.048230428248643875e-04
-2.968260319903492928e-03
-1.831530476920306683e-03
9.090463281609117985e-04
-3.058623988181352615e-04
5.566570907831192017e-04
-7.273930823430418968e-04
-2.048202557489275932e-03
9.953797562047839165e-04
1.102773821912705898e-03
-1.888643251731991768e-03
2.697053714655339718e-04
1.783686806447803974e-03
5.667586810886859894e-04
1.185819506645202637e-03
-1.892773783765733242e-03
1.736766076646745205e-03
2.798424335196614265e-03
1.093794591724872589e-03
5.539625417441129684e-04
6.479299045167863369e-04
8.700533362571150064e-05
1.501159276813268661e-03
1.195159507915377617e-03
3.823795588687062263e-03
1.112475525587797165e-03
-1.921069459058344364e-03
2.502632560208439827e-04
-3.265910490881651640e-04
-4.884045338258147240e-04
-2.746991347521543503e-03
-2.482271287590265274e-03
4.748688079416751862e-04
9.369021863676607609e-04
2.209915313869714737e-03
-1.512111746706068516e-03
-1.775777316652238369e-03
-1.080941408872604370e-03
-1.641160575672984123e-03
-1.295341235163505189e-06
-2.695652256079483777e-05
-2.005720278248190880e-03
-6.183343939483165741e-04
-4.011533455923199654e-04
8.410627488046884537e-04
4.252490471117198467e-04
-2.079577883705496788e-03
1.290682819671928883e-03
3.061077150050550699e-04
2.767278056126087904e-04
3.756284713745117188e-04
1.778328325599431992e-03
-2.939754398539662361e-03
-7.775459671393036842e-04
1.947458367794752121e-03
-1.677507185377180576e-03
1.707535557216033340e-05
5.674990243278443813e-04
9.293130715377628803e-04
-1.274444861337542534e-03
-7.285251194844022393e-05
5.876546492800116539e-04
1.839240663684904575e-03
1.634299289435148239e-03
-1.721154083497822285e-03
-1.033868524245917797e-03
-8.146851323544979095e-04
3.087393241003155708e-03
-5.930440966039896011e-04
-1.560608041472733021e-03
2.025911092758178711e+00
-1.854415982961654663e-03
-1.043678028509020805e-03
1.924864132888615131e-03
4.732233937829732895e-04
-1.706926414044573903e-04
-1.652478094911202788e-04
1.120912260375916958e-03
-1.105004921555519104e-03
-1.842492103576660156e+00
2.091402886435389519e-03
1.162967644631862640e-03
3.003416815772652626e-03
-1.930639497004449368e-03
-5.780925275757908821e-04
-3.579012991394847631e-04
-1.647568889893591404e-03
2.075028140097856522e-03
2.586416482925415039e+00
7.156855281209573150e-05
-9.654784662416204810e-05
-1.583525212481617928e-03
-6.444731261581182480e-04
6.738607044098898768e-05
7.973850006237626076e-04
1.671132282353937626e-03
1.875803573057055473e-03
-4.237182438373565674e-04
3.001012373715639114e-03
-7.819341408321633935e-05
1.984639093279838562e-03
2.642203180585056543e-04
8.633309043943881989e-04
1.676451647654175758e-03
9.044533944688737392e-04
-2.044045832008123398e-03
-1.291020773351192474e-03
-1.119200256653130054e-03
-4.610361065715551376e-04
2.882535627577453852e-04
-2.860115608200430870e-03
4.843597416765987873e-04
-1.522053265944123268e-03
-1.873811590485274792e-03
-2.209920785389840603e-04
-2.052322495728731155e-03
3.678884822875261307e-03
-4.218946851324290037e-04
-1.764298940543085337e-05
-9.491895907558500767e-04
-3.457806771621108055e-03
1.245857914909720421e-03
-1.140721491537988186e-03
-6.281015230342745781e-04
-6.280969246290624142e-04
3.767938760574907064e-04
-2.818780922098085284e-05
-1.052666455507278442e-03
1.341406023129820824e-03
-1.024337718263268471e-03
1.090614590793848038e-03
-1.093523227609694004e-03
-1.582361757755279541e-03
-1.583918114192783833e-03
-7.552086026407778263e-05
-7.627167506143450737e-04
-1.698391162790358067e-03
-7.908605621196329594e-04
-1.866620848886668682e-03
2.012640237808227539e-03
-7.472698925994336605e-04
1.062555311364121735e-04
-7.140972302295267582e-04
5.058829265180975199e-05
1.565854414366185665e-03
7.344678160734474659e-04
-4.665958695113658905e-04
-8.633973193354904652e-04
7.172679761424660683e-04
2.888801813125610352e+00
6.816328968852758408e-04
1.651171769481152296e-04
1.526316395029425621e-03
-2.297928323969244957e-03
-1.904805423691868782e-03
-1.452593365684151649e-03
-1.447143877157941461e-04
1.853432913776487112e-04
2.576355764176696539e-04
9.637636248953640461e-04
2.007896779105067253e-03
-5.937609239481389523e-04
7.440250483341515064e-04
-1.932309125550091267e-03
1.968300784938037395e-05
-3.768213209696114063e-04
4.970589070580899715e-04
-2.808673540130257607e-03
-2.861702349036931992e-03
2.093911898555234075e-04
-1.451626187190413475e-03
2.266888041049242020e-04
-1.700595836155116558e-03
-1.998719526454806328e-03
1.614321954548358917e-03
-4.719212884083390236e-04
1.963989809155464172e-03
1.870708584785461426e+00
-1.483097788877785206e-03
-1.810923567973077297e-04
1.126416027545928955e-04
1.245266641490161419e-03
1.212511211633682251e-03
9.419339476153254509e-04
4.127583932131528854e-03
-3.033957211300730705e-03
-4.096650052815675735e-03
-1.081419177353382111e-03
1.116818748414516449e-03
1.791018992662429810e-03
-1.660658512264490128e-03
3.382956783752888441e-04
-1.444560408592224121e+00
-1.859035575762391090e-03
1.080645160982385278e-04
-1.732768956571817398e-03
1.639004331082105637e-03
2.817598287947475910e-04
1.649035722948610783e-03
-1.746788038872182369e-03
2.153804525732994080e-03
-4.023667133878916502e-05
1.699332962743937969e-03
-2.075152937322854996e-03
9.976407745853066444e-04
-9.560666512697935104e-04
-1.019224175252020359e-03
1.722748274914920330e-04
1.809110864996910095e-03
-7.333108223974704742e-04
1.909780985442921519e-05
1.834168564528226852e-03
-1.611829968169331551e-03
-1.748903421685099602e-03
1.162486267276108265e-03
9.505658526904881001e-04
2.077874727547168732e-03
1.601787633262574673e-03
-2.132400404661893845e-03
1.716368598863482475e-03
-7.365107885561883450e-04
-1.672107027843594551e-03
-7.457454339601099491e-04
-2.366689965128898621e-03
9.155818843282759190e-04
2.767268102616071701e-03
-1.551232649944722652e-03
-2.366035478189587593e-03
1.777314697392284870e-03
5.282303318381309509e-04
-3.116583393421024084e-04
4.788493970409035683e-04
-1.566671417094767094e-03
1.748031121678650379e-03
8.514594519510865211e-04
1.232069043908268213e-04
1.271158544113859534e-05
1.798020442947745323e-03
-3.380441967237857170e-06
-4.356620484031736851e-04
-1.547384425066411495e-03
4.879779226030223072e-05
1.310029882006347179e-03
1.026800135150551796e-03
1.486700610257685184e-03
-1.651100465096533298e-03
7.664093864150345325e-04
1.715607475489377975e-03
6.842689514160156250e-01
9.231147123500704765e-04
-7.240021368488669395e-04
1.646096352487802505e-03
1.297349692322313786e-03
-1.621720730327069759e-03
1.174356439150869846e-03
-1.342604286037385464e-03
2.554855309426784515e-04
1.611632760614156723e-03
-2.831877209246158600e-03
1.792135182768106461e-03
1.694178208708763123e-03
3.626024723052978516e+00
1.953227212652564049e-03
-1.376370317302644253e-03
-3.180250991135835648e-03
1.737807411700487137e-03
1.060471870005130768e-03
-7.530294242314994335e-04
1.266173436306416988e-03
7.916848063468933105e-01
-1.613033469766378403e-03
1.630475744605064392e-03
-2.814718987792730331e-03
1.543842196464538574e+00
6.804703734815120697e-04
-1.132650999352335930e-03
5.101661081425845623e-04
4.180473275482654572e-03
-2.769950078800320625e-04
1.520430552773177624e-03
-2.434191759675741196e-03
-1.718812854960560799e-04
1.609532977454364300e-03
-6.962296320125460625e-04
2.063724678009748459e-03
1.717237289994955063e-03
1.577304792590439320e-03
2.099284436553716660e-03
2.057652920484542847e-03
-2.000157954171299934e-03
1.620097435079514980e-03
3.736221406143158674e-04
-1.683387788943946362e-03
-3.589536190032958984e+00
-1.208247849717736244e-03
1.613146276213228703e-03
-3.330368548631668091e-03
-1.512086833827197552e-03
2.934525487944483757e-03
2.080514095723628998e-03
9.005710016936063766e-04
-2.519134897738695145e-03
-8.013304864107340109e-07
-1.118747983127832413e-03
2.935851516667753458e-04
3.337978268973529339e-04
1.868171966634690762e-03
-1.772435731254518032e-03
4.960533624398522079e-05
4.460115160327404737e-04
-3.364344593137502670e-04
-1.483656698837876320e-03
7.848202367313206196e-04
7.192913326434791088e-04
-1.781200757250189781e-03
-1.817483105696737766e-03
-7.398892194032669067e-04
-1.062370720319449902e-03
-1.162203145213425159e-03
2.021956723183393478e-03
-3.065408964175730944e-04
-1.633506966754794121e-03
-1.763588261383119971e-05
-9.366077720187604427e-04
-2.523650880903005600e-03
2.053039846941828728e-03
4.090460482984781265e-03
-7.707131444476544857e-04
-2.442276570945978165e-03
-1.942080212756991386e-03
-1.864189514890313148e-03
-2.505621407181024551e-03
-1.735984929837286472e-03
7.733178790658712387e-04
-3.647142439149320126e-04
-1.822971273213624954e-03
6.864073802717030048e-04
-1.773879048414528370e-03
4.138054791837930679e-03
-2.131486078724265099e-03
3.725487913470715284e-04
1.797086908482015133e-03
-9.700810187496244907e-04
1.143563538789749146e-03
-8.611552038928493857e-05
2.104158280417323112e-03
-7.833310519345104694e-04
-1.723800785839557648e-03
-6.129459961812244728e-06
-1.099285902455449104e-03
-1.124919872381724417e-04
-4.858474130742251873e-04
1.789157278835773468e-03
2.501115377526730299e-04
-1.397899934090673923e-03
-1.617499394342303276e-03
-2.359091595280915499e-04
-1.767604961059987545e-03
-2.786526456475257874e-03
1.755771343596279621e-03
-5.648101214319467545e-04
-6.652953743468970060e-05
6.154600851004943252e-05
-1.411208882927894592e-03
-4.550412122625857592e-04
1.825924118747934699e-04
3.438058542087674141e-03
1.708125695586204529e-03
-1.790705835446715355e-03
1.066455850377678871e-03
-2.272143756272271276e-04
2.799550056457519531e+00
1.005630707368254662e-03
-5.273389397189021111e-04
1.106735668145120144e-03
-8.365955000044777989e-05
3.210652794223278761e-04
1.418614876456558704e-03
-1.670156256295740604e-03
3.957728862762451172e+00
-3.150764387100934982e-04
2.074391115456819534e-03
2.495884429663419724e-03
-6.479821167886257172e-04
3.143188077956438065e-03
-1.705427188426256180e-03
3.353337815497070551e-04
-1.695717452093958855e-03
-2.020319923758506775e-03
-7.713733357377350330e-04
1.579718780703842640e-03
-2.816661261022090912e-03
9.255241457140073180e-05
-7.979603251442313194e-04
1.014649169519543648e-03
3.804783103987574577e-03
-1.161432242952287197e-03
1.602045726031064987e-03
-1.875741290859878063e-03
-2.435807255096733570e-04
9.108624653890728951e-04
4.360303282737731934e-04
1.149516378973203246e-06
1.921350951306521893e-03
9.927259525284171104e-04
-1.632701256312429905e-03
-3.074676962569355965e-03
-1.365717616863548756e-03
-2.380898222327232361e-03
-9.650193387642502785e-04
3.581808123271912336e-04
2.578678540885448456e-03
-5.679696914739906788e-04
-5.306099192239344120e-04
8.342563523910939693e-04
9.633097648620605469e-01
-6.142641068436205387e-04
1.579087809659540653e-03
1.139583066105842590e-03
2.354163880227133632e-04
-5.774820456281304359e-04
-2.803881070576608181e-04
7.311500958167016506e-04
7.509328126907348633e-01
5.279419710859656334e-04
-9.547414956614375114e-04
-1.055250526405870914e-03
3.022028831765055656e-03
-2.695973962545394897e-03
-5.420953384600579739e-04
6.055277190171182156e-04
-1.698677544482052326e-03
-7.399962050840258598e-04
-8.388690912397578359e-05
-3.224464599043130875e-04
-1.026909798383712769e-03
-2.039742888882756233e-03
-1.475507742725312710e-03
-1.358712674118578434e-03
1.660668349359184504e-04
4.149044398218393326e-03
-2.035991346929222345e-04
1.797990524210035801e-03
-1.909183629322797060e-04
1.081197522580623627e-03
1.414652564562857151e-03
3.874174319207668304e-03
2.792160725221037865e-03
2.509073819965124130e-03
1.443934044800698757e-03
-1.524772844277322292e-03
8.339968044310808182e-04
1.447545364499092102e-04
1.771020586602389812e-03
5.346738616935908794e-04
5.396619671955704689e-04
2.020662184804677963e-03
1.577676157467067242e-03
3.664004616439342499e-04
-1.229673507623374462e-03
2.297965049743652344e+00
-1.444873487344011664e-04
5.236077413428574800e-05
1.689426484517753124e-03
7.162599940784275532e-04
-1.543587539345026016e-03
1.866660662926733494e-03
1.690025441348552704e-03
-1.135604456067085266e-03
1.359349846839904785e+00
-2.119052922353148460e-03
1.196086304844357073e-04
-4.985894775018095970e-04
8.682886837050318718e-04
1.761705614626407623e-03
-7.131253951229155064e-04
6.710252761840820312e-01
4.127709195017814636e-03
-5.886630387976765633e-04
4.891769494861364365e-04
1.780619728378951550e-03
7.241823368531186134e-06
-1.607597689144313335e-03
-2.557301893830299377e-03
3.271420253440737724e-03
-8.146038162522017956e-04
1.612041494809091091e-03
3.203428030014038086e+00
3.012885339558124542e-03
-1.184005173854529858e-03
1.595721230842173100e-03
-2.040480263531208038e-03
3.805708372965455055e-03
-1.560968230478465557e-03
-3.252312308177351952e-04
-5.800445796921849251e-04
3.852856345474720001e-03
-5.188900977373123169e-04
5.271058762446045876e-04
-1.155157806351780891e-03
1.550340326502919197e-03
4.561324894893914461e-04
1.327364472672343254e-03
2.856147475540637970e-03
7.071845466271042824e-04
-1.702253503026440740e-04
-1.051446539349853992e-03
3.854729129670886323e-06
-3.520154859870672226e-04
4.705338506028056145e-04
-1.880126306787133217e-03
-5.603230092674493790e-04
5.957361427135765553e-04
8.933434728533029556e-04
1.176760182715952396e-03
6.169418920762836933e-04
-1.751556701492518187e-04
1.248150947503745556e-03
1.754903933033347130e-03
-3.141542765661142766e-05
-5.797699559479951859e-04
-2.389245899394154549e-03
8.510294137522578239e-04
-1.189300208352506161e-03
-2.138632953574415296e-05
2.122414531186223030e-03
1.559435622766613960e-03
-1.419999753125011921e-03
-2.325716195628046989e-04
1.851316308602690697e-03
2.786736236885190010e-03
3.760578983929008245e-04
-1.713740988634526730e-03
-1.207887195050716400e-03
-2.053116681054234505e-03
1.697767060250043869e-03
-1.116643543355166912e-04
-1.109157528844662011e-04
6.438387790694832802e-04
-2.427345141768455505e-03
-1.726045156829059124e-04
1.990108052268624306e-03
2.449795961380004883e+00
1.086625154130160809e-03
-1.333746011368930340e-03
-7.724904571659862995e-05
-1.117673586122691631e-03
-5.027243332733632997e-06
-2.612457610666751862e-04
9.374716901220381260e-04
6.736912182532250881e-04
1.628846162930130959e-03
1.392150352330645546e-06
9.159270557574927807e-04
1.699893269687891006e-03
2.880704123526811600e-04
-5.727406241931021214e-04
-4.083815147168934345e-04
1.773883472196757793e-03
-1.928477082401514053e-03
3.753253549803048372e-04
1.753691816702485085e-03
-1.266079838387668133e-03
3.139020118396729231e-04
2.469172701239585876e-03
1.032307500281604007e-05
-1.953563885763287544e-03
-1.354583306238055229e-03
2.417559968307614326e-03
-1.602567965164780617e-03
4.194578621536493301e-03
-2.506684686522930861e-04
-5.309768603183329105e-04
1.111064106225967407e-03
1.701076388359069824e+00
-2.018904197029769421e-04
1.502420403994619846e-03
-6.512339459732174873e-04
2.148238536392454989e-06
1.072278828360140324e-03
-4.751136293634772301e-04
2.062225947156548500e-03
-1.855234149843454361e-03
-1.449272385798394680e-03
-4.934187745675444603e-04
2.898468810599297285e-04
1.013664063066244125e-03
1.854326692409813404e-03
9.861467406153678894e-04
-7.862924248911440372e-04
1.441445318050682545e-03
1.108110067434608936e-03
5.038528470322489738e-04
-7.923532393760979176e-04
-3.323699638713151217e-04
-1.265108148800209165e-04
-1.562927849590778351e-03
-2.993011381477117538e-03
3.583565412554889917e-04
-3.720780659932643175e-05
-1.672655809670686722e-03
-7.738661370240151882e-04
-1.205062144435942173e-03
6.627976545132696629e-04
5.623935721814632416e-04
-9.743106784299015999e-05
-2.468310995027422905e-04
3.491517054499126971e-05
-1.670608296990394592e-03
-2.864502836018800735e-03
2.383101445957436226e-06
1.821814570575952530e-03
1.256159186363220215e+00
9.327289881184697151e-04
-1.684283488430082798e-03
-3.813228104263544083e-03
1.511320122517645359e-03
-1.030564890243113041e-03
-7.492262520827353001e-04
2.830438315868377686e-03
-2.414627233520150185e-03
-1.018192851915955544e-03
2.877246355637907982e-03
-2.189432998420670629e-04
-1.682533766143023968e-03
8.828710415400564671e-04
-2.057887846603989601e-03
9.335773647762835026e-04
8.288160897791385651e-04
3.407825424801558256e-04
-9.375952067784965038e-04
1.134312595240771770e-03
-1.161904074251651764e-03
-7.683103904128074646e-04
1.081272959709167480e-03
7.763701432850211859e-06
-5.484477151185274124e-04
7.696513202972710133e-04
-7.993991603143513203e-04
-5.255877622403204441e-04
2.666462898254394531e+00
-9.229604620486497879e-04
2.094166517257690430e+00
-1.650686957873404026e-03
-3.068540827371180058e-04
-1.546359853819012642e-03
-2.655265270732343197e-04
1.279502292163670063e-03
1.581103075295686722e-03
-1.578765921294689178e-03
-2.003428526222705841e-03
-1.944553107023239136e-03
-8.686440996825695038e-04
6.490906816907227039e-04
1.946553945541381836e+00
-3.527962253428995609e-04
1.435282872989773750e-03
9.507509530521929264e-04
-1.514283358119428158e-03
8.800098439678549767e-04
4.177160095423460007e-03
-3.067139768972992897e-03
5.019520409405231476e-03
-1.806010142900049686e-03
-2.204375807195901871e-03
-1.527001033537089825e-03
-1.995975617319345474e-04
1.730765332467854023e-03
1.752668758854269981e-03
4.087347479071468115e-04
-1.780759892426431179e-03
3.147421870380640030e-03
-1.019311021082103252e-04
-1.517203636467456818e-03
1.534044626168906689e-03
1.205395790748298168e-03
3.115662574768066406e+00
-1.156001933850347996e-03
1.445303641958162189e-04
1.867216778919100761e-03
1.527235493995249271e-03
1.895613422675523907e-05
1.168946037068963051e-03
-1.765912631526589394e-03
3.167902352288365364e-03
3.138791071251034737e-03
-4.116610158234834671e-03
-6.106799119152128696e-04
3.578960240702144802e-05
1.580093055963516235e-03
1.753991004079580307e-03
-1.674827188253402710e-03
-1.599945477209985256e-03
-1.717653940431773663e-03
-3.355617991473991424e-06
2.722539007663726807e-03
6.850876961834728718e-04
-1.542972517199814320e-03
2.629954724397975951e-05
-2.687601838260889053e-03
1.599216833710670471e-03
-8.972280775196850300e-04
-2.386905193328857422e+00
-1.508991816081106663e-03
2.820051973685622215e-03
6.701832899125292897e-05
2.021626802161335945e-03
-1.381809415761381388e-04
-1.196334254927933216e-03
1.198873855173587799e-03
-2.488792641088366508e-03
-1.067990437150001526e-03
-1.713037374429404736e-03
1.824343577027320862e-03
-1.898761838674545288e-03
-3.078584326431155205e-03
-1.029921229928731918e-03
9.744418202899396420e-04
7.460525375790894032e-04
2.410359680652618408e-03
-3.660915885120630264e-03
-1.224075385835021734e-04
-4.743215686175972223e-04
1.833995105698704720e-03
-1.425277587259188294e-04
1.041960669681429863e-03
1.169936265796422958e-03
4.604645710060140118e-06
-6.634240271523594856e-04
1.190563125419430435e-04
-1.353595580440014601e-04
1.488648820668458939e-03
-1.471086172387003899e-03
-2.011415053857490420e-04
1.993376790778711438e-04
1.584620797075331211e-03
-2.034899545833468437e-03
-1.617165282368659973e-03
-7.480597705580294132e-04
2.359669923782348633e+00
3.930621605832129717e-04
-2.368682180531322956e-04
2.410155953839421272e-03
-2.036930236499756575e-04
2.013898454606533051e-03
6.515283603221178055e-04
-1.528082997538149357e-03
1.746397465467453003e-03
-9.221814252668991685e-05
-1.745342975482344627e-03
2.003112109377980232e-03
-3.792396164499223232e-04
2.561362981796264648e+00
1.866561593487858772e-03
1.567121071275323629e-04
2.342200023122131824e-04
9.313370101153850555e-04
-1.597757101990282536e-03
5.936186062172055244e-05
-1.197228906676173210e-03
1.034660963341593742e-03
1.184146502055227757e-03
-5.518334801308810711e-04
-9.528510854579508305e-04
-1.946031989064067602e-04
2.710279542952775955e-03
2.626715460792183876e-03
5.244589992798864841e-04
-1.648586126975715160e-03
1.998620806261897087e-03
-2.302147477166727185e-04
2.911232644692063332e-03
-1.180639723315834999e-03
-1.624475815333425999e-03
-2.068827394396066666e-03
2.453686902299523354e-03
-1.398365857312455773e-04
-3.733444726094603539e-03
1.775275595718994737e-04
1.675916952081024647e-03
-3.079978516325354576e-03
-1.587967970408499241e-03
-4.501199000515043736e-04
1.943298120750114322e-04
-1.589480671100318432e-03
8.190429653041064739e-04
-1.185646397061645985e-03
1.660430920310318470e-03
-9.947279977495782077e-06
9.619706543162465096e-04
1.825824612751603127e-03
1.246182131581008434e-03
-2.833502832800149918e-03
-2.535410458222031593e-03
-5.676703221979551017e-05
-4.573579644784331322e-04
-1.117128522309940308e-05
-1.523458398878574371e-03
-1.473177340812981129e-03
4.562892436981201172e+00
-1.853163004852831364e-03
-8.069046889431774616e-04
1.260885153897106647e-03
-2.502217888832092285e-03
-2.000135602429509163e-03
1.010221429169178009e-03
-2.907306770794093609e-04
1.467419555410742760e-03
1.100576628232374787e-04
-1.667737145908176899e-03
-3.598678740672767162e-04
-3.657157532870769501e-03
8.922900306060910225e-04
1.457021688111126423e-03
-5.622662138193845749e-04
-1.316319219768047333e-03
2.897518454119563103e-03
-2.763322845567017794e-04
2.525743795558810234e-03
-1.791232731193304062e-03
-5.228162044659256935e-04
1.099765533581376076e-03
-2.808440010994672775e-03
6.225236575119197369e-04
-1.920574810355901718e-03
1.495192700531333685e-04
-1.894488930702209473e-03
-1.822793041355907917e-03
2.065088832750916481e-03
1.046422636136412621e-03
3.775202902033925056e-03
-3.037425223737955093e-03
4.936389159411191940e-04
-8.126253378577530384e-04
9.367060847580432892e-04
-3.349213511683046818e-04
-3.722717287018895149e-03
-1.384180155582726002e-03
-1.322892727330327034e-03
-1.742793247103691101e-03
1.580932526849210262e-03
1.246155898115830496e-05
-2.801680006086826324e-03
-1.663959003053605556e-03
-2.853289246559143066e-03
-4.157216753810644150e-03
2.764999400824308395e-03
4.581022367347031832e-04
-1.145785092376172543e-03
-9.336111252196133137e-04
5.895284120924770832e-04
1.014174544252455235e-03
-3.841401776298880577e-04
6.422886508516967297e-04
-1.831911271438002586e-03
6.107214721851050854e-04
-1.304366625845432281e-03
1.489343354478478432e-03
-1.656479551456868649e-03
1.673043821938335896e-03
2.493359381332993507e-03
2.038076287135481834e-03
1.727054826915264130e-03
-2.082055201753973961e-03
-6.970691028982400894e-04
-2.765355631709098816e-03
-1.621664734557271004e-03
-6.912599201314151287e-04
2.766960067674517632e-03
-6.981146289035677910e-04
-1.071133068762719631e-03
9.335905779153108597e-04
1.138561870902776718e-03
-2.281772904098033905e-04
-1.751088275341317058e-04
-1.664858311414718628e-03
1.662989496253430843e-03
-2.859731612261384726e-04
7.213893695734441280e-04
2.356097567826509476e-03
1.011884189210832119e-03
-1.721903681755065918e-03
2.013199962675571442e-03
-3.724032922036712989e-07
2.515536034479737282e-04
9.873865637928247452e-04
6.780733820050954819e-04
-4.744200559798628092e-04
-3.125902032479643822e-03
1.165916677564382553e-03
-2.697691888897679746e-05
-9.474260732531547546e-04
-1.894565531983971596e-03
1.127854455262422562e-03
1.228306558914482594e-03
7.391722465399652719e-05
-1.094305887818336487e-03
2.172538806917145848e-04
-8.253100095316767693e-04
1.663743169046938419e-03
8.286404772661626339e-04
2.938654661178588867e+00
-1.367393531836569309e-03
3.747591108549386263e-04
1.588099170476198196e-03
-1.834824564866721630e-03
-2.175737405195832253e-03
1.878756564110517502e-03
2.034293720498681068e-03
2.427432220429182053e-03
3.037319984287023544e-03
6.057159407646395266e-05
-1.190255061374045908e-04
-3.093512961640954018e-03
4.282520967535674572e-04
-1.735015655867755413e-03
-4.463949881028383970e-05
-3.325747384224087000e-04
-1.227715518325567245e-03
4.255917388945817947e-03
1.527531538158655167e-03
-1.448228023946285248e-03
-7.449032855220139027e-04
6.692257593385875225e-04
2.362452913075685501e-03
7.478288607671856880e-04
-1.815080526284873486e-03
1.951478770934045315e-04
1.864307327196002007e-03
-5.342770600691437721e-04
2.487288236618041992e+00
1.176361343823373318e-03
1.775363925844430923e-03
1.268321502720937133e-04
-9.440617868676781654e-04
-1.304003177210688591e-03
-1.845465041697025299e-03
1.588434563018381596e-03
1.075803651474416256e-03
-3.579423646442592144e-04
-3.551051486283540726e-03
-3.614331362769007683e-04
1.611471758224070072e-03
-6.333799101412296295e-04
9.490762604400515556e-04
1.524304243503138423e-04
7.900259224697947502e-04
3.152409044560045004e-04
5.575917311944067478e-04
8.119756239466369152e-05
-1.794931245967745781e-03
3.846778534352779388e-03
1.014717054204083979e-04
3.204831446055322886e-04
-1.096048625186085701e-03
-2.832642057910561562e-04
-1.516078948043286800e-03
3.061944153159856796e-03
-1.086203265003859997e-03
-7.731482764938846231e-05
1.621286617591977119e-03
-1.613726839423179626e-03
4.816529981326311827e-04
-4.239520058035850525e-03
-4.503182426560670137e-04
-7.014509174041450024e-04
-1.192685333080589771e-03
-7.467133109457790852e-04
1.659918460063636303e-03
1.058271736837923527e-03
-1.251261914148926735e-03
1.743084518238902092e-03
-2.150495767593383789e+00
5.750927957706153393e-04
1.092351274564862251e-03
1.176699995994567871e-03
1.416752929799258709e-03
-1.136180362664163113e-03
3.404955787118524313e-04
2.477572765201330185e-03
3.137685125693678856e-04
-9.265777189284563065e-04
1.826432067900896072e-03
-1.599609968252480030e-03
-1.760944724082946777e-03
-7.023891084827482700e-04
-1.176583464257419109e-03
-9.846481261774897575e-04
-4.652244970202445984e-04
8.124557789415121078e-04
2.760223578661680222e-03
6.749770836904644966e-04
2.066485583782196045e-03
-7.175484788604080677e-04
-1.771826191543368623e-06
1.788262161426246166e-03
-1.155175385065376759e-03
5.665902863256633282e-04
3.869730280712246895e-03
1.633344072615727782e-04
9.607546962797641754e-04
-1.840291311964392662e-03
1.463959109969437122e-03
-2.003425266593694687e-03
3.689123259391635656e-04
2.872726181522011757e-03
1.581306918524205685e-03
1.716700149700045586e-03
-1.034838380292057991e-03
1.701806439086794853e-03
2.768191188806667924e-05
-1.917725545354187489e-03
1.663083909079432487e-03
-1.058079069480299950e-03
-2.220428432337939739e-04
2.232662518508732319e-04
-7.306670158868655562e-05
-2.532770158722996712e-03
5.921620177105069160e-04
-2.570819333413965069e-06
2.740114212036132812e+00
-5.492542404681444168e-04
2.679112832993268967e-03
-2.625974593684077263e-03
2.802975475788116455e-03
-5.951516628265380859e-01
-8.318379695992916822e-05
1.518708770163357258e-03
-1.536045572720468044e-03
-5.203753244131803513e-05
1.776833552867174149e-03
9.911475935950875282e-04
-1.833376358263194561e-03
-2.298226347193121910e-03
1.348054734990000725e-03
-2.890628296881914139e-03
3.010551736224442720e-04
5.546373431570827961e-04
-7.634208304807543755e-04
9.095435416384134442e-06
-1.075424588634632528e-04
2.371640177443623543e-03
1.179124694317579269e-03
-3.322036718600429595e-05
-1.196139259263873100e-03
4.464738303795456886e-04
-1.266887120436877012e-04
1.995956990867853165e-03
1.597539405338466167e-03
-7.834688294678926468e-04
-9.867841145023703575e-04
-1.512392424046993256e-03
-1.789594418369233608e-03
-1.538795651867985725e-03
3.178025945089757442e-04
4.099808633327484131e-03
-6.792010390199720860e-04
-1.631504623219370842e-03
-3.390686833881773055e-05
-2.033197786659002304e-03
1.161269392468966544e-04
2.839367138221859932e-03
8.178234566003084183e-05
-3.293643821962177753e-04
-1.211104827234521508e-04
7.191780605353415012e-04
-4.858547472395002842e-04
2.996819792315363884e-03
-3.011398948729038239e-04
-5.765786627307534218e-04
