-2.989521482959389687e-03
-4.877565383911132812e+00
-1.610438572242856026e-03
6.314275087788701057e-04
1.906669349409639835e-03
-1.733002136461436749e-03
3.814859628677368164e+00
1.408996642567217350e-03
1.452513039112091064e-03
-2.539756242185831070e-03
-6.414186209440231323e-04
4.860256740357726812e-05
1.906934630824252963e-04
-2.014158526435494423e-03
-1.609218888916075230e-03
3.307350873947143555e+00
2.264523983001708984e+00
2.146901845932006836e+00
1.146674505434930325e-03
-4.667661851271986961e-04
1.552365254610776901e-03
-1.816692965803667903e-04
2.547408686950802803e-03
2.172694308683276176e-03
8.979996782727539539e-04
3.093198174610733986e-03
-9.407763718627393246e-04
2.025756519287824631e-03
6.168916006572544575e-04
1.726407441310584545e-03
3.520078491419553757e-03
2.139837306458503008e-04
3.196559846401214600e-03
2.293519937666133046e-04
8.262138580903410912e-04
1.644871896132826805e-03
4.392235074192285538e-03
3.788734553381800652e-03
1.896237256005406380e-03
1.176843143184669316e-04
1.754807308316230774e-03
-1.405980205163359642e-03
1.918011927045881748e-03
4.179925192147493362e-03
-1.903315663337707520e+00
-2.785971446428447962e-04
1.579045318067073822e-03
-6.286992629611631855e-06
-2.258532040286809206e-04
-2.956656506285071373e-03
1.725327339954674244e-03
-2.997831907123327255e-03
2.075766911730170250e-03
1.150629832409322262e-03
9.622123325243592262e-04
1.518481061793863773e-03
3.515607444569468498e-03
-1.456099744245875627e-05
1.127634081058204174e-03
-2.835296254488639534e-05
2.655875444412231445e+00
2.062731422483921051e-03
1.785325934179127216e-03
2.058005658909678459e-03
1.753980526700615883e-03
-7.210540352389216423e-04
1.542592883110046387e+00
2.420682692900300026e-03
-1.878229551948606968e-03
1.738675520755350590e-03
1.955993473529815674e-03
3.055997133255004883e+00
1.334311818936839700e-04
1.918088528327643871e-03
1.162874163128435612e-03
8.166365441866219044e-04
1.597220980329439044e-04
7.482063770294189453e-01
1.648153294809162617e-03
-8.407738641835749149e-04
-4.666271852329373360e-04
-1.803221181035041809e-03
-1.628858852200210094e-03
4.579769738484174013e-04
-5.257324082776904106e-04
-1.485260901972651482e-03
-3.458557694102637470e-05
2.309530042111873627e-03
2.835616350173950195e+00
-1.406474271789193153e-03
1.421430613845586777e-03
-6.864879105705767870e-05
3.656113624572753906e+00
-4.447991086635738611e-04
1.502677565440535545e-03
1.562741934321820736e-03
-2.296825259691104293e-04
-4.831340629607439041e-04
3.461527347564697266e+00
3.095611333847045898e+00
-1.009719911962747574e-03
1.771447947248816490e-03
2.669990761205554008e-03
1.654648105613887310e-03
2.958890749141573906e-03
-5.518734105862677097e-04
-4.124797414988279343e-03
1.459887134842574596e-03
-9.653870947659015656e-04
-1.049669808708131313e-04
-3.269391600042581558e-04
-1.407998963259160519e-03
-2.818828448653221130e-03
5.381954833865165710e-04
2.877395600080490112e-03
4.970746813341975212e-04
-6.829857593402266502e-04
3.915766719728708267e-03
4.349552036728709936e-04
-3.179539635311812162e-04
1.607900368981063366e-03
3.835589408874511719e+00
2.939634025096893311e-03
1.417365041561424732e-03
-1.737869810312986374e-03
-1.078149187378585339e-03
2.043191343545913696e-03
-1.680758199654519558e-03
2.927977323532104492e+00
2.429389476776123047e+00
1.622736221179366112e-03
-3.140688640996813774e-03
2.071648304990958422e-05
3.829040331766009331e-03
9.784954600036144257e-04
7.761656306684017181e-04
-2.081411890685558319e-03
1.503679202869534492e-03
2.178164431825280190e-03
-3.259536752011626959e-04
-1.523231854662299156e-03
-2.415987546555697918e-04
-5.346037796698510647e-04
-1.249857479706406593e-03
-1.036320230923593044e-03
9.175342856906354427e-04
-1.151508535258471966e-03
1.064244934241287410e-04
9.374434011988341808e-04
-2.558852429501712322e-04
4.077604293823242188e+00
5.836634081788361073e-04
1.534955576062202454e-03
3.890511288773268461e-05
-2.856048988178372383e-03
8.211891981773078442e-04
1.693876547506079078e-04
5.292370333336293697e-04
1.910778111778199673e-03
-1.657342887483537197e-03
2.835565479472279549e-03
1.320057315751910210e-03
-1.493531046435236931e-03
1.887584221549332142e-03
-2.096796873956918716e-03
-3.127900708932429552e-04
-1.205931068398058414e-03
-1.335388980805873871e-03
2.529656281694769859e-03
4.010092001408338547e-03
6.742266705259680748e-04
-4.583327099680900574e-04
2.046947833150625229e-03
-1.724231406114995480e-03
-7.217364327516406775e-05
-1.851972076110541821e-03
1.081707421690225601e-03
-1.669032382778823376e-03
-6.867385236546397209e-04
-2.324525732547044754e-03
-1.923558302223682404e-04
1.911484287120401859e-04
3.211797447875142097e-04
7.049657870084047318e-05
1.955856278073042631e-04
2.431493951007723808e-03
-1.720142201520502567e-03
7.134323241189122200e-04
1.650444231927394867e-03
-7.342197350226342678e-04
-1.914306485559791327e-04
-5.729309050366282463e-04
6.597641622647643089e-04
-2.862791006918996572e-06
1.448250608518719673e-03
2.435734262689948082e-03
3.017795085906982422e+00
-5.116971442475914955e-04
1.630602200748398900e-04
-3.801733022555708885e-03
-6.072811811463907361e-05
-8.418672950938344002e-05
-2.078926889225840569e-03
-1.751980278640985489e-03
-1.504253945313394070e-03
3.508285444695502520e-04
-1.588120358064770699e-03
-1.866767997853457928e-03
-1.604157383553683758e-03
-1.805778010748326778e-03
3.671428654342889786e-03
-5.483147688210010529e-04
-1.973234815523028374e-03
7.739269640296697617e-04
6.417759141186252236e-05
-4.141196768614463508e-05
-1.659143948927521706e-03
1.018591807223856449e-03
4.476135654840618372e-04
3.759299579542130232e-04
-2.805996919050812721e-04
-1.236646785400807858e-03
3.215262651443481445e+00
1.964331750059500337e-05
-1.720246393233537674e-03
-1.096494495868682861e-03
9.397212415933609009e-04
-1.667228061705827713e-03
3.399727106094360352e+00
2.341800602152943611e-03
1.684020273387432098e-03
2.171435189666226506e-04
-3.736805410881061107e-06
-1.725993497529998422e-04
-2.136940369382500648e-03
2.653488423675298691e-03
6.446953630074858665e-04
1.819674973376095295e-03
2.839358989149332047e-03
-1.163429114967584610e-03
1.646140124648809433e-03
-4.800704191438853741e-04
-1.777040422894060612e-03
2.938780467957258224e-03
-6.264104740694165230e-04
8.455044735455885530e-05
9.770590113475918770e-04
-5.839478108100593090e-04
2.914118158514611423e-05
9.870345238596200943e-04
1.177256228402256966e-03
1.103789662010967731e-03
2.318641841411590576e-01
-4.138761200010776520e-03
-1.713044010102748871e-03
-1.151509932242333889e-03
1.025741454213857651e-03
9.633130975998938084e-04
-1.546946237795054913e-03
-1.132649951614439487e-03
-3.222404479980468750e+00
1.823300030082464218e-03
-1.566276652738451958e-03
-5.824710387969389558e-05
-1.860613003373146057e-03
-9.999553731177002192e-05
-3.513803239911794662e-04
-2.782513387501239777e-03
1.826949999667704105e-03
2.079571830108761787e-03
1.996560720726847649e-03
-1.308015635004267097e-04
-4.522208764683455229e-04
9.847425390034914017e-04
-1.544720609672367573e-03
9.752186597324907780e-04
-2.655260963365435600e-03
9.961474461306352168e-06
3.197278022766113281e+00
3.967116177082061768e-01
-7.171368342824280262e-04
6.569687975570559502e-04
1.271460438147187233e-03
1.397674321196973324e-03
2.276538871228694916e-03
-3.231347654946148396e-04
-9.271437302231788635e-04
-1.711818040348589420e-04
2.288828371092677116e-03
-2.050150418654084206e-03
2.285989234223961830e-03
-1.219819765537977219e-03
1.624425174668431282e-03
-3.488297807052731514e-04
8.423276012763381004e-04
7.043285877443850040e-04
2.049875212833285332e-03
-1.203638268634676933e-03
-2.365916501730680466e-03
9.719535592012107372e-04
3.102713497355580330e-03
9.759989916346967220e-04
-1.940725720487535000e-03
1.558534917421638966e-03
1.511615118943154812e-03
2.435217844322323799e-03
1.631172955967485905e-03
6.949044181965291500e-04
2.915317963925190270e-05
-7.903116056695580482e-05
2.131626752088777721e-05
3.105488372966647148e-03
1.586091937497258186e-03
5.687497905455529690e-04
-8.744784281589090824e-04
1.380735309794545174e-03
-1.868557999841868877e-03
-1.774582429789006710e-03
-9.527599322609603405e-04
9.651404689066112041e-04
-2.443456556648015976e-03
7.736973348073661327e-04
3.258812284911982715e-05
1.877743721008300781e+00
-7.613323396071791649e-04
-2.390745561569929123e-03
-1.582174561917781830e-03
9.284995612688362598e-04
5.577664123848080635e-04
4.766455094795674086e-04
-1.076444284990429878e-03
-2.400630386546254158e-03
-7.890081033110618591e-04
3.762452125549316406e+00
1.789780333638191223e-03
-5.683836643584072590e-04
1.941938418895006180e-03
-2.363176107406616211e+00
-9.978703455999493599e-04
2.064550499198958278e-04
-3.826111555099487305e-03
1.606472767889499664e-03
-1.178390928544104099e-03
-8.864927804097533226e-04
-8.287295349873602390e-04
-4.897274775430560112e-04
2.423359546810388565e-04
-2.922619227319955826e-03
-1.114611863158643246e-03
2.065374574158340693e-04
-2.784441458061337471e-04
-1.421577035216614604e-04
1.150356256403028965e-03
7.043587975203990936e-04
-2.179393777623772621e-03
1.502375962445512414e-04
-9.617293108021840453e-05
3.525606589391827583e-04
1.135891769081354141e-03
-4.146022256463766098e-03
-1.094603678211569786e-03
-1.142132095992565155e-03
1.626115525141358376e-03
-1.601549913175404072e-03
3.842684673145413399e-03
-4.710902285296469927e-04
3.031268596649169922e+00
-3.510888200253248215e-04
-2.542872680351138115e-04
1.093888859031721950e-04
-4.946371773257851601e-04
1.085079624317586422e-03
-4.226012621074914932e-03
2.419388620182871819e-03
-1.088610151782631874e-03
4.584837006404995918e-04
-9.671602165326476097e-04
-1.508780871517956257e-03
-1.684228773228824139e-03
1.083591138012707233e-03
-3.421540604904294014e-04
1.558146206662058830e-03
-1.603153883479535580e-03
-5.124858580529689789e-04
-1.896520610898733139e-03
-7.212107884697616100e-04
1.790328999049961567e-03
-2.016933634877204895e-03
-1.187611604109406471e-03
-4.254010505974292755e-03
2.010086551308631897e-03
2.759319264441728592e-03
-6.480580777861177921e-04
9.722021641209721565e-04
2.352406736463308334e-03
-1.825821353122591972e-03
-1.767745590768754482e-03
2.996260533109307289e-03
-4.188716411590576172e-03
3.598367562517523766e-03
1.237833523191511631e-03
-1.734920311719179153e-03
1.848137471824884415e-03
8.228936931118369102e-04
2.071597613394260406e-03
4.108972207177430391e-04
1.697415951639413834e-03
3.462483873590826988e-03
-1.580223470227792859e-04
9.895449038594961166e-04
1.053796731866896152e-03
1.699747401289641857e-03
-1.086463889805600047e-04
-1.854992588050663471e-03
2.875984646379947662e-04
-7.805703207850456238e-04
-3.042412688955664635e-03
-1.825559884309768677e-03
9.374516666866838932e-04
-1.024742028675973415e-03
4.467605322133749723e-04
-6.317449674497765955e-07
-1.060325303114950657e-05
-1.037828842527233064e-04
-1.646123360842466354e-03
1.182666630484163761e-03
-1.441412838175892830e-03
-3.745821886695921421e-04
-5.085309967398643494e-04
3.331786720082163811e-04
-1.709704403765499592e-03
-1.155290869064629078e-03
1.052315928973257542e-03
-5.347494734451174736e-04
-1.633548992685973644e-03
-6.348263123072683811e-04
-5.543984589166939259e-04
-1.821982325054705143e-03
-1.341152674285694957e-04
-1.095574232749640942e-03
1.006598002277314663e-03
-7.314488175325095654e-04
-1.068529789336025715e-03
-1.031710766255855560e-03
9.727720753289759159e-04
-2.773361484287306666e-05
1.051053055562078953e-03
5.783829838037490845e-04
-2.356337150558829308e-03
1.261217403225600719e-03
2.887311529775615782e-05
1.790011534467339516e-03
-5.857581272721290588e-04
7.169442251324653625e-04
-3.329488972667604685e-04
7.830723188817501068e-04
-1.039013848640024662e-03
-2.853279933333396912e-03
2.865600865334272385e-03
-4.975630436092615128e-04
2.596488047856837511e-04
1.486319932155311108e-03
-4.032717260997742414e-04
-1.750586554408073425e-03
-1.772775547578930855e-03
-1.803816063329577446e-03
-8.724182262085378170e-04
-2.517276676371693611e-03
-1.169633396784774959e-04
-1.055476095643825829e-04
-1.498759374953806400e-03
-1.251906389370560646e-03
1.885800156742334366e-03
-2.486255543772131205e-04
-1.643638359382748604e-03
1.210926682688295841e-03
-2.000373322516679764e-03
6.961733452044427395e-04
3.243739192839711905e-04
-4.760427327710203826e-05
-4.749882500618696213e-04
-5.237537698121741414e-05
-8.313124417327344418e-04
-6.375031807692721486e-05
-2.484239870682358742e-03
-6.696290802210569382e-04
1.590247848071157932e-03
-6.752472836524248123e-05
-1.753268879838287830e-04
-1.210043206810951233e-03
-3.396660322323441505e-04
-2.722248900681734085e-04
-3.067855024710297585e-03
2.025151625275611877e-03
2.844101516529917717e-03
-2.349040238186717033e-03
1.872176304459571838e-03
-2.019518986344337463e-03
1.111363060772418976e-03
1.759350881911814213e-03
-2.536372048780322075e-03
3.495559215545654297e+00
1.755392993800342083e-03
-3.075708809774369001e-04
-1.962513430044054985e-03
-1.510483096353709698e-03
3.095518040936440229e-04
-7.476432947441935539e-04
-6.781078409403562546e-04
-1.817358075641095638e-03
-1.610983861610293388e-03
-2.998170093633234501e-04
3.758591483347117901e-04
-1.625876291655004025e-03
-1.601651543751358986e-03
2.023940673097968102e-03
1.578421564772725105e-03
-4.168492159806191921e-04
-1.896057859994471073e-03
-6.801032577641308308e-04
7.860889891162514687e-04
-2.758272225037217140e-03
5.022422410547733307e-04
-4.197593952994793653e-04
1.278377487324178219e-03
2.666287422180175781e+00
-1.128162606619298458e-03
-1.194226322695612907e-03
7.822015904821455479e-04
1.899710623547434807e-03
1.690672826953232288e-03
6.910948432050645351e-04
1.815964351408183575e-03
-1.702824723906815052e-03
1.052920590154826641e-03
-7.431114790961146355e-04
2.078510355204343796e-03
1.828606473281979561e-03
9.324179263785481453e-04
-1.415222184732556343e-03
-9.242588930646888912e-06
-1.212437869980931282e-03
-2.491959894541651011e-04
5.733793950639665127e-04
-2.415167255094274879e-04
-4.172906745225191116e-03
-1.291227876208722591e-03
-3.825338557362556458e-03
1.081850030459463596e-03
-2.403066493570804596e-03
-5.101758870296180248e-04
-1.034022541716694832e-03
4.978908691555261612e-04
2.966745290905237198e-03
3.834832750726491213e-04
3.261414240114390850e-04
-4.648074682336300611e-04
3.312336206436157227e+00
-2.709724940359592438e-03
1.709764939732849598e-03
1.090769656002521515e-03
2.598763676360249519e-04
-2.796811982989311218e-03
-9.447284974157810211e-04
1.515460666269063950e-03
-1.644896576181054115e-03
1.508998335339128971e-03
-3.837807569652795792e-03
3.462045431137084961e+00
-4.125105624552816153e-04
-2.833235077559947968e-03
1.579424249939620495e-03
-2.834298880770802498e-03
-2.463447162881493568e-03
-1.573030895087867975e-04
8.965381130110472441e-05
1.812384231016039848e-03
-1.254439237527549267e-03
7.271923823282122612e-04
3.699322696775197983e-04
1.945856929523870349e-04
2.082804712699726224e-04
9.633548324927687645e-04
5.558368284255266190e-04
2.663177670910954475e-03
1.810614485293626785e-03
6.869090138934552670e-04
2.079875906929373741e-03
1.187872840091586113e-03
-5.680044414475560188e-04
2.721054479479789734e-03
-2.915889024734497070e-03
1.861900207586586475e-03
-1.101928297430276871e-03
-4.968008724972605705e-04
-1.784578314982354641e-03
-1.508565328549593687e-04
1.890472194645553827e-04
-6.192513392306864262e-04
-3.035416593775153160e-04
3.002294804900884628e-03
7.340204901993274689e-04
1.821163576096296310e-03
-3.762010717764496803e-03
-2.706495812162756920e-03
-4.571991739794611931e-04
4.907711991108953953e-04
-1.721935928799211979e-03
1.765383756719529629e-03
1.810489804483950138e-03
1.443448592908680439e-03
6.499147275462746620e-05
1.096046646125614643e-03
-9.321696124970912933e-04
-1.901550684124231339e-03
-3.451309166848659515e-04
-4.134389571845531464e-03
-1.660371897742152214e-03
-7.525190449086949229e-05
-4.937406265526078641e-05
1.982299843803048134e-03
1.468709553591907024e-03
-3.158095069011324085e-06
-7.691924693062901497e-04
-1.789266243577003479e-03
2.459229469299316406e+00
3.842549340333789587e-04
5.135213141329586506e-04
-5.314321606419980526e-04
-5.115029052831232548e-04
1.825886778533458710e-03
2.706921426579356194e-03
1.685939030721783638e-03
5.762442597188055515e-04
1.975371269509196281e-03
6.313264602795243263e-04
-9.861909784376621246e-04
6.631581345573067665e-04
-1.276648603379726410e-03
9.921013843268156052e-04
2.374426461756229401e-03
-1.544985221698880196e-03
-1.864024961832910776e-04
-2.466308884322643280e-03
1.612925203517079353e-03
-1.764769665896892548e-03
1.296146772801876068e-03
-2.953695948235690594e-04
-4.622897133231163025e-03
1.028150436468422413e-03
-1.467169378884136677e-03
5.222000181674957275e-04
2.983457803726196289e+00
-1.675690873526036739e-03
-1.795543124899268150e-03
1.364990566798951477e-05
4.778011061716824770e-04
6.464397301897406578e-05
9.444995084777474403e-04
3.516156084515387192e-06
-1.687488052994012833e-03
9.380432311445474625e-04
-2.031808486208319664e-03
-5.334377055987715721e-04
2.011254429817199707e-03
1.152901910245418549e-03
1.056984998285770416e-03
1.853272086009383202e-03
7.315244292840361595e-04
3.746835747733712196e-03
-1.502726809121668339e-03
1.170350587926805019e-03
9.367311722598969936e-04
1.590193016454577446e-03
8.156938552856445312e-01
7.193940109573304653e-04
7.245876477099955082e-04
-2.265593648189678788e-04
1.214586198329925537e-03
-1.648801495321094990e-03
7.128494326025247574e-04
2.426976425340399146e-04
1.909873913973569870e-03
-1.708682626485824585e-03
2.812332240864634514e-03
2.405572682619094849e-03
-6.580404442502185702e-05
1.533505739644169807e-03
-1.094790990464389324e-03
-1.501466264016926289e-03
-4.577472736855270341e-06
1.510641654022037983e-03
1.547553110867738724e-03
-6.176266469992697239e-05
1.992604229599237442e-03
1.511959475465118885e-03
6.641005747951567173e-04
-2.859333995729684830e-03
3.863515565171837807e-03
2.066770801320672035e-03
1.937647233717143536e-03
4.212898667901754379e-03
-3.144356422126293182e-03
-1.196783385239541531e-03
-1.900412258692085743e-03
-2.054218435660004616e-03
-4.088512621819972992e-03
-8.727938984520733356e-04
1.627258956432342529e-03
-1.019872492179274559e-03
-1.824486767873167992e-03
-2.858078340068459511e-03
9.469726937822997570e-04
2.970207016915082932e-03
-2.848643809556961060e-03
-2.972329093609005213e-04
-3.781571052968502045e-03
1.230288995429873466e-03
-1.158796134404838085e-03
1.790028065443038940e-03
-2.864241600036621094e-03
-3.463914035819470882e-04
1.017576782032847404e-03
1.543290098197758198e-03
2.442562486976385117e-03
1.490142196416854858e-03
2.958283526822924614e-03
1.452108263038098812e-04
2.560258144512772560e-04
-1.745107583701610565e-03
1.978604588657617569e-03
-2.256431034766137600e-04
1.606321893632411957e-03
-2.091798087349161506e-04
1.871607499197125435e-03
8.741576457396149635e-04
2.657980367075651884e-04
2.410145709291100502e-03
-7.515566539950668812e-04
1.739644911140203476e-03
-5.642836913466453552e-04
-2.029006369411945343e-03
2.180359559133648872e-03
3.362141796969808638e-05
1.831288333050906658e-03
-9.971173712983727455e-04
-1.878990093246102333e-03
9.325157152488827705e-04
1.757525140419602394e-03
-4.942651721648871899e-04
-2.137577394023537636e-05
1.150204916484653950e-03
1.187080633826553822e-03
-1.497852033935487270e-03
-1.859653624705970287e-03
-1.755377626977860928e-03
-5.382771487347781658e-04
2.016058191657066345e-03
2.214082487626001239e-04
1.696186023764312267e-03
1.163397333584725857e-03
-1.708262134343385696e-03
1.972528174519538879e-03
7.269223569892346859e-04
-1.245008315891027451e-03
-1.559257623739540577e-03
6.331602344289422035e-04
1.784877968020737171e-03
8.812381565803661942e-05
9.771658806130290031e-04
-2.098152035614475608e-04
-2.801587397698312998e-04
5.298985051922500134e-04
-2.065459964796900749e-03
2.746951649896800518e-04
1.734660821966826916e-03
-1.157953403890132904e-03
-2.846809511538594961e-04
-2.326891524717211723e-03
-8.313403232023119926e-04
-9.352940251119434834e-04
1.779297366738319397e-03
1.050429651513695717e-03
2.259283792227506638e-04
-8.607302443124353886e-04
-1.752003678120672703e-03
-3.308969025965780020e-04
-4.062056075781583786e-03
1.671307487413287163e-03
1.694623613730072975e-03
-5.978549015708267689e-04
-2.725324011407792568e-04
4.001574125140905380e-04
9.918635478243231773e-04
1.245823921635746956e-03
1.501841470599174500e-03
7.422866765409708023e-04
2.383606042712926865e-03
6.274059414863586426e-04
1.598404487594962120e-03
1.732827047817409039e-03
1.723470748402178288e-03
-7.609687163494527340e-04
1.582248252816498280e-03
6.401036516763269901e-04
-3.608369443099945784e-04
-9.056181297637522221e-04
1.665753778070211411e-03
-7.690381607972085476e-04
2.042520092800259590e-03
7.412019185721874237e-04
-1.847774256020784378e-03
1.784682739526033401e-03
-2.859775122487917542e-05
1.878201961517333984e-03
9.258916252292692661e-04
-1.690045464783906937e-03
3.044041633605957031e+00
-3.682403359562158585e-03
1.628792611882090569e-03
-9.857730474323034286e-04
1.430698670446872711e-03
-1.262154313735663891e-03
-1.537489122711122036e-03
5.715326551580801606e-05
-1.886373502202332020e-04
2.628109455108642578e+00
1.335529028438031673e-03
6.384407752193510532e-04
5.330438725650310516e-04
1.647061784751713276e-03
-9.540546452626585960e-04
1.921726739965379238e-03
1.351759856333956122e-04
7.383094634860754013e-04
1.120690256357192993e-03
-1.598422531969845295e-03
1.901200532913208008e+00
4.441037162905558944e-06
4.196397494524717331e-03
-5.216885256231762469e-05
-1.500042621046304703e-03
1.466097892262041569e-03
-6.281423266045749187e-04
1.693647704087197781e-03
-9.754514321684837341e-04
2.802875757217407227e+00
-3.356310480739921331e-04
3.144362708553671837e-04
-2.123218837368767709e-05
-4.062984953634440899e-04
-1.493386807851493359e-03
-1.831891131587326527e-03
2.140621887519955635e-03
3.807667526416480541e-04
2.436706272419542074e-04
-3.090210491791367531e-03
-2.952367765828967094e-03
-1.698427367955446243e-04
-2.363366074860095978e-03
-1.746825175359845161e-03
-1.680392771959304810e-03
1.531790709123015404e-03
-1.613980275578796864e-03
-1.437885221093893051e-04
-5.814153701066970825e-04
-1.597711816430091858e-03
-3.202267107553780079e-04
1.666995813138782978e-03
2.218900626758113503e-04
-2.097011776641011238e-03
-5.375507171265780926e-04
1.034320681355893612e-03
-5.447723087854683399e-04
-2.325666486058253213e-07
9.820784907788038254e-04
1.285994076170027256e-03
3.623866941779851913e-03
2.548996126279234886e-03
-7.282461156137287617e-04
1.572729524923488498e-04
-2.177409769501537085e-04
-1.964002847671508789e-03
-5.490517360158264637e-04
7.716245017945766449e-04
7.592966430820524693e-04
3.014547401107847691e-04
-2.006556373089551926e-03
1.270214794203639030e-03
6.437949923565611243e-05
-2.383721293881535530e-03
-1.888277241960167885e-03
7.698737899772822857e-04
8.978770347312092781e-04
1.548650092445313931e-03
-2.448808227200061083e-04
-1.009885920211672783e-03
2.992670051753520966e-03
1.616283319890499115e-03
1.526815118268132210e-03
-1.009957282803952694e-03
5.662370822392404079e-04
-3.022892633453011513e-04
-2.995227575302124023e+00
2.181775635108351707e-03
-1.742945052683353424e-03
-9.517559665255248547e-04
1.168192247860133648e-03
1.101739821024239063e-03
2.188413869589567184e-03
-3.962223418056964874e-03
1.787442248314619064e-03
1.096601597964763641e-03
-8.908018935471773148e-04
1.540252706035971642e-03
1.946275588124990463e-03
-1.206250162795186043e-03
-6.182329379953444004e-04
-4.571884928736835718e-04
-1.461792737245559692e-03
-1.733724609948694706e-03
-7.290607027243822813e-05
1.531883608549833298e-03
-1.648297067731618881e-03
2.067886060103774071e-03
3.430696010589599609e+00
-1.164245884865522385e-03
-1.545719918794929981e-03
-3.503238549456000328e-03
-2.483503194525837898e-03
-1.785713830031454563e-03
1.907322148326784372e-04
1.773635041899979115e-03
1.829913118854165077e-03
-1.109890872612595558e-03
2.566554940131027251e-05
-2.654995769262313843e-03
2.924764296039938927e-03
1.390944235026836395e-03
8.398689678870141506e-04
-2.451216802000999451e-03
1.987134572118520737e-03
-1.183731830678880215e-03
-1.495480420999228954e-03
-1.826673396863043308e-03
1.508914399892091751e-03
-1.229996210895478725e-03
5.012546316720545292e-04
-3.242493548896163702e-04
2.716749673709273338e-03
6.316795479506254196e-04
-1.485223299823701382e-03
1.293137436732649803e-03
1.875510672107338905e-03
-1.664419076405465603e-03
3.579575859475880861e-04
1.737911486998200417e-03
-7.356030982919037342e-04
3.284124832134693861e-04
3.589337575249373913e-04
7.940277282614260912e-05
4.102007485926151276e-03
-1.872563385404646397e-03
1.972125172615051270e+00
1.551092718727886677e-03
-3.857722273096442223e-03
-1.056621782481670380e-03
-1.722085406072437763e-03
9.806153830140829086e-04
-6.001992733217775822e-04
-3.010017331689596176e-03
-2.740449504926800728e-03
2.004851121455430984e-03
1.548051019199192524e-03
-5.531617207452654839e-04
-6.968386587686836720e-04
1.099534798413515091e-03
4.618885868694633245e-04
2.297484636306762695e+00
-4.246516327839344740e-04
-9.311050525866448879e-04
-1.468789530918002129e-03
-1.615152461454272270e-03
1.171991461887955666e-03
4.106459673494100571e-03
-2.067119814455509186e-03
2.011419564951211214e-05
-4.860534318140707910e-05
3.351685008965432644e-04
-8.069695322774350643e-04
-5.346700345398858190e-05
1.499391626566648483e-03
-2.833585604093968868e-04
-3.762693086173385382e-04
-1.649664831347763538e-03
-2.452065818943083286e-04
2.701103512663394213e-04
9.816641686484217644e-04
2.271929588459897786e-05
4.211243358440697193e-04
2.829202217981219292e-03
-6.368836620822548866e-04
6.063263281248509884e-04
8.230423554778099060e-04
-1.293599489144980907e-03
1.519087934866547585e-03
-5.121137946844100952e-04
-1.737835584208369255e-03
2.097045304253697395e-03
-5.906437872909009457e-04
-8.938154205679893494e-04
-1.349849626421928406e-03
5.915839574299752712e-04
-1.992099532799329609e-05
-1.912018051370978355e-03
-1.584303681738674641e-03
-4.999795419280417264e-05
-1.197758363559842110e-03
-6.505766068585216999e-04
3.590049891499802470e-05
2.964504819829016924e-04
-6.930153467692434788e-04
1.216830642079003155e-04
-1.877705100923776627e-03
6.068524671718478203e-04
7.147215073928236961e-04
1.500804675742983818e-03
1.087956014089286327e-03
5.886840517632663250e-05
-1.695091719739139080e-03
-1.757447957061231136e-03
7.873845170252025127e-04
1.961481291800737381e-03
1.489747664891183376e-03
8.782270015217363834e-04
-1.199002377688884735e-03
-9.369502076879143715e-04
1.192138297483325005e-03
-5.269053508527576923e-04
8.536578388884663582e-05
4.226871242281049490e-04
2.525339603424072266e+00
-5.875421338714659214e-04
-3.510966780595481396e-04
6.817679968662559986e-04
5.375058972276747227e-04
-1.091448939405381680e-03
1.580051379278302193e-03
1.553250709548592567e-03
-8.779671625234186649e-04
-1.187416492030024529e-03
-2.003178000450134277e-03
2.404397586360573769e-03
6.253411411307752132e-04
-1.927992096170783043e-03
1.698586042039096355e-03
1.869228435680270195e-03
1.311757601797580719e-03
-1.057252869941294193e-03
5.208259099163115025e-04
-3.730930329766124487e-04
-6.652992451563477516e-04
-1.515262876637279987e-03
8.821474038995802402e-04
-2.598383871372789145e-04
1.658879918977618217e-03
-1.740123261697590351e-03
-4.771293315570801497e-04
-2.982645528391003609e-04
-1.492363517172634602e-03
3.132863785140216351e-04
5.304137594066560268e-04
7.800426683388650417e-04
-2.023199485847726464e-04
1.746255788020789623e-03
1.166572095826268196e-03
1.524992519989609718e-03
2.924642525613307953e-03
1.050921855494379997e-05
2.697793483734130859e+00
-2.188818529248237610e-03
5.728311953134834766e-04
1.634620712138712406e-03
3.481936873868107796e-03
1.256215036846697330e-03
-5.868213484063744545e-04
-1.943948518601246178e-05
2.249543322250247002e-03
1.026348400046117604e-04
9.012831142172217369e-04
1.154844881966710091e-03
3.808273933827877045e-03
2.733592118602246046e-04
-2.049089642241597176e-03
-1.244293060153722763e-03
2.164426696253940463e-04
1.456753001548349857e-03
2.041934989392757416e-03
-4.197902046144008636e-03
1.538884011097252369e-03
4.269385826773941517e-04
-1.186299603432416916e-03
5.625475896522402763e-04
-1.888454862637445331e-04
-1.716977218165993690e-03
-7.161791436374187469e-04
3.191555442754179239e-04
3.547234296798706055e+00
1.055849483236670494e-03
-4.154884081799536943e-04
-1.515841286163777113e-04
3.202888765372335911e-04
2.015469828620553017e-03
-9.126566583290696144e-04
6.725414423272013664e-04
1.540159108117222786e-03
3.252087354660034180e+00
-3.221308579668402672e-04
1.545481063658371568e-04
-1.761375227943062782e-03
-3.967216180171817541e-04
1.496511627919971943e-03
-1.082766451872885227e-03
-2.908339774876367301e-05
3.821131773293018341e-03
5.346183752408251166e-05
7.608911837451159954e-04
8.856396307237446308e-04
-3.874709364026784897e-05
2.947835717350244522e-03
1.698191976174712181e-03
1.702387118712067604e-03
-1.021306146867573261e-03
1.776396296918392181e-03
1.264513230125885457e-05
-1.917748479172587395e-03
-2.442905861244071275e-05
1.013951608911156654e-03
1.067075645551085472e-03
1.551347086206078529e-03
-2.015975536778569221e-03
4.060636274516582489e-03
1.525348052382469177e-03
7.910983404144644737e-04
-9.041957091540098190e-04
-4.412023699842393398e-04
6.816124077886343002e-04
2.867558505386114120e-03
-1.651382073760032654e-03
-1.968126278370618820e-03
-1.913975225761532784e-03
2.056055236607789993e-03
-1.841486431658267975e-03
9.255586337530985475e-05
-1.856417511589825153e-03
-9.500802843831479549e-04
-2.972732472699135542e-04
2.592034870758652687e-03
-2.015322446823120117e-03
1.670345198363065720e-03
-1.017129165120422840e-03
-1.228094479301944375e-04
9.850371861830353737e-04
-3.775950986891984940e-03
-2.069273614324629307e-04
-1.000124728307127953e-03
1.500835409387946129e-03
-2.077639102935791016e-03
2.743372751865535975e-04
1.820835313992574811e-04
1.824639388360083103e-03
9.560445323586463928e-04
-2.217829227447509766e-03
3.860107855871319771e-03
-3.769297851249575615e-03
-3.775177465286105871e-04
1.530082197859883308e-03
-3.418727137614041567e-04
-3.431376899243332446e-05
6.984544597798958421e-05
-1.701170112937688828e-03
4.712061490863561630e-04
-9.675603942014276981e-04
1.698713982477784157e-03
2.918213431257754564e-04
6.748824962414801121e-04
1.899524009786546230e-03
1.578058581799268723e-03
9.009924251586198807e-04
-1.619190559722483158e-03
-9.361496777273714542e-04
-3.791735740378499031e-03
-1.157336519099771976e-03
-1.782767008990049362e-03
4.141027107834815979e-03
-9.390980267198756337e-05
-1.508094428572803736e-04
-2.734323788899928331e-05
1.421288819983601570e-03
2.352006034925580025e-03
1.700955908745527267e-03
-2.349222544580698013e-03
-4.434903094079345465e-04
2.104521729052066803e-03
2.685421204660087824e-04
1.576744485646486282e-03
1.163783133961260319e-03
2.348089357838034630e-03
-3.401809372007846832e-04
-4.915623576380312443e-04
-3.076719818636775017e-03
5.241349572315812111e-04
-1.478555350331589580e-04
1.171495998278260231e-03
-1.678614411503076553e-03
3.084023017436265945e-03
-2.688488748390227556e-04
-1.165428664535284042e-03
6.280195666477084160e-04
-9.394516237080097198e-04
3.024252830073237419e-03
-3.464165783952921629e-04
2.805610653012990952e-03
-1.354297273792326450e-04
2.497855748515576124e-04
-1.092604270525043830e-05
-5.360441282391548157e-04
-2.753513865172863007e-03
-1.689261640422046185e-03
-2.425484359264373779e-03
-1.734203193336725235e-03
-1.151915523223578930e-03
7.214673678390681744e-04
1.834562513977289200e-03
-2.009951975196599960e-03
1.605920842848718166e-03
6.644064560532569885e-04
-4.868258838541805744e-04
-1.363881747238337994e-04
-4.091654904186725616e-03
3.196073521394282579e-04
-3.002883167937397957e-04
-1.589876017533242702e-03
2.627935493364930153e-03
-1.693570637144148350e-03
-3.153850848320871592e-04
-7.327799103222787380e-04
1.887067082861904055e-05
1.255509676411747932e-03
4.509190039243549109e-04
1.683823764324188232e-03
9.779066313058137894e-04
1.757824211381375790e-03
1.827975735068321228e-03
-1.013042405247688293e-03
-4.228930454701185226e-03
-5.758120096288621426e-04
9.939179290086030960e-04
2.441351069137454033e-03
-2.914395881816744804e-03
-1.799827790819108486e-03
1.883161254227161407e-03
-6.867699994472786784e-05
1.006318023428320885e-03
-5.755616803071461618e-05
-6.214832537807524204e-04
-7.657578680664300919e-04
2.439310628687962890e-04
1.951389131136238575e-03
1.956182299181818962e-03
-1.550392131321132183e-03
-1.051949104294180870e-03
-2.915494143962860107e-03
5.028519080951809883e-04
1.292422064580023289e-03
-1.369686069665476680e-04
-1.107670250348746777e-03
-9.674869361333549023e-04
4.741300072055310011e-04
-2.871078904718160629e-03
2.416260977042838931e-04
1.752286916598677635e-03
-2.423939062282443047e-03
2.769179176539182663e-03
2.089833287755027413e-04
4.542220849543809891e-04
-2.603099107742309570e+00
-1.521266764029860497e-03
8.303742652060464025e-05
1.042611074808519334e-05
-1.985536888241767883e-03
-5.784966051578521729e-04
-3.110198769718408585e-03
-5.029018575442023575e-05
-7.145587587729096413e-04
-9.206497634295374155e-05
-2.951393136754631996e-03
-1.696686143986880779e-03
-8.852228347677737474e-05
1.718430197797715664e-03
1.533837639726698399e-03
-2.352048642933368683e-03
-4.136433359235525131e-03
8.113900548778474331e-04
1.639448404312133789e+00
-3.964615461882203817e-05
-1.959828659892082214e-03
-2.704842947423458099e-03
6.322663975879549980e-04
3.714061975479125977e+00
1.124953036196529865e-03
-2.392180729657411575e-03
1.748406211845576763e-03
1.422610221197828650e-04
-5.099694826640188694e-04
-2.807293087244033813e-03
1.024468569085001945e-03
-1.048644771799445152e-03
1.305068726651370525e-03
3.291725442977622151e-05
1.518871518783271313e-03
1.212946837767958641e-03
2.781067043542861938e-03
-2.897150814533233643e-03
-9.053511312231421471e-04
-3.929435275495052338e-03
1.531630870886147022e-03
-5.955776032351423055e-06
-1.133231446146965027e-03
-1.395853818394243717e-03
-1.584651065059006214e-03
2.872769837267696857e-04
1.888151891762390733e-04
2.441533952951431274e-01
1.900591072626411915e-03
8.010719902813434601e-04
-6.008362397551536560e-04
-1.789865666069090366e-03
1.170458854176104069e-03
2.730465785134583712e-04
-1.799112185835838318e-03
-1.685043564066290855e-03
-1.529608853161334991e-04
1.739678322337567806e-03
-7.150470628403127193e-04
9.286531130783259869e-04
-2.177715359721332788e-04
9.087558719329535961e-04
1.014026565826497972e-04
1.607861951924860477e-03
9.156326414085924625e-04
-9.469069773331284523e-04
-2.649476227816194296e-04
1.661229180172085762e-03
-9.718221263028681278e-04
-7.154602790251374245e-04
-1.961959991604089737e-03
-6.342987180687487125e-04
7.287338376045227051e-04
-1.094196806661784649e-03
1.140129985287785530e-03
-1.624325872398912907e-03
-6.960059399716556072e-04
-4.169993102550506592e-03
-4.147788509726524353e-03
1.528240245534107089e-04
-1.768346177414059639e-03
1.709994161501526833e-03
7.467529503628611565e-04
1.705831033177673817e-03
-2.192145446315407753e-03
-2.098680939525365829e-03
-7.884503575041890144e-04
-1.555834780447185040e-03
1.153545104898512363e-03
3.574714899063110352e+00
6.544747739098966122e-04
1.793485999107360840e+00
-2.635887358337640762e-03
-1.520521938800811768e-03
1.682602218352258205e-03
9.967216756194829941e-04
3.075537681579589844e+00
1.007853774353861809e-03
-4.150240856688469648e-04
-1.460437779314815998e-03
1.752743613906204700e-03
-3.893275279551744461e-04
4.674687806982547045e-05
-3.108119359239935875e-03
-2.037121681496500969e-03
2.550135599449276924e-03
6.894338639540364966e-06
-2.862013876438140869e-03
-1.598632778041064739e-03
3.718458756338804960e-04
-1.029800623655319214e-03
1.511908252723515034e-03
-9.683030657470226288e-04
2.933795563876628876e-03
4.128970671445131302e-03
-7.420176407322287560e-04
-5.992913502268493176e-04
1.209141802974045277e-03
2.246719837188720703e+00
1.713789883069694042e-03
1.529303262941539288e-03
1.795795280486345291e-03
-3.643075178842991590e-04
1.201043269247747958e-04
2.854863880202174187e-03
1.686269766651093960e-03
4.749517029267735779e-05
1.450232695788145065e-03
-6.903291796334087849e-05
7.882995414547622204e-04
-1.499438425526022911e-03
9.919836884364485741e-04
-1.130836899392306805e-03
1.730228746055217925e-06
2.382316589355468750e+00
-4.254499508533626795e-04
-1.559906639158725739e-03
-1.079940586350858212e-03
3.918826103210449219e+00
1.509507303126156330e-03
-2.071962226182222366e-03
-4.515339678619056940e-04
-8.288747048936784267e-04
1.569764572195708752e-03
3.671986924018710852e-04
3.711410972755402327e-04
-2.751340856775641441e-03
-2.773417234420776367e+00
2.727232640609145164e-04
-4.366278590168803930e-04
3.034701105207204819e-03
-1.151307253167033195e-03
2.071356284432113171e-04
2.068522619083523750e-03
-1.067639212124049664e-03
-3.778893500566482544e-03
1.664343639276921749e-03
3.359015099704265594e-04
-1.341210154350847006e-04
-1.691226614639163017e-03
1.259362208656966686e-03
1.197083154693245888e-03
-1.070506055839359760e-03
-2.197742833232041448e-05
1.819342607632279396e-03
-2.712882633204571903e-06
-1.196366618387401104e-03
-9.154496947303414345e-04
8.342375513166189194e-04
-1.590993051650002599e-04
5.474451463669538498e-04
-1.683672540821135044e-03
8.045454742386937141e-04
3.148417687043547630e-03
-2.435215719742700458e-04
-1.538849901407957077e-03
1.808966160751879215e-03
3.709671087563037872e-03
-6.932603428140282631e-04
-2.785339893307536840e-04
1.239001285284757614e-03
-2.818472683429718018e-03
-8.367179543711245060e-04
1.086224103346467018e-03
-3.863299498334527016e-04
-5.452933255583047867e-04
3.007214749231934547e-03
2.898160696029663086e+00
-7.531606825068593025e-04
1.784932683221995831e-03
-1.706112991087138653e-03
-7.344993646256625652e-04
1.438966137357056141e-03
1.801881939172744751e-03
5.901474505662918091e-04
-1.046800985932350159e-03
-2.841224195435643196e-03
-1.703344867564737797e-03
-2.845827955752611160e-03
1.864553196355700493e-04
-1.161846914328634739e-03
-5.600888980552554131e-04
9.626859682612121105e-04
3.168234252370893955e-04
3.061430470552295446e-04
1.471952768042683601e-03
1.326584257185459137e-03
2.703329082578420639e-03
1.378186279907822609e-03
1.703509245999157429e-03
3.133971767965704203e-04
-1.649081590585410595e-03
-2.479198621585965157e-03
-1.203852938488125801e-03
2.048094756901264191e-03
-1.279664924368262291e-03
-2.425789117813110352e+00
6.244065007194876671e-04
1.233982737176120281e-03
-1.807124614715576172e+00
-1.935509731993079185e-03
7.097736815921962261e-04
7.568792207166552544e-04
2.344099044799804688e+00
-1.308130595134571195e-04
1.158807077445089817e-03
3.819108242169022560e-03
-2.007693285122513771e-03
1.134024816565215588e-03
-1.975704682990908623e-03
3.579408645629882812e+00
1.435942365787923336e-03
8.477705996483564377e-04
-9.222879307344555855e-04
4.677702963817864656e-04
-3.063354408368468285e-03
-6.209217244759202003e-04
1.341467839665710926e-03
3.041458316147327423e-03
-6.482932949438691139e-04
-2.814657287672162056e-03
9.774406498763710260e-05
-1.487575354985892773e-05
-1.651284168474376202e-03
1.699009444564580917e-03
-1.188679249025881290e-03
7.032462162896990776e-04
-2.062861341983079910e-03
-6.254102336242794991e-04
-2.158081624656915665e-04
-6.800516857765614986e-04
-1.412363606505095959e-03
5.108309560455381870e-04
-1.222626771777868271e-03
-7.240612758323550224e-04
1.358309382339939475e-04
-1.592160551808774471e-03
-1.079068970284424722e-04
-1.012404449284076691e-03
2.393429749645292759e-04
4.296652041375637054e-04
-1.104510156437754631e-03
4.377029254101216793e-04
-2.610174939036369324e-03
1.415026024915277958e-03
-1.373874838463962078e-03
-2.061969833448529243e-03
-4.170071799308061600e-03
-1.198458485305309296e-03
-7.881338206061627716e-06
1.708357827737927437e-03
-6.340878317132592201e-04
1.425373484380543232e-03
2.026086673140525818e-03
-1.851653098128736019e-03
1.384749077260494232e-03
-1.636344473809003830e-03
-1.623973599635064602e-03
-1.839663833379745483e-03
1.673690625466406345e-03
1.809394598240032792e-04
2.028082497417926788e-03
1.489994116127490997e-03
-1.850168220698833466e-03
-1.004363875836133957e-03
-8.441427489742636681e-04
-1.384378061629831791e-03
1.565327867865562439e-03
8.236699504777789116e-04
3.524412386468611658e-05
-1.484400359913706779e-03
-7.285613683052361012e-04
1.346830045804381371e-03
-1.518455916084349155e-03
2.616928832139819860e-04
-2.676202217116951942e-03
-1.575822825543582439e-04
1.595293753780424595e-03
6.124584469944238663e-04
-1.034534536302089691e-03
-1.453915756428614259e-04
9.039085707627236843e-04
-6.874006357975304127e-04
2.780813258141279221e-03
-1.179733546450734138e-03
4.632570780813694000e-04
1.758131315000355244e-03
-1.091517508029937744e-03
1.355873770080506802e-03
9.670595754869282246e-04
1.185338478535413742e-03
-4.911352298222482204e-04
1.540326979011297226e-03
-8.869898156262934208e-04
1.830481225624680519e-03
-2.030022209510207176e-03
-1.182984211482107639e-03
-5.306233651936054230e-05
2.407071224297396839e-05
-1.186031498946249485e-03
5.020820535719394684e-04
-1.611917628906667233e-03
-1.484876847825944424e-03
-3.810747060924768448e-03
-5.142598529346287251e-04
1.337540568783879280e-03
-7.709785713814198971e-04
-9.546675719320774078e-04
-6.129340035840868950e-04
6.204723613336682320e-04
5.982966467854566872e-05
-1.026272308081388474e-03
1.788884634152054787e-03
-7.549039437435567379e-04
-1.847053790697827935e-04
7.742259913356974721e-05
1.828990643844008446e-03
2.580553293228149414e+00
1.729759154841303825e-03
1.658150431467220187e-04
-1.082802657037973404e-03
3.764108521863818169e-03
4.964177496731281281e-04
6.345577276078984141e-06
-1.773814437910914421e-03
4.053243173984810710e-05
4.672106115322094411e-06
-1.822902238927781582e-03
9.523906628601253033e-04
1.725108944810926914e-03
-1.891591353341937065e-03
-3.067045472562313080e-04
7.401554612442851067e-04
8.700360194779932499e-04
-2.806445350870490074e-03
-7.362334872595965862e-04
2.655778778716921806e-03
3.314107016194611788e-04
1.724866218864917755e-03
7.872284040786325932e-04
-1.752924756146967411e-03
-1.450967858545482159e-03
-1.821475219912827015e-03
8.164288592524826527e-04
1.522131264209747314e-03
-3.033287124708294868e-03
4.730136133730411530e-04
3.794199756157468073e-06
1.355410087853670120e-03
-2.058407058939337730e-03
-4.130845481995493174e-04
-1.697235740721225739e-03
-3.754643548745661974e-04
-1.694304984994232655e-03
-1.906629418954253197e-03
1.486706241848878562e-05
-2.552267163991928101e-03
5.387798228184692562e-05
-2.911092480644583702e-03
8.814346510916948318e-04
1.125781680457293987e-03
-1.657474669627845287e-03
-4.176613583695143461e-04
5.966163007542490959e-04
8.909099960874300450e-06
2.304896479472517967e-04
1.794275362044572830e-03
1.564716338180005550e-03
1.755724224494770169e-04
4.565178824122995138e-04
1.985967392101883888e-03
7.370795938186347485e-04
7.113809115253388882e-04
3.999680848210118711e-05
-2.774925378616899252e-04
-1.518968376331031322e-03
1.495555858127772808e-03
1.177770667709410191e-03
-9.955014102160930634e-04
1.898626796901226044e-03
1.651925704209133983e-04
-9.879210265353322029e-04
5.719097680412232876e-04
1.840531011112034321e-03
5.520257400348782539e-04
-1.845983904786407948e-03
-1.441242406144738197e-03
-1.185715547762811184e-03
1.714653102681040764e-03
4.593089688569307327e-04
-9.705883567221462727e-04
3.927408542949706316e-04
2.627634094096720219e-04
1.155973062850534916e-03
1.727558905258774757e-03
-3.446462214924395084e-04
3.038221802853513509e-05
-1.227198983542621136e-03
2.522239810787141323e-04
-1.794105046428740025e-03
-5.092071951366961002e-04
-8.660390158183872700e-04
-2.117621334036812186e-04
-1.584181911312043667e-03
-1.458065817132592201e-03
-1.091394340619444847e-03
-3.472300013527274132e-04
2.447626786306500435e-03
2.809699857607483864e-03
-7.114045438356697559e-04
2.165892510674893856e-04
1.470137038268148899e-03
1.157697406597435474e-03
-1.529707573354244232e-03
1.703088637441396713e-03
1.051602652296423912e-03
1.650302052497863770e+00
3.319633833598345518e-04
1.352567505819024518e-05
-1.157407314167357981e-04
6.734273047186434269e-04
2.487840247340500355e-04
1.992215635254979134e-03
1.564477453939616680e-03
-1.967148273251950741e-04
7.849782705307006836e-04
5.542533926927717403e-06
5.086208693683147430e-04
-2.919250400736927986e-03
1.849876483902335167e-03
-2.565928734838962555e-04
-5.474500358104705811e-04
-1.599554903805255890e-03
1.603773271199315786e-04
2.967013744637370110e-03
-1.681715366430580616e-03
1.382756861858069897e-03
-1.966971904039382935e-03
-2.864243695512413979e-03
8.841193318367004395e-01
-1.188158756121993065e-03
2.155536640202626586e-04
1.820388017222285271e-03
-1.510922680608928204e-03
-9.990400867536664009e-04
-1.940027112141251564e-03
-1.311125466600060463e-03
4.227327735861763358e-05
1.855455106124281883e-03
-3.254179609939455986e-04
-4.187484271824359894e-03
2.651965245604515076e-03
-6.296092760749161243e-04
3.065328346565365791e-04
5.602232995443046093e-04
-2.354432828724384308e-03
-2.974504895973950624e-04
-1.524561899714171886e-03
1.114192418754100800e-04
-1.515758922323584557e-03
2.582241773605346680e+00
1.901867100968956947e-03
-4.422158817760646343e-04
-1.690833596512675285e-03
-7.197329978225752711e-05
-1.437187078408896923e-03
-1.006808481179177761e-03
-4.784220946021378040e-04
5.703030619770288467e-04
-1.208101515658199787e-03
8.858829387463629246e-04
-1.408925745636224747e-04
-9.860593127086758614e-04
-5.134465027367696166e-05
7.290749927051365376e-04
-1.694553997367620468e-03
1.594673725776374340e-03
1.975212479010224342e-03
-4.204516299068927765e-03
-9.386130841448903084e-04
-2.718748000916093588e-04
-8.227139915106818080e-05
-4.024885129183530807e-03
-1.730609918013215065e-03
1.887516856193542480e+00
-4.487131373025476933e-04
1.942871022038161755e-04
1.220877864398062229e-03
-1.015959074720740318e-03
1.093979924917221069e-03
6.898154388181865215e-04
-2.444740966893732548e-04
9.352794731967151165e-04
-1.148872193880379200e-03
-1.796762924641370773e-03
1.083373907022178173e-03
4.501216753851622343e-04
2.077610464766621590e-03
-1.537360018119215965e-03
-1.743574044667184353e-03
8.225054480135440826e-04
1.672730664722621441e-03
-8.998080156743526459e-04
1.533272443339228630e-03
1.580015523359179497e-03
-1.972355414181947708e-03
-9.657984483055770397e-04
-2.082917839288711548e-03
-1.068859011866152287e-03
4.801255709026008844e-04
-2.937565790489315987e-03
-1.424475107342004776e-03
4.863364447373896837e-04
1.404253416694700718e-03
6.056808633729815483e-04
4.195524379611015320e-03
-1.219268524437211454e-04
5.109645644552074373e-05
2.522408030927181244e-03
1.959160581463947892e-04
9.277484496124088764e-04
-2.971957903355360031e-03
4.752868262585252523e-04
-2.955512376502156258e-03
-2.828257856890559196e-03
2.794285774230957031e+00
-2.299705054610967636e-03
4.825409559998661280e-04
1.518229488283395767e-03
1.661550137214362621e-03
-6.590284174308180809e-04
-1.873447559773921967e-03
1.078091678209602833e-03
5.186676862649619579e-04
-1.963632879778742790e-03
-1.889194012619554996e-03
3.728448878973722458e-03
-4.370742535684257746e-04
-1.478240941651165485e-03
-6.392106297425925732e-04
2.118214251822791994e-05
-2.982617123052477837e-03
-3.296272596344351768e-03
1.481961226090788841e-04
1.688055810518562794e-03
1.528293942101299763e-03
-1.458619080949574709e-04
5.807811394333839417e-04
3.012851113453507423e-03
-1.699909684248268604e-03
-2.668549132067710161e-04
-1.525520812720060349e-03
4.286342009436339140e-04
1.147856120951473713e-03
1.465195557102560997e-03
-2.673392184078693390e-03
1.567017054185271263e-03
1.770244416547939181e-04
-1.762597123160958290e-03
1.860843913163989782e-04
1.801542588509619236e-03
-2.814921783283352852e-03
-6.085516070015728474e-04
9.610491688363254070e-04
1.561133656650781631e-03
1.537863863632082939e-03
-1.623876043595373631e-03
-4.510502913035452366e-04
-1.623851130716502666e-03
-5.741537315770983696e-04
1.623397256480529904e-04
4.883862857241183519e-05
1.798666082322597504e-03
2.467960985086392611e-05
2.841161563992500305e-03
1.638863119296729565e-03
-1.886805403046309948e-04
-1.211223658174276352e-03
-4.141024692216888070e-05
1.855158130638301373e-03
-1.691232435405254364e-03
3.190781571902334690e-04
3.619856433942914009e-03
-1.647543045692145824e-03
2.344307489693164825e-03
-1.482618506997823715e-03
1.383540686219930649e-03
1.701258821412920952e-03
-6.501030293293297291e-04
-2.836035309883300215e-05
5.892043700441718102e-04
-5.490090698003768921e-04
1.606775331310927868e-03
-1.568628358654677868e-03
9.825158631429076195e-04
1.744331908412277699e-03
2.164663076400756836e+00
-4.919514685752801597e-05
-5.220742968958802521e-05
4.186206788290292025e-04
5.850626039318740368e-04
2.333153970539569855e-03
-9.505578782409429550e-04
-9.415531530976295471e-04
-9.903955506160855293e-04
1.515712589025497437e-03
-1.179548678919672966e-03
7.628552848473191261e-04
8.145208703354001045e-04
1.013056840747594833e-03
1.306807518005371094e+00
1.800886937417089939e-03
-8.151141810230910778e-04
-2.812460297718644142e-03
1.364942640066146851e-03
1.916638109833002090e-03
2.658652083482593298e-04
1.844180398620665073e-03
-2.827612683176994324e-03
-9.067042265087366104e-04
-8.798472117632627487e-05
1.344240037724375725e-03
1.506038010120391846e-03
-2.871592994779348373e-03
-5.505096050910651684e-04
-2.925754291936755180e-03
1.146136666648089886e-03
2.885489957407116890e-04
7.113883038982748985e-04
1.089939265511929989e-03
-2.008331241086125374e-03
1.919970498420298100e-03
3.852790687233209610e-03
-1.827923930250108242e-03
-1.129057025536894798e-03
-1.405919902026653290e-04
1.815731637179851532e-03
-9.220563515555113554e-05
-5.430938326753675938e-04
2.509056124836206436e-03
-2.224714553449302912e-04
1.114980434067547321e-03
5.170960794202983379e-04
-1.207606168463826180e-03
-2.221627393737435341e-03
1.028277096338570118e-03
-1.641675480641424656e-03
-1.790202572010457516e-03
1.078468398191034794e-03
-8.463120902888476849e-04
-1.714155892841517925e-03
-1.625154633074998856e-03
4.611474578268826008e-04
3.023129829671233892e-04
7.797873113304376602e-04
-5.166863556951284409e-04
-1.132771794800646603e-04
1.304592005908489227e-03
2.044514287263154984e-03
-8.841185481287539005e-04
-5.261157057248055935e-04
3.228876739740371704e-04
-3.442513407208025455e-04
1.571321510709822178e-03
1.854375819675624371e-03
2.010395983234047890e-03
3.262271347921341658e-04
1.644468167796730995e-03
-2.095755917252972722e-05
-2.631108509376645088e-04
3.104142146185040474e-03
-8.978738151199650019e-06
4.506369121372699738e-03
2.191469247918576002e-04
8.137639961205422878e-04
2.353536197915673256e-03
3.830729518085718155e-03
1.873794244602322578e-03
-1.062171300873160362e-03
-5.654697888530790806e-04
1.154528348706662655e-03
1.726812770357355475e-04
-8.175264811143279076e-04
1.018765382468700409e-03
-2.933553652837872505e-03
2.238297747680917382e-04
-4.131696186959743500e-03
-7.403066265396773815e-04
1.689400058239698410e-03
-1.666955184191465378e-03
7.714752573519945145e-04
-1.138236722908914089e-03
3.073061234317719936e-04
1.829344430007040501e-03
