1.013217261061072350e-03
-2.913880394771695137e-03
-1.706792972981929779e-03
-1.063369418261572719e-04
1.479501253925263882e-03
-1.166205853223800659e-03
1.353777246549725533e-03
-3.664385760203003883e-03
4.873283251072280109e-05
-2.024651737883687019e-03
-1.096578314900398254e-03
-1.460901461541652679e-03
2.975609540939331055e+00
-1.625206670723855495e-03
3.805870946962386370e-04
-1.116973580792546272e-03
2.035878598690032959e-03
-1.087423152057453990e-04
-7.804712513461709023e-04
-4.581103858072310686e-04
-1.903518103063106537e-03
9.087651851586997509e-04
5.689305067062377930e-01
2.875540494918823242e+00
3.057194640859961510e-03
6.762074772268533707e-04
2.041541337966918945e+00
-1.674162194831296802e-04
-9.613373549655079842e-04
1.049784041242673993e-04
2.222113398602232337e-04
-6.626127869822084904e-04
-1.397701678797602654e-03
2.018147613853216171e-03
-2.515594009310007095e-03
1.532654627226293087e-03
-1.844660961069166660e-03
2.054248579952400178e-05
2.143457174301147461e+00
-1.156543381512165070e-03
-2.272715091705322266e+00
-6.026517075952142477e-05
-1.993434270843863487e-03
-4.897559992969036102e-04
8.854553452692925930e-04
-2.140103578567504883e+00
9.512095130048692226e-04
-1.405018963851034641e-03
-1.599186449311673641e-03
4.418003081809729338e-04
6.369593902491033077e-04
6.143053760752081871e-04
2.976126503199338913e-03
-3.432830853853374720e-04
-2.300501655554398894e-04
-3.100445959717035294e-03
2.236126922070980072e-03
-9.375804220326244831e-04
1.434530131518840790e-03
1.184332184493541718e-03
-2.662923361640423536e-04
-1.683730981312692165e-03
1.296153059229254723e-03
-9.003974846564233303e-04
-1.425547719001770020e+00
2.771832514554262161e-03
-6.392973591573536396e-04
-7.187561132013797760e-04
-2.668442204594612122e-03
-1.882751703262329102e+00
-1.885789213702082634e-03
-2.112901071086525917e-03
-1.488645211793482304e-03
-1.218365505337715149e-03
1.090901787392795086e-03
-4.718845884781330824e-04
-3.020961070433259010e-03
1.489726710133254528e-03
1.672306418418884277e+00
3.965996980667114258e+00
-1.556711387820541859e-03
-7.115706684999167919e-04
2.641399621963500977e+00
-3.799120604526251554e-04
-8.979698177427053452e-04
-2.071967581287026405e-03
-3.319121606182307005e-04
-3.729860531166195869e-03
1.730048563331365585e-03
-5.631523090414702892e-04
1.595904469490051270e+00
5.874134367331862450e-04
1.708890660665929317e-03
3.010421292856335640e-03
-1.009711530059576035e-03
-1.638117711991071701e-03
-9.661680669523775578e-04
9.766328148543834686e-04
1.064911601133644581e-03
-1.019976334646344185e-03
-3.160064574331045151e-03
7.166648865677416325e-04
-1.766189699992537498e-03
5.459403037093579769e-04
8.221787810325622559e-01
6.852298392914235592e-04
-1.901152543723583221e-03
8.838843787088990211e-04
1.181926229037344456e-03
-1.098247943446040154e-03
9.532002150081098080e-04
2.620743762236088514e-04
-8.715753210708498955e-04
-5.883526755496859550e-04
-1.879219431430101395e-03
1.373402075842022896e-03
-1.144091715104877949e-03
7.563685066998004913e-04
-7.523101521655917168e-04
-1.466643414460122585e-03
1.282799203181639314e-04
-2.893581055104732513e-03
1.194797732750885189e-04
1.065676100552082062e-03
4.073158740997314453e+00
-2.839442640834022313e-05
6.028801435604691505e-04
-2.550853252410888672e+00
-4.547511052805930376e-04
2.051117131486535072e-03
-2.016051672399044037e-03
1.071853421308333054e-05
1.942200353369116783e-03
1.988820498809218407e-03
-1.545575214549899101e-03
2.185349119827151299e-03
-4.893303266726434231e-04
-1.458755577914416790e-04
3.261147975921630859e+00
-1.257939031347632408e-03
-1.901261741295456886e-03
-9.346076985821127892e-04
2.803299665451049805e+00
-1.183854692499153316e-05
8.566679316572844982e-04
-3.609542369842529297e+00
3.766724606975913048e-03
2.991586457937955856e-03
1.407277421094477177e-03
1.789359492249786854e-03
4.023614805191755295e-03
-1.830923254601657391e-03
2.437029123306274414e+00
-4.817117296624928713e-04
-9.111808030866086483e-04
-2.035474317381158471e-04
4.117656499147415161e-03
-2.826033160090446472e-03
-9.958725422620773315e-04
-8.204971090890467167e-04
1.030151615850627422e-03
1.095555257052183151e-03
-1.621511328266933560e-04
-6.358915707096457481e-04
1.799240824766457081e-03
4.573447513394057751e-04
2.710819244384765625e-03
-4.148674011230468750e+00
-8.063010318437591195e-05
9.024071623571217060e-04
1.735290628857910633e-03
-8.074769866652786732e-04
3.920636177062988281e+00
-1.868349500000476837e-03
-3.036631969735026360e-03
-1.659818110056221485e-03
2.958440542221069336e+00
1.210866961628198624e-03
-9.162133210338652134e-04
-7.326425402425229549e-04
2.670135814696550369e-03
1.820003613829612732e-03
-2.613668330013751984e-04
3.150222764816135168e-04
-4.000151820946484804e-04
1.470400311518460512e-04
1.393695420119911432e-04
2.568382114986889064e-05
4.597530733008170500e-06
-4.294081882108002901e-04
2.084456617012619972e-03
1.605686615221202374e-03
6.702382233925163746e-04
1.013138331472873688e-03
-1.162506523542106152e-03
1.666427969932556152e+00
9.575656731612980366e-04
-1.414600759744644165e-03
1.598960661794990301e-04
-1.979859312996268272e-03
-1.878513838164508343e-03
-1.742605585604906082e-03
2.639137674123048782e-04
5.576686817221343517e-04
-5.420079687610268593e-04
6.278895889408886433e-04
9.680759394541382790e-04
8.121862192638218403e-04
-1.148653100244700909e-03
6.489856750704348087e-04
1.689873053692281246e-03
2.417781157419085503e-03
-6.454642280004918575e-04
7.949749124236404896e-04
-2.449289662763476372e-03
-1.774953445419669151e-03
2.398735377937555313e-03
1.395752537064254284e-03
8.611683733761310577e-05
-4.924690001644194126e-04
1.120456454373197630e-05
9.646118087403010577e-06
-2.464257879182696342e-03
9.605889790691435337e-04
-1.890542334876954556e-03
-2.059169113636016846e-03
-7.434807048412039876e-05
-1.669356017373502254e-03
-2.215624699601903558e-04
-8.126666070893406868e-04
-4.627861781045794487e-04
1.821235055103898048e-03
-1.734661520458757877e-03
-1.952872480615042150e-05
1.700812485069036484e-03
1.096314168535172939e-03
5.410307203419506550e-04
1.265721512027084827e-03
-1.724130939692258835e-03
9.098420850932598114e-04
-1.142645371146500111e-03
7.721029687672853470e-04
4.173009395599365234e-01
3.588380524888634682e-03
-4.296591941965743899e-05
-1.517847529612481594e-03
-1.109615666791796684e-03
-8.569138008169829845e-04
6.464474136009812355e-04
-9.258541977033019066e-04
7.510877330787479877e-04
-5.289039690978825092e-04
-3.461053711362183094e-04
-2.876127546187490225e-04
-1.188811256724875420e-05
-1.866643899120390415e-03
7.242798455990850925e-04
1.962133683264255524e-03
9.509406663710251451e-05
1.862680539488792419e-03
6.913919351063668728e-04
-7.410809048451483250e-04
1.590027124620974064e-03
1.239528181031346321e-03
-2.138017443940043449e-03
3.516670549288392067e-04
1.725189649732783437e-04
1.159517676569521427e-03
-1.675493898801505566e-03
-1.602080301381647587e-04
1.673151156865060329e-03
-1.229703339049592614e-04
7.280565332621335983e-04
-5.953317740932106972e-04
2.420573960989713669e-03
1.389885088428854942e-03
4.680525744333863258e-04
9.705381817184388638e-04
5.238136509433388710e-04
-8.104883017949759960e-04
1.512632356025278568e-03
-1.652088714763522148e-03
-9.403843432664871216e-04
1.108026481233537197e-03
-1.708028488792479038e-03
4.886129754595458508e-04
3.207603294868022203e-04
-9.984469215851277113e-06
2.424503443762660027e-03
1.059424132108688354e-03
2.311053276062011719e+00
2.654693525983020663e-05
2.703533042222261429e-03
3.000840777531266212e-03
-6.486295606009662151e-04
1.577577553689479828e-03
-3.561265300959348679e-03
1.107666059397161007e-03
-2.041741041466593742e-03
9.505911148153245449e-04
-1.435041340300813317e-04
-5.605248152278363705e-04
2.934236526489257812e+00
3.282876968383789062e+00
3.007219929713755846e-04
4.668030596803873777e-04
-1.045130542479455471e-03
1.631267368793487549e-03
-1.151692238636314869e-03
-2.545979261398315430e+00
1.918825320899486542e-03
1.117269042879343033e-03
-1.976454630494117737e-03
-1.083993120118975639e-03
2.457026566844433546e-04
-8.332467405125498772e-04
1.344486488960683346e-03
1.111857709474861622e-03
5.023832200095057487e-04
9.955664863809943199e-04
3.054153694392880425e-06
1.511365990154445171e-03
1.561638491693884134e-04
-1.682612812146544456e-03
-1.515101292170584202e-03
6.252590101212263107e-04
-8.858824148774147034e-04
2.451367035973817110e-04
-1.076341024599969387e-03
1.691911369562149048e-03
-1.354788313619792461e-03
4.743672609329223633e-01
2.144303638488054276e-03
-5.102626164443790913e-04
-1.785549800843000412e-03
8.122178260236978531e-04
-5.330333369784057140e-04
-1.568139065057039261e-03
-2.192726387875154614e-04
-1.635467400774359703e-03
-5.274100840324535966e-05
-3.893985704053193331e-04
-1.123207388445734978e-03
-6.085370550863444805e-04
-2.876682905480265617e-03
-1.540963072329759598e-03
-7.259640260599553585e-04
3.340751864016056061e-04
-2.852944598998874426e-04
2.768148900941014290e-03
2.121928613632917404e-03
-1.663161208853125572e-03
1.843449776060879230e-03
-6.256932974793016911e-04
-8.960568229667842388e-04
1.096907770261168480e-03
2.432249486446380615e-03
-1.747190719470381737e-03
-1.154573517851531506e-03
2.016040263697504997e-03
-4.556081839837133884e-04
1.849418622441589832e-03
-1.096223946660757065e-03
1.791369635611772537e-03
4.815658554434776306e-03
1.208349363878369331e-03
9.055476984940469265e-04
-1.059710164554417133e-03
7.450148696079850197e-04
-1.310414751060307026e-03
-2.696280134841799736e-03
2.346053952351212502e-03
1.544953905977308750e-03
8.029853925108909607e-04
1.592049375176429749e-04
5.649419035762548447e-04
3.324220888316631317e-03
1.566066057421267033e-04
-1.678036409430205822e-03
-7.238626858452335000e-05
-1.685858354903757572e-03
7.898488547652959824e-04
2.438666997477412224e-03
-4.546212673187255859e+00
1.623487216420471668e-03
-1.741090207360684872e-03
-3.235065378248691559e-04
-2.668043889570981264e-04
1.631864230148494244e-03
9.802714921534061432e-04
1.096328021958470345e-03
1.956767635419964790e-03
1.506487955339252949e-03
7.503274246118962765e-04
3.012555418536067009e-03
8.207961946027353406e-05
-1.082478789612650871e-03
3.486210480332374573e-04
-3.346448065713047981e-04
9.790182812139391899e-04
-1.474278979003429413e-03
9.402409777976572514e-04
-1.056068227626383305e-03
-5.109785124659538269e-04
1.654343563131988049e-03
-2.501768292859196663e-03
2.082024933770298958e-03
-1.831889385357499123e-03
1.862525125034153461e-03
-9.379470720887184143e-04
2.697171294130384922e-05
-1.517890254035592079e-03
9.921928867697715759e-04
1.731535303406417370e-03
1.056484412401914597e-03
-2.039501996478065848e-04
-3.031945379916578531e-04
1.157857361249625683e-03
1.640027761459350586e+00
1.897093956358730793e-03
3.373170038685202599e-04
-9.350647451356053352e-05
4.113474569749087095e-04
-2.417323557892814279e-04
-1.085177413187921047e-03
-8.043549023568630219e-04
2.579151153564453125e+00
-1.076473272405564785e-03
-4.141396784689277411e-04
7.850550173316150904e-05
-3.903795732185244560e-03
1.752175274305045605e-03
1.891351222991943359e+00
-4.831468104384839535e-04
3.471395757514983416e-04
-6.989053217694163322e-04
4.939822247251868248e-04
-2.093659481033682823e-03
4.867366224061697721e-04
-6.727811996825039387e-04
2.048490103334188461e-03
-2.670381916686892509e-03
1.722835353575646877e-03
-7.426023366861045361e-04
-1.750236144289374352e-03
-3.617326437961310148e-04
-1.099764718674123287e-03
8.459612727165222168e-04
3.652421582955867052e-05
8.021850953809916973e-04
2.118927222909405828e-04
-1.053701853379607201e-03
7.482767250621691346e-05
8.608581265434622765e-04
5.396876949816942215e-04
1.742377062328159809e-03
-1.521238707937300205e-03
-2.681642072275280952e-03
5.743353995057987049e-06
3.700784640386700630e-03
-9.320777026005089283e-04
8.865084382705390453e-04
1.669157645665109158e-03
-1.061891787685453892e-03
-1.690275617875158787e-03
1.200240803882479668e-03
2.704917686060070992e-03
-7.703611481701955199e-05
-2.433172194287180901e-03
-8.204271434806287289e-04
-1.061750575900077820e-03
-3.860304830595850945e-03
4.643643333110958338e-04
1.232631620950996876e-04
-3.109559766016900539e-04
1.831394553184509277e+00
2.488432452082633972e-03
4.195641260594129562e-03
1.666015130467712879e-03
-9.318740339949727058e-04
-7.235963712446391582e-04
7.266906904987990856e-04
-1.763705047778785229e-03
-1.788624329492449760e-03
1.750337891280651093e-03
-1.665738062001764774e-03
2.179700240958482027e-04
1.656419248320162296e-03
3.274287737440317869e-04
1.794424722902476788e-03
5.285736918449401855e-01
3.498222213238477707e-05
7.446308154612779617e-04
1.356195891276001930e-03
1.658807159401476383e-03
-1.613568398170173168e-03
-1.025124220177531242e-03
-1.684332266449928284e-03
-5.049139144830405712e-04
-3.446895861998200417e-04
5.636686682701110840e-01
4.141994751989841461e-03
-1.094074919819831848e-03
6.981343613006174564e-04
-7.433613063767552376e-04
-1.672267389949411154e-04
1.705107628367841244e-03
8.915730868466198444e-04
-7.175280188675969839e-05
-7.959981303429231048e-05
-8.769125088292639703e-06
4.764176846947520971e-04
-2.046234476438257843e-05
-5.945420125499367714e-04
-2.054932527244091034e-03
-1.591798067092895508e+00
-4.726043553091585636e-04
-1.398539985530078411e-03
-6.364110158756375313e-04
-1.158696482889354229e-03
-2.910965122282505035e-03
-2.403848571702837944e-03
1.697006169706583023e-03
1.803478808142244816e-03
-3.692733589559793472e-04
7.985850679688155651e-04
-1.766325440257787704e-03
-1.597219496034085751e-03
1.076368149369955063e-03
1.221821992658078671e-03
2.047000918537378311e-03
-2.503470052033662796e-03
1.755840494297444820e-03
7.132959435693919659e-04
1.768906833603978157e-03
2.241409238195046782e-04
1.109829288907349110e-03
-1.086567295715212822e-03
-1.513008493930101395e-03
2.096098382025957108e-03
1.796540222130715847e-03
4.458471448742784560e-05
1.655326690524816513e-03
-3.042036842089146376e-04
-3.531399852363392711e-05
1.671484438702464104e-03
1.047161291353404522e-03
1.128884730860590935e-03
-7.293773232959210873e-04
3.711014389991760254e-01
-8.877977379597723484e-04
2.388011431321501732e-03
-1.825480721890926361e-03
-5.769424606114625931e-04
-4.446319362614303827e-04
-1.831586239859461784e-03
1.722296932712197304e-03
1.804138650186359882e-03
-2.198569243773818016e-03
-1.016709837131202221e-03
1.054702093824744225e-03
6.015750113874673843e-04
1.869881292805075645e-03
-2.841202076524496078e-03
-2.475164365023374557e-03
-3.378430265001952648e-04
1.136354636400938034e-03
1.281914301216602325e-03
7.861333433538675308e-04
-9.769207099452614784e-04
6.458178977482020855e-04
-1.058252411894500256e-03
-1.198115176521241665e-03
1.713532255962491035e-03
-7.365985075011849403e-04
1.843252420425415039e+00
1.668675220571458340e-03
-2.857521176338195801e-04
-7.150350138545036316e-04
-8.935029036365449429e-04
-7.322928868234157562e-04
-1.098987879231572151e-03
-1.724620698951184750e-03
1.760442391969263554e-03
-1.521811354905366898e-03
-1.793567207641899586e-03
5.847587599419057369e-04
-1.898090122267603874e-03
-3.017099108546972275e-03
-1.324220560491085052e-03
-9.844574378803372383e-05
-7.755976985208690166e-04
-4.106753505766391754e-03
1.663033384829759598e-03
-2.671976806595921516e-03
8.699154132045805454e-04
-2.166117075830698013e-03
-1.080112415365874767e-03
3.502467880025506020e-04
-5.641414900310337543e-04
7.480462081730365753e-04
1.637900830246508121e-03
7.102212985046207905e-04
1.107988879084587097e-03
-1.800419704522937536e-04
-1.675814855843782425e-03
-1.346050528809428215e-03
6.061345338821411133e-04
-7.174877282523084432e-06
-7.788443472236394882e-04
1.654081861488521099e-03
-3.220599610358476639e-04
2.800490437948610634e-05
1.706016482785344124e-03
7.205316214822232723e-04
1.234768424183130264e-03
-7.622062112204730511e-04
7.992197060957551003e-04
1.669604447670280933e-03
-1.955417217686772346e-03
-3.990988479927182198e-04
-3.663081151898950338e-04
-9.900813456624746323e-04
7.464387454092502594e-04
-1.083457143977284431e-03
-1.128158764913678169e-03
-1.816803216934204102e+00
3.540233956300653517e-05
-3.896625130437314510e-04
-1.383786089718341827e-03
4.720420984085649252e-04
-5.222191248321905732e-05
-1.674753846600651741e-03
1.182178850285708904e-03
1.776682096533477306e-03
-2.052025403827428818e-03
7.834297139197587967e-04
-6.112064584158360958e-04
1.823643338866531849e-03
-3.750216215848922729e-03
1.070595812052488327e-03
2.521329326555132866e-03
-1.834947965107858181e-03
1.849649241194128990e-03
-1.152016455307602882e-03
2.559706449508666992e+00
3.813914721831679344e-03
-1.890759565867483616e-03
1.719176536425948143e-03
7.499532075598835945e-04
-2.074313117191195488e-03
1.275087706744670868e-03
6.972342380322515965e-04
-2.967658219859004021e-04
-2.032333053648471832e-03
2.112106449203565717e-04
-2.351754577830433846e-03
7.189714815467596054e-04
1.073752646334469318e-03
1.662203925661742687e-03
-1.119663240388035774e-03
-8.262491901405155659e-04
1.739305444061756134e-03
7.033320143818855286e-04
1.111778663471341133e-03
-3.829072229564189911e-03
-1.324734621448442340e-04
-3.794928488787263632e-04
7.585591520182788372e-04
-5.998376873321831226e-04
1.089607598260045052e-03
-3.255917399656027555e-04
1.748967799358069897e-03
1.211413182318210602e-03
2.651312934176530689e-05
2.085020067170262337e-03
2.525505260564386845e-05
5.413375329226255417e-04
3.488334827125072479e-03
-4.124348633922636509e-04
4.643747815862298012e-04
-5.254228599369525909e-04
2.617981044750194997e-05
-9.558979218127205968e-05
1.181686180643737316e-03
3.716522187460213900e-04
-1.786762033589184284e-03
1.090599806047976017e-03
-1.888072816655039787e-03
-6.153846043162047863e-04
7.021795609034597874e-04
-1.691660261712968349e-03
1.208243542350828648e-03
3.519956080708652735e-04
1.631295657716691494e-03
-9.290945599786937237e-04
-3.009573556482791901e-04
1.168276183307170868e-03
8.093200158327817917e-04
1.715130638331174850e-03
1.839933800511062145e-03
3.139606269542127848e-05
1.004565390758216381e-03
-8.405242115259170532e-04
-9.877370903268456459e-04
-6.107345107011497021e-04
-7.739797001704573631e-04
9.041543235071003437e-04
-1.805877196602523327e-03
1.671334146521985531e-03
5.274676950648427010e-04
2.811861922964453697e-03
-6.265141419135034084e-04
2.690431938390247524e-05
-7.196267833933234215e-04
2.071009948849678040e-03
1.127022667787969112e-03
-3.777412348426878452e-04
-1.634757732972502708e-03
-9.726973949000239372e-04
5.326769896782934666e-04
-3.450121439527720213e-04
-1.614424865692853928e-03
3.834802424535155296e-03
-9.713963372632861137e-04
-2.396281575784087181e-03
-5.495618097484111786e-06
-1.162365893833339214e-03
1.132710603997111320e-03
-1.616183551959693432e-03
1.319925766438245773e-03
1.661131274886429310e-03
1.989584881812334061e-03
1.049645827151834965e-03
-9.946970967575907707e-04
-1.397703017573803663e-04
5.394663810729980469e-01
1.182012958452105522e-03
-1.872731023468077183e-03
2.833932812791317701e-04
1.181944040581583977e-03
1.083676488633500412e-05
2.447179285809397697e-03
1.833943417295813560e-03
-6.175950984470546246e-04
1.099256565794348717e-03
-2.418657066300511360e-03
-1.738147926516830921e-03
7.232932257466018200e-04
-1.905031269416213036e-03
3.670680162031203508e-04
9.936197893694043159e-04
-2.429699292406439781e-03
-1.752593438141047955e-03
7.613601046614348888e-04
-1.144980429671704769e-03
-1.749092712998390198e-03
-4.823637209483422339e-05
1.589124090969562531e-03
-1.714404323138296604e-03
-7.881316705606877804e-04
4.764772020280361176e-04
-9.429260971955955029e-04
1.088781165890395641e-03
3.111140395049005747e-04
6.505892815766856074e-05
-2.472941996529698372e-03
1.940197311341762543e-03
4.118055949220433831e-05
-1.814376097172498703e-03
-1.513970550149679184e-03
1.816357485949993134e-03
7.488665287382900715e-04
1.095790416002273560e-03
1.898269983939826488e-03
-2.657373843248933554e-04
5.247987573966383934e-04
1.668171840719878674e-03
-1.100865192711353302e-03
-6.030738586559891701e-04
-2.878295163100119680e-05
2.435652771964669228e-03
1.663061091676354408e-03
1.950129284523427486e-03
-1.286055194213986397e-03
-1.509983803771319799e-06
-2.783571481704711914e+00
1.910311751998960972e-03
1.078514964319765568e-03
5.403486490249633789e-01
-2.944653970189392567e-04
-4.110166628379374743e-04
-3.156307502649724483e-04
-8.933001081459224224e-04
9.328988962806761265e-04
-7.722541340626776218e-04
5.552757065743207932e-04
1.583534874953329563e-03
-1.353169907815754414e-03
3.052198793739080429e-03
1.807342632673680782e-03
5.317241302691400051e-04
7.386813522316515446e-04
3.576990275178104639e-04
-1.138577004894614220e-03
1.837494783103466034e-03
-7.121945382095873356e-04
-3.850961104035377502e-03
2.185259472753386945e-05
1.613377360627055168e-03
-3.822193481028079987e-03
-2.226405777037143707e-03
-7.497311453334987164e-04
-1.804907456971704960e-03
1.053775078617036343e-03
1.092649297788739204e-03
-1.459777849959209561e-04
-5.657704314216971397e-04
-7.315347902476787567e-04
-2.532459562644362450e-03
-8.720066980458796024e-04
-2.446695696562528610e-03
7.422401540679857135e-05
6.155103328637778759e-04
-7.677847752347588539e-04
1.006944687105715275e-03
-2.726718550547957420e-03
-6.580348708666861057e-04
3.237325290683656931e-04
2.341490937396883965e-03
8.913656929507851601e-04
-6.056185520719736814e-05
-1.792010385543107986e-03
1.591441221535205841e-03
1.798369921743869781e-03
9.328261949121952057e-04
-2.460453106323257089e-05
1.825648010708391666e-03
1.132422825321555138e-03
-2.184813609346747398e-03
-2.877533261198550463e-04
6.262793613132089376e-05
-1.176969031803309917e-03
6.842763978056609631e-04
1.152317039668560028e-03
1.737908460199832916e-03
-2.523751696571707726e-03
-2.541826339438557625e-03
-1.744980108924210072e-03
-5.307211540639400482e-04
1.065037795342504978e-03
-1.614811248145997524e-03
-1.074243802577257156e-03
-1.109620439819991589e-03
3.532547270879149437e-04
-1.455272780731320381e-03
2.435955451801419258e-03
-3.645165706984698772e-04
5.673232371918857098e-04
-9.235207689926028252e-04
1.229491608683019876e-04
3.308917512185871601e-04
-1.078254659660160542e-03
7.523501990363001823e-04
9.842927829595282674e-05
-4.597317310981452465e-04
9.997095912694931030e-04
-8.300618901557754725e-06
1.074141939170658588e-03
1.835040631704032421e-03
-1.435966230928897858e-03
-2.704389393329620361e-03
-1.721100532449781895e-03
7.531244191341102123e-04
-7.678915862925350666e-04
-2.066990360617637634e-03
4.158669151365756989e-03
-9.860856225714087486e-04
1.587838982231914997e-03
1.924117445014417171e-03
-1.098994282074272633e-03
-1.681302324868738651e-03
-4.621799744199961424e-04
-8.017270010896027088e-04
-2.070150803774595261e-03
1.666308962740004063e-03
-1.639183959923684597e-03
4.839501052629202604e-04
-4.606184083968400955e-04
-1.041090115904808044e-03
8.120689890347421169e-04
-8.183492464013397694e-04
5.762687069363892078e-04
2.798810368403792381e-03
7.630987092852592468e-04
7.045221282169222832e-04
-1.676629763096570969e-03
-4.126852378249168396e-03
-1.203687788802199066e-04
2.223824739456176758e+00
6.227120175026357174e-04
1.748358947224915028e-03
-1.029605744406580925e-03
-1.651468803174793720e-03
-3.700861416291445494e-04
2.377617871388792992e-03
1.673253602348268032e-03
-1.842891331762075424e-03
2.571974437159951776e-05
-1.867654849775135517e-03
2.106586704030632973e-03
1.166045200079679489e-03
1.764715299941599369e-03
-5.937619716860353947e-04
1.533287810161709785e-03
2.133559202775359154e-03
8.125083986669778824e-04
1.711209421046078205e-03
1.757410049438476562e+00
-1.373362465528771281e-04
1.664874725975096226e-03
-1.929602236486971378e-03
-5.994579987600445747e-04
-2.548266667872667313e-03
-8.187819621525704861e-04
-1.554482383653521538e-03
1.032048021443188190e-04
-1.671773148700594902e-03
9.455180261284112930e-04
-1.100419438444077969e-03
1.710902317427098751e-03
-1.198670943267643452e-03
-1.720182481221854687e-03
-6.114459829404950142e-04
-7.403214694932103157e-04
1.723445137031376362e-03
-1.936404500156641006e-03
-2.341515850275754929e-03
-1.362526789307594299e-03
-9.267383720725774765e-04
-3.580177508410997689e-05
-3.594676672946661711e-04
1.116648898459970951e-03
1.696423627436161041e-03
-2.505775191821157932e-04
7.322361925616860390e-04
-1.137192361056804657e-03
-2.711650216951966286e-03
-1.497981371358036995e-03
7.759435102343559265e-04
1.727139810100197792e-03
6.104855565354228020e-04
-8.150797802954912186e-04
8.052763587329536676e-05
3.938660025596618652e-03
1.089889090508222580e-03
-2.024413552135229111e-03
-8.169548236764967442e-04
7.227062014862895012e-04
-1.667030854150652885e-03
2.399603370577096939e-03
7.129680598154664040e-04
1.055147033184766769e-03
-1.678753877058625221e-03
1.599741633981466293e-03
2.077861689031124115e-03
-2.453518798574805260e-03
-1.024852506816387177e-03
-1.060957554727792740e-03
2.694712020456790924e-03
-8.699460304342210293e-04
-1.499349484220147133e-03
1.664862036705017090e-03
1.043846132233738899e-03
-1.135175814852118492e-03
3.018370363861322403e-03
-1.746605150401592255e-03
-5.581075092777609825e-04
1.027278369292616844e-03
6.596157909370958805e-04
-6.095847879805660341e-07
-2.603841479867696762e-03
1.267644111067056656e-03
-1.601785188540816307e-04
-1.186384004540741444e-03
-1.650942605920135975e-03
1.661630929447710514e-03
-1.384760398650541902e-04
7.435607840307056904e-04
-2.538223285228013992e-03
1.568285515531897545e-03
-8.704910287633538246e-04
-1.128175528720021248e-03
1.186124864034354687e-03
-1.586582628078758717e-03
-2.083003986626863480e-03
-5.299448384903371334e-04
3.430620608924073167e-06
1.662077498622238636e-03
1.691611250862479210e-03
-1.214108080603182316e-03
2.935476135462522507e-03
1.570237916894257069e-03
-3.019087715074419975e-03
1.057741930708289146e-03
1.195631921291351318e-03
-5.825337138958275318e-04
1.886709709651768208e-03
-7.480702479369938374e-04
6.829341053962707520e-01
1.197330420836806297e-03
1.779527170583605766e-03
2.005223184823989868e-03
-1.133584533818066120e-03
-1.199728692881762981e-03
7.569549052277579904e-05
-3.204719978384673595e-04
-5.354171153157949448e-04
1.666716183535754681e-03
-2.798376372084021568e-03
-2.500867936760187149e-03
1.815047697164118290e-03
7.148680742830038071e-04
7.602281984873116016e-04
3.880418662447482347e-04
1.744569279253482819e-03
-3.068379359319806099e-03
2.364078769460320473e-03
1.826450810767710209e-03
-1.668659504503011703e-03
9.155800798907876015e-04
5.658259615302085876e-04
9.772017365321516991e-04
1.825949060730636120e-03
4.984279512427747250e-04
2.580496357040829025e-06
4.831037367694079876e-04
-4.001221095677465200e-04
5.268887616693973541e-04
-1.262240461073815823e-03
1.529849134385585785e-03
-2.032084856182336807e-03
-1.831386005505919456e-03
7.709993515163660049e-04
1.829662011004984379e-03
8.881076355464756489e-04
4.106555134057998657e-03
-1.524170627817511559e-03
1.821161946281790733e-03
1.826066407375037670e-03
-1.011331682093441486e-03
-1.800253055989742279e-03
-8.842282113619148731e-04
1.289172098040580750e-03
-7.505818502977490425e-04
3.634223481640219688e-03
1.012597465887665749e-03
-1.720965839922428131e-03
5.728643736802041531e-04
7.214536308310925961e-04
1.038791844621300697e-03
-1.717246486805379391e-03
1.780595484888181090e-04
1.607924699783325195e-03
1.894758315756917000e-03
1.809896552003920078e-03
8.774096495471894741e-04
1.439216430298984051e-04
1.126587856560945511e-03
1.020635128952562809e-03
-5.289635737426578999e-04
-1.085067051462829113e-03
1.621839473955333233e-03
-8.148077758960425854e-04
2.520750276744365692e-03
1.698652282357215881e-03
-1.653742037888150662e-05
2.699793316423892975e-03
3.399640845600515604e-04
2.754052635282278061e-03
-2.336326055228710175e-03
-1.178859383799135685e-03
-1.130813383497297764e-03
-1.697343075647950172e-03
-1.501454855315387249e-03
-5.898596718907356262e-04
1.150583615526556969e-03
3.146009694319218397e-04
-7.005872903391718864e-04
-3.172023862134665251e-04
-6.062556058168411255e-04
9.262665989808738232e-04
1.233477029018104076e-03
3.136392682790756226e-03
7.307862397283315659e-04
-1.061044982634484768e-03
-1.023709075525403023e-03
7.072889711707830429e-04
6.915499106980860233e-04
1.828249660320580006e-03
-1.154732890427112579e-03
5.462664412334561348e-04
7.244599401019513607e-04
-3.038858994841575623e-04
-1.728717237710952759e-03
-7.829990354366600513e-04
1.696855179034173489e-03
1.838496100390329957e-04
1.117050123866647482e-04
1.849827007390558720e-03
1.716476166620850563e-03
1.870249980129301548e-03
1.737131155095994473e-03
-1.892733736895024776e-03
2.483527641743421555e-03
1.588803343111067079e-06
1.604064716957509518e-03
2.004015492275357246e-03
-1.939824549481272697e-03
2.820014720782637596e-03
7.488402188755571842e-04
1.608905266039073467e-03
7.720179855823516846e-04
-2.514299470931291580e-03
1.749077346175909042e-03
-1.714094774797558784e-03
1.813599228626117110e-04
-6.403413717634975910e-04
3.819175995886325836e-03
-1.458994229324162006e-03
-1.187218120321631432e-03
3.495527780614793301e-04
4.221260081976652145e-03
-2.847873838618397713e-03
-1.701974659226834774e-03
-1.745352637954056263e-03
3.057530266232788563e-04
-1.603223849087953568e-03
-7.541665690951049328e-04
-7.928017112135421485e-06
-1.613272237591445446e-03
1.474436023272573948e-03
-2.762995427474379539e-04
-6.653469754382967949e-04
2.094316720962524414e+00
-1.662604627199470997e-03
2.558358537498861551e-04
1.962968053703662008e-05
-9.072379907593131065e-04
2.035850659012794495e-03
1.599642797373235226e-03
1.159142819233238697e-03
3.814157797023653984e-03
-2.437718445435166359e-03
5.370064754970371723e-04
-1.838180760387331247e-04
-7.220864063128829002e-04
-1.288048690184950829e-03
1.886401150841265917e-04
3.793968586251139641e-03
-1.835900475271046162e-03
-1.104027614928781986e-03
4.711238434538245201e-04
1.183621236123144627e-03
-1.648474019020795822e-03
6.618034967686980963e-05
1.057699555531144142e-03
2.842735557351261377e-04
1.108314492739737034e-03
1.007330836728215218e-03
-2.418315270915627480e-03
1.762423315085470676e-03
1.309964456595480442e-03
-2.708292333409190178e-03
-5.371172446757555008e-04
6.984106148593127728e-04
1.384259434416890144e-03
5.488224996952340007e-05
-2.357156481593847275e-03
4.047459879075177014e-05
7.507139816880226135e-04
1.159884617663919926e-03
-2.261317131342366338e-04
1.036466983350692317e-05
1.034092638292349875e-04
1.079944893717765808e-03
-2.008385723456740379e-03
1.753142918460071087e-03
-2.702268771827220917e-03
-8.003690745681524277e-04
1.678851200267672539e-03
1.765053370036184788e-03
1.078485161997377872e-03
2.589723560959100723e-03
-1.646596821956336498e-03
-1.500807236880064011e-03
1.610681647434830666e-03
-6.327987066470086575e-04
-1.735217170789837837e-03
2.077225130051374435e-03
-4.006432573078200221e-05
7.342367316596210003e-04
-8.875611820258200169e-04
-8.984726737253367901e-04
1.788770081475377083e-03
1.070859580067917705e-04
-7.504825480282306671e-04
-1.286660321056842804e-03
-4.730062792077660561e-04
4.543245886452496052e-04
-2.386065665632486343e-03
1.072382903657853603e-03
1.733538374537602067e-04
-2.070876071229577065e-03
6.054276018403470516e-04
-1.206346423714421690e-04
3.257034695707261562e-04
-4.107968925382010639e-05
-1.211512368172407150e-03
6.193203735165297985e-04
-1.612953841686248779e-03
1.556834438815712929e-03
7.237949757836759090e-04
6.534573622047901154e-04
3.001035074703395367e-04
6.593393045477569103e-04
-3.105796873569488525e-03
-6.075008423067629337e-04
1.896683010272681713e-03
1.692682621069252491e-03
-9.157970780506730080e-04
-2.529712393879890442e-03
1.526600448414683342e-03
6.329436437226831913e-04
-1.048367721523391083e-05
2.799136273097246885e-04
-9.601987549103796482e-04
-8.072525379247963428e-04
-7.084298413246870041e-04
-2.332160715013742447e-03
1.109578224713914096e-04
-1.850447915785480291e-05
-2.400630619376897812e-03
-4.658899561036378145e-04
1.084209419786930084e-03
-4.103763960301876068e-03
-9.874671231955289841e-04
-2.722577890381217003e-03
-5.748614203184843063e-04
2.430776366963982582e-03
-1.062500203374838748e-07
1.722440123558044434e-03
1.149941352196037769e-03
-9.872837690636515617e-04
-7.121467497199773788e-04
1.500991987995803356e-03
2.225009957328438759e-04
-1.620982307940721512e-03
-1.050325110554695129e-03
-3.014293499290943146e-03
-1.727715949527919292e-03
-1.063706469722092152e-03
2.871023723855614662e-03
2.983995480462908745e-03
-4.409581888467073441e-04
1.147005939856171608e-03
1.672665472142398357e-03
2.246174573898315430e+00
2.481160045135766268e-04
1.176456105895340443e-03
-2.410966902971267700e-03
-2.241386573587078601e-05
-2.878540661185979843e-03
-4.995379131287336349e-04
-5.824382469654665329e-07
-1.116386381909251213e-03
-8.651264943182468414e-04
1.149238203652203083e-03
-1.115700579248368740e-03
-7.797119324095547199e-04
5.758130573667585850e-04
-1.722935354337096214e-03
-7.308858912438154221e-04
-6.744623533450067043e-05
-2.452659886330366135e-03
-4.675326053984463215e-04
1.084467861801385880e-03
-1.470331917516887188e-03
3.025243524461984634e-03
-4.697584372479468584e-04
-3.794147778535261750e-05
-1.531669870018959045e-03
-1.383913040626794100e-04
-1.616141758859157562e-03
1.314971450483426452e-05
-1.012517721392214298e-03
7.850926485843956470e-04
-1.536964438855648041e-03
2.047097543254494667e-03
1.627098070457577705e-03
1.586891943588852882e-03
-3.072627878282219172e-04
1.709737814962863922e-03
1.728704432025551796e-03
-5.735142622143030167e-04
1.428023213520646095e-03
-9.111254257732070982e-06
1.987818628549575806e-03
-4.847029631491750479e-04
3.081752511207014322e-04
-7.713527884334325790e-05
2.760092727839946747e-03
-2.795510226860642433e-03
-2.990319393575191498e-03
8.204705663956701756e-04
-6.205816753208637238e-04
-3.143282665405422449e-04
-1.008940278552472591e-03
1.521807746030390263e-03
-1.731849741190671921e-03
8.248725789599120617e-04
1.653951359912753105e-03
2.062388695776462555e-03
-9.760127868503332138e-04
-1.832624198868870735e-03
1.287233899347484112e-04
-2.937155542895197868e-03
6.688530556857585907e-04
-1.488305046223104000e-03
1.271451910724863410e-04
9.462087182328104973e-04
7.751082739559933543e-05
-1.586195314303040504e-03
-3.373222352820448577e-05
1.794588984921574593e-03
-3.192548174411058426e-04
-2.296449092682451010e-04
-1.867725164629518986e-03
7.275394746102392673e-04
9.049152722582221031e-04
4.424079634191002697e-06
-1.540142460726201534e-03
-2.526952885091304779e-04
8.957186364568769932e-04
7.339217117987573147e-04
-3.432750818319618702e-04
-5.345693789422512054e-04
1.672572339884936810e-03
3.896472044289112091e-03
4.547565768007189035e-04
2.406956162303686142e-03
-8.605095790699124336e-04
-2.810525707900524139e-03
-3.312189946882426739e-04
-7.837807643227279186e-04
-3.796086821239441633e-04
7.069470011629164219e-04
-1.866587437689304352e-03
1.721244771033525467e-03
1.297314302064478397e-03
-1.560860779136419296e-03
1.848812389653176069e-04
4.165555874351412058e-04
1.829126733355224133e-03
1.737184124067425728e-03
-1.063778981915675104e-04
3.702928734128363431e-05
3.586814564187079668e-04
-1.311290077865123749e-03
-3.336145600769668818e-04
-8.728216635063290596e-04
-1.694713719189167023e-03
1.637322246097028255e-03
1.694257953204214573e-03
4.200489784125238657e-04
-2.095515141263604164e-03
1.112171565182507038e-03
-7.926351099740713835e-05
-1.078185043297708035e-03
-1.871281419880688190e-03
-1.811316935345530510e-03
1.562581048347055912e-03
4.867935494985431433e-04
1.061712624505162239e-03
4.647286841645836830e-04
1.521276659332215786e-03
-1.104601542465388775e-03
-1.694387174211442471e-03
6.778823444619774818e-04
-2.814445411786437035e-03
5.306468665366992354e-05
1.765679684467613697e-03
1.731172902509570122e-03
-1.881130156107246876e-03
1.856806571595370770e-03
-4.222042858600616455e-03
-1.836610725149512291e-03
3.503766856738366187e-05
-1.969299046322703362e-03
1.062177238054573536e-03
-7.814693963155150414e-04
2.098854631185531616e-03
-2.423294587060809135e-03
-1.722204266116023064e-03
6.235260516405105591e-04
6.186137325130403042e-04
-2.790154889225959778e-03
-2.046935260295867920e-04
1.447313698008656502e-03
-6.283112452365458012e-04
-2.882546978071331978e-03
-1.217095647007226944e-03
2.044979184865951538e-01
-8.923929999582469463e-04
2.370445989072322845e-03
2.140224241884425282e-04
-7.231320487335324287e-04
1.189589384011924267e-03
-7.744613685645163059e-04
-1.592600718140602112e-03
1.604956691153347492e-03
-1.093261875212192535e-03
-1.151125645264983177e-03
-2.807357581332325935e-03
-4.209559876471757889e-03
1.103897579014301300e-03
-4.697488620877265930e-04
1.807148102670907974e-03
3.821817226707935333e-03
-2.954024588689208031e-03
-1.075875014066696167e-03
-1.812201109714806080e-03
-7.736079714959487319e-05
4.940184298902750015e-04
-3.994540311396121979e-04
-2.939583791885524988e-04
-7.467321120202541351e-04
2.437644870951771736e-03
-6.004707538522779942e-04
2.373034949414432049e-04
2.411205787211656570e-03
-3.362174029462039471e-04
8.062684792093932629e-04
1.428116811439394951e-03
-2.346560126170516014e-03
5.058077513240277767e-04
-1.837334129959344864e-03
1.366398995742201805e-03
1.810735790058970451e-03
1.137092476710677147e-03
9.258809150196611881e-04
-1.452534110285341740e-03
1.769938739016652107e-03
-2.737077884376049042e-04
1.807178137823939323e-03
-6.044814945198595524e-04
-2.694172144401818514e-04
4.000259339809417725e-01
2.350904047489166260e-03
1.827632309868931770e-03
1.146240159869194031e-03
8.967564208433032036e-04
9.500831365585327148e-04
6.851842626929283142e-04
1.830730121582746506e-03
-1.478131744079291821e-04
-9.095474379137158394e-04
-2.132004126906394958e-03
1.076288986951112747e-03
-7.597560761496424675e-04
1.740446896292269230e-03
-1.505411695688962936e-03
1.322621945291757584e-03
3.294612979516386986e-04
8.179947617463767529e-04
1.332077499682782218e-05
1.759500708431005478e-03
-1.748897368088364601e-03
-1.686303410679101944e-03
-1.668077288741187658e-06
-8.984860032796859741e-04
1.711474615149199963e-03
-9.870537323877215385e-04
-2.190731720475014299e-05
2.156580303562805057e-04
4.029803967569023371e-04
-7.270043715834617615e-04
1.472075469791889191e-03
-1.829817425459623337e-03
5.672773695550858974e-04
-6.195707828737795353e-04
-8.294913568533957005e-04
-1.883450568129774183e-05
-3.009066676895599812e-05
1.046343459165655077e-04
1.555819995701313019e-03
1.587314181961119175e-03
-1.669993158429861069e-03
1.716805039905011654e-03
5.758567713201045990e-04
-6.311394390650093555e-04
1.692984835244715214e-03
-1.067020231857895851e-03
1.121124136261641979e-03
8.323604706674814224e-04
6.298556691035628319e-04
-2.510920166969299316e-03
-1.898674527183175087e-04
1.906087272800505161e-03
1.169226597994565964e-03
-1.815634197555482388e-03
-7.292217924259603024e-04
4.649831680580973625e-05
-1.056197914294898510e-03
1.428475807188078761e-04
-6.659738573944196105e-05
-1.409270862495759502e-05
-1.950569567270576954e-03
-1.151410979218780994e-03
9.354915819130837917e-04
-1.319002476520836353e-03
-1.914459244289901108e-05
6.955868448130786419e-04
1.151986070908606052e-03
2.180786337703466415e-03
-1.548213622299954295e-04
-3.521373961120843887e-03
-6.093884003348648548e-04
-1.770503586158156395e-03
-2.805883705150336027e-04
1.781950355507433414e-03
2.715244423598051071e-03
-4.284596943762153387e-04
-1.528788743598852307e-05
-1.187835587188601494e-03
1.010621781460940838e-03
-1.348829100606963038e-04
1.683755312114953995e-03
-1.710780779831111431e-03
-9.455342660658061504e-04
-2.604791196063160896e-03
-2.390195382758975029e-03
-1.134875928983092308e-03
1.876013004221022129e-03
1.122687011957168579e-03
4.901109496131539345e-04
4.225895099807530642e-05
4.207396879792213440e-03
-1.209200825542211533e-03
-6.471207143476931378e-06
-1.816892530769109726e-03
2.743242075666785240e-03
1.605915371328592300e-03
2.068208996206521988e-03
2.182596472266595811e-05
9.960491443052887917e-04
1.414811355061829090e-03
-1.490578171797096729e-03
1.117797335609793663e-03
-1.725965877994894981e-03
1.660556765273213387e-03
7.103023817762732506e-04
-1.023263903334736824e-04
-1.060574781149625778e-03
-2.686702180653810501e-03
1.014775014482438564e-03
-1.540538942208513618e-04
1.666763797402381897e-03
1.630558399483561516e-03
5.028371379012241960e-05
-2.095086074405116960e-06
-8.173919632099568844e-04
-3.601976786740124226e-04
-1.155940932221710682e-03
1.078120898455381393e-03
9.645820828154683113e-04
-7.541625527665019035e-04
1.421931810909882188e-04
1.089823315851390362e-03
7.556993659818544984e-05
2.671527676284313202e-03
-8.825344848446547985e-04
6.016723345965147018e-04
1.659583998844027519e-03
7.564789848402142525e-04
1.623729825951159000e-03
1.671181176789104939e-03
-2.976760035380721092e-03
6.210553692653775215e-04
7.948144047986716032e-05
2.449315798003226519e-04
5.807939451187849045e-04
-1.608885126188397408e-03
-2.244341430923668668e-06
6.249965517781674862e-04
-4.507183984969742596e-05
-9.302285034209489822e-04
8.154184324666857719e-04
-1.067216042429208755e-03
-2.891142619773745537e-03
-6.339050014503300190e-04
-1.086372998543083668e-03
-7.551652379333972931e-04
-1.738105202093720436e-03
-3.137069506919942796e-05
-3.857095725834369659e-03
1.900794683024287224e-03
7.434682920575141907e-04
1.632610219530761242e-03
-5.178973660804331303e-04
-1.798442681320011616e-03
-1.065446413122117519e-03
1.832125941291451454e-03
1.977008534595370293e-03
-1.788115594536066055e-03
-2.476113149896264076e-04
5.709812103305011988e-05
6.245187250897288322e-04
1.378310495056211948e-03
-1.447669230401515961e-03
-9.672236774349585176e-05
-3.761777479667216539e-04
-4.692666698247194290e-04
-1.834186143241822720e-03
3.273833717685192823e-04
-1.181288273073732853e-03
-2.969457302242517471e-03
-3.389003977645188570e-04
-1.054364140145480633e-03
6.590939010493457317e-04
1.497927936725318432e-03
3.070004750043153763e-04
1.422034576535224915e-03
4.230801132507622242e-04
-7.767500355839729309e-04
-3.183996886946260929e-04
7.871434208936989307e-04
-7.226386514957994223e-05
-3.778072306886315346e-03
1.260342891328036785e-03
1.731060678139328957e-03
1.715081045404076576e-03
-1.694686827249825001e-03
-1.659867120906710625e-03
1.721544074825942516e-03
1.793533680029213428e-03
-1.074749670806340873e-04
-6.451649242080748081e-04
2.257653046399354935e-03
-1.113938982598483562e-03
7.213815115392208099e-04
1.090774079784750938e-03
1.664733863435685635e-03
-1.432222008705139160e+00
-1.282663743040757254e-05
-7.284741732291877270e-04
-1.743748318403959274e-03
1.507539767771959305e-03
-9.663650998845696449e-04
-1.495632692240178585e-03
5.514255608431994915e-04
1.835285336710512638e-03
-2.364901592954993248e-03
1.919052192533854395e-05
1.102588255889713764e-03
-8.847670396789908409e-04
3.621999348979443312e-04
-1.466735266149044037e-03
-1.594926929101347923e-03
1.921371556818485260e-03
3.969563986174762249e-04
1.139335683546960354e-03
-1.524444320239126682e-03
1.537195523269474506e-03
4.994840826839208603e-03
-4.126567218918353319e-04
1.954980194568634033e-03
-1.003831508569419384e-03
-3.366360260770306922e-06
1.151246833615005016e-03
-2.000838052481412888e-03
-1.260256161913275719e-03
4.953325842507183552e-04
-8.298960165120661259e-04
1.506171887740492821e-03
7.893785950727760792e-04
-1.091577811166644096e-03
1.826375373639166355e-03
-2.548842458054423332e-03
2.436186041450127959e-04
1.816947129555046558e-03
4.350615199655294418e-04
1.437537488527595997e-03
2.941297367215156555e-03
8.216039714170619845e-05
1.120843575336039066e-03
-5.728440009988844395e-04
-1.336849643848836422e-03
-5.552665097638964653e-04
-1.175870303995907307e-03
4.942532395943999290e-04
-1.074008876457810402e-03
-1.150954863987863064e-03
-1.201497972942888737e-03
-1.473170937970280647e-03
-2.003971021622419357e-03
2.335623721592128277e-04
1.000598422251641750e-03
-2.752088941633701324e-03
1.412278943462297320e-04
1.675179461017251015e-03
-6.855066749267280102e-04
9.193494915962219238e-04
8.212098618969321251e-04
4.207783844321966171e-03
4.076084005646407604e-04
-1.559128286316990852e-03
-1.207186724059283733e-03
-5.474276258610188961e-04
-1.743837841786444187e-03
1.991104567423462868e-03
1.676158397458493710e-03
2.421803073957562447e-03
1.923368545249104500e-03
-9.878786513581871986e-04
-1.330133272858802229e-05
-1.058685709722340107e-03
1.870598061941564083e-03
-6.905031041242182255e-04
-1.267977058887481689e-04
-1.328969607129693031e-03
9.280421072617173195e-04
-6.511863903142511845e-04
-7.602421683259308338e-04
3.649257705546915531e-04
1.205772627145051956e-03
4.880386695731431246e-04
6.944473716430366039e-04
2.949555055238306522e-04
-1.928028766997158527e-03
1.129753145505674183e-04
-1.146584399975836277e-03
-5.888886516913771629e-04
2.706968516577035189e-04
-1.559284748509526253e-03
-8.289761608466506004e-04
-3.035006811842322350e-03
-1.833388232626020908e-03
1.948361634276807308e-03
-1.656319713220000267e-03
-1.642827061004936695e-03
7.845634827390313148e-04
-6.285639829002320766e-04
-7.302006124518811703e-04
-1.537509961053729057e-03
-5.183000030228868127e-05
-7.611843466293066740e-05
1.449810923077166080e-03
-1.088788965716958046e-03
7.096155895851552486e-04
-1.603821641765534878e-03
2.164577017538249493e-04
-1.842415076680481434e-04
4.899442137684673071e-05
1.252992893569171429e-03
-1.409479682479286566e-05
-8.453959162579849362e-05
1.837689196690917015e-04
-1.070586498826742172e-03
-3.124345385003834963e-04
2.804365158081054688e+00
-1.715691178105771542e-03
-2.439486328512430191e-03
1.154223573394119740e-03
-7.314012036658823490e-04
-6.848322227597236633e-04
2.359132515266537666e-03
1.335325767286121845e-03
1.651370548643171787e-03
5.189924850128591061e-04
5.605704784393310547e-01
2.032122109085321426e-03
-1.823686645366251469e-03
9.806075831875205040e-04
-1.723867258988320827e-03
-2.530768746510148048e-03
-3.702178655657917261e-04
1.615993794985115528e-03
-2.049543661996722221e-03
1.095040584914386272e-03
2.443904522806406021e-03
2.807331271469593048e-03
1.194442156702280045e-03
1.113120000809431076e-03
-1.686335657723248005e-03
1.876076566986739635e-05
1.014925423078238964e-03
4.191763699054718018e-03
-5.268460954539477825e-04
-1.941937720403075218e-03
8.090483606792986393e-04
-1.364924246445298195e-03
6.950433016754686832e-04
1.654252409934997559e-03
-7.520748768001794815e-04
5.532596842385828495e-04
2.037394093349575996e-03
1.471557654440402985e-03
-3.168395021930336952e-03
3.830243367701768875e-04
1.827053842134773731e-03
-1.143689267337322235e-03
-1.890677231131121516e-05
1.739996019750833511e-03
2.048910595476627350e-03
2.080614089965820312e+00
-1.712257857434451580e-03
-1.490962924435734749e-03
-2.537148073315620422e-03
-1.542050740681588650e-03
-1.823098049499094486e-03
-2.509025216568261385e-04
-7.298619602806866169e-04
-1.016873633489012718e-03
2.589552197605371475e-03
-1.699586398899555206e-03
2.090481575578451157e-03
4.678849072661250830e-04
1.220872160047292709e-03
-3.997903604613384232e-06
7.041171193122863770e-05
-2.547514624893665314e-03
6.163732032291591167e-04
2.872402255889028311e-04
-1.615573535673320293e-03
1.676839776337146759e-03
1.522524864412844181e-03
-7.731443620286881924e-04
9.169871336780488491e-04
1.665912801399827003e-03
-3.742805449292063713e-03
-2.359964419156312943e-03
2.045226283371448517e-04
1.558966760057955980e-04
-1.709308358840644360e-03
1.146875787526369095e-03
-1.450751938136818353e-06
4.818416982743656263e-06
2.187466481700539589e-03
4.492040607146918774e-04
1.643562223762273788e-03
2.707984298467636108e-03
2.844934118911623955e-03
1.604412245796993375e-04
1.096964813768863678e-03
-2.805019263178110123e-03
7.342462195083498955e-04
-6.843576557002961636e-05
-2.061188220977783203e-03
-3.827628213912248611e-03
9.866491891443729401e-04
1.787856221199035645e-03
3.036174690350890160e-03
1.635193009860813618e-03
-1.062005525454878807e-03
-6.802449352107942104e-04
-1.208053552545607090e-03
-3.199062484782189131e-04
3.251248563174158335e-04
-1.134003978222608566e-03
-1.702941488474607468e-03
1.949905126821249723e-04
7.199945393949747086e-04
7.733106031082570553e-04
2.849514363333582878e-03
1.073285238817334175e-03
-1.099221524782478809e-03
2.077621174976229668e-03
-1.000620075501501560e-03
-6.135625881142914295e-04
1.718847313895821571e-03
1.218317309394478798e-03
1.961432863026857376e-03
-9.200106724165380001e-04
-3.059643320739269257e-03
-5.080573610030114651e-04
-5.910579056944698095e-05
7.579998055007308722e-05
3.420637312956387177e-06
1.883743214420974255e-03
-1.855479669757187366e-03
1.056932145729660988e-03
-1.478657359257340431e-04
9.914309484884142876e-04
2.099556848406791687e-03
1.604484510608017445e-03
2.429728861898183823e-03
3.846920153591781855e-04
-2.419443044345825911e-04
-1.501607592217624187e-03
-1.519551267847418785e-03
1.687192008830606937e-03
8.386524277739226818e-04
-7.803758489899337292e-04
-1.750289113260805607e-03
1.516159507445991039e-03
1.219617202877998352e-03
-2.001655986532568932e-03
1.082273898646235466e-03
-7.670848281122744083e-04
3.815363626927137375e-03
-9.129877435043454170e-04
1.058834241121076047e-04
5.198513463255949318e-05
4.268849734216928482e-04
-3.803178668022155762e-03
3.251312882639467716e-04
-9.810092160478234291e-04
-5.969866761006414890e-04
1.931166509166359901e-03
-1.084210583940148354e-03
-8.063801215030252934e-04
-4.128124564886093140e-04
8.275482105091214180e-04
-8.316797561747080181e-07
2.417973708361387253e-03
-1.587706734426319599e-03
-7.781147141940891743e-04
-1.596969086676836014e-03
3.580921329557895660e-03
-4.749104555230587721e-04
1.185956527478992939e-03
-1.634257030673325062e-03
-1.068623969331383705e-03
9.954349370673298836e-04
-2.459650626406073570e-03
1.165073015727102757e-03
-9.301241370849311352e-04
3.004226135089993477e-03
1.110780285671353340e-03
1.091147889383137226e-03
-1.819883589632809162e-03
-1.474254531785845757e-04
-3.850754117593169212e-03
-1.437053433619439602e-03
-1.517052995041012764e-03
1.124086906202137470e-03
-1.771413953974843025e-03
2.557394036557525396e-04
-1.519683864898979664e-03
1.458682818338274956e-03
3.827600507065653801e-03
-1.873490400612354279e-03
1.520215999335050583e-03
3.419209970161318779e-04
1.497395685873925686e-03
1.652883365750312805e-03
-1.116350409574806690e-03
1.730572897940874100e-03
-1.752549433149397373e-03
-4.110216686967760324e-04
1.272680354304611683e-03
-1.117880921810865402e-03
1.504395506344735622e-03
8.995296084322035313e-04
-2.810090081766247749e-03
-4.161912656854838133e-04
-3.867724558404006530e-07
-1.186504727229475975e-03
-2.782103838399052620e-04
-7.450141711160540581e-04
1.014945912174880505e-03
1.688994700089097023e-03
5.889626336283981800e-04
1.306623453274369240e-04
-1.440209685824811459e-03
1.386176212690770626e-03
3.106057120021432638e-04
-1.080452930182218552e-03
-1.313985208980739117e-03
2.409884938970208168e-03
2.464760327711701393e-03
1.146760769188404083e-03
3.410396748222410679e-04
-2.479694085195660591e-04
-1.579331466928124428e-03
4.230444901622831821e-04
9.231129079125821590e-04
1.779601327143609524e-03
1.775064389221370220e-03
-3.640149952843785286e-04
-3.885510610416531563e-03
4.300153814256191254e-04
1.124640693888068199e-03
-1.794793388398829848e-05
1.740192412398755550e-03
5.337775801308453083e-04
5.881537799723446369e-04
-1.557149662403389812e-04
-1.055640983395278454e-03
