-1.418887404724955559e-03
2.775991439819335938e+00
-9.568987297825515270e-04
1.391162746585905552e-03
5.570201901718974113e-04
1.735238474793732166e-03
9.770996402949094772e-04
-2.741137286648154259e-04
-1.987996947718784213e-04
-5.979379056952893734e-04
-1.462561660446226597e-03
3.208680868148803711e+00
-6.031246739439666271e-04
-8.291538688354194164e-04
1.722842804156243801e-03
2.718051910400390625e+00
-2.437846967950463295e-03
-9.924554033204913139e-04
1.092203892767429352e-03
-3.234977775719016790e-04
-1.950319390743970871e-03
2.772054867818951607e-04
-2.714877948164939880e-03
-2.538851229473948479e-03
6.733309128321707249e-04
3.930972015950828791e-04
5.191809395910240710e-05
6.237135385163128376e-04
1.845691120252013206e-03
4.577211511787027121e-04
5.505395238287746906e-04
1.297652139328420162e-03
-3.106724500656127930e+00
-1.723783789202570915e-03
1.102606416679918766e-03
-1.237697899341583252e-03
4.083290100097656250e+00
-1.855656981468200684e+00
6.059341103537008166e-05
2.393104553222656250e+00
7.543669926235452294e-05
-7.128096185624599457e-04
1.837379574775695801e+00
1.930449856445193291e-03
-1.809444189071655273e+00
3.169950796291232109e-03
3.831226825714111328e+00
-4.633362405002117157e-04
-7.691162754781544209e-04
1.536200870759785175e-03
-5.828060675412416458e-04
1.480509527027606964e-03
3.171687602996826172e+00
-1.288071856833994389e-03
-1.099706161767244339e-03
3.677230095490813255e-03
7.539576618000864983e-04
-1.205529202707111835e-03
-1.843313919380307198e-03
-2.799778012558817863e-04
-1.383336930302903056e-04
1.657043234445154667e-03
1.720928237773478031e-03
-1.672250917181372643e-03
7.538999780081212521e-04
-4.713765811175107956e-04
1.839697652030736208e-04
-2.718053340911865234e+00
-1.230309251695871353e-03
-1.870995853096246719e-03
1.891841879114508629e-03
9.984306234400719404e-05
-2.469036844559013844e-04
-1.713363919407129288e-03
8.497040835209190845e-04
-1.634097076021134853e-03
-1.451611635275185108e-03
-2.938917875289916992e+00
-1.627596560865640640e-03
-2.231006044894456863e-03
-6.031530210748314857e-04
-3.066058707190677524e-05
-1.251797075383365154e-03
1.898188493214547634e-03
-1.609240542165935040e-03
8.534334483556449413e-04
1.163011416792869568e-03
2.719289157539606094e-03
-7.458250911440700293e-05
4.491165280342102051e-03
9.999817702919244766e-04
1.456046593375504017e-03
5.929740145802497864e-04
-2.347954548895359039e-03
2.309076786041259766e+00
1.251676469109952450e-03
-1.239760080352425575e-03
1.501863121986389160e+00
1.333034248091280460e-03
1.811273396015167236e-03
1.035109744407236576e-03
-8.354031597264111042e-04
9.051884408108890057e-04
1.733653247356414795e-03
-2.848071744665503502e-03
-1.430767821148037910e-03
1.623175456188619137e-03
-9.013630915433168411e-05
-7.686013705097138882e-04
1.924496842548251152e-03
-7.606364670209586620e-04
-8.453499758616089821e-04
-1.325767254456877708e-03
1.824159640818834305e-03
-5.027399747632443905e-04
-1.813753187889233232e-04
2.231139224022626877e-03
2.602036952972412109e+00
-1.275527407415211201e-03
-1.075103296898305416e-03
1.921998569741845131e-03
2.472872257232666016e+00
-3.386259078979492188e-03
-3.989249817095696926e-04
1.245563180418685079e-04
8.692341507412493229e-04
-1.663785660639405251e-03
1.153146033175289631e-03
-3.015275346115231514e-03
-2.413207199424505234e-03
-1.040684874169528484e-03
-5.824610707350075245e-04
2.898047678172588348e-04
-1.100478577427566051e-03
2.770535647869110107e-03
-1.780230435542762280e-03
1.208340749144554138e-03
-5.835410775034688413e-06
1.519852667115628719e-03
9.600509074516594410e-04
5.314017180353403091e-04
2.275820355862379074e-03
1.717354170978069305e-03
7.017617463134229183e-04
-2.758717397227883339e-03
-4.513319116085767746e-03
-2.140963682904839516e-03
-1.673106220550835133e-03
1.704708905890583992e-03
-9.336149669252336025e-04
6.378386751748621464e-04
-2.518359804525971413e-03
4.019648185931146145e-04
-2.080365316942334175e-03
-1.687343115918338299e-03
-1.724133267998695374e-03
-2.338578633498400450e-04
2.903352025896310806e-03
4.840488545596599579e-04
1.139654428698122501e-03
1.701169880107045174e-03
1.777285127900540829e-03
5.661131814122200012e-03
1.694502076134085655e-03
-2.285019436385482550e-04
-4.909392446279525757e-04
9.195670718327164650e-04
-2.515566302463412285e-03
1.722955028526484966e-03
-1.714812126010656357e-03
-9.663706296123564243e-04
1.769426860846579075e-03
1.162224998552119359e-05
-4.085579712409526110e-04
-2.401697216555476189e-03
-1.716106489766389132e-04
4.224910753691801801e-06
-1.113657141104340553e-03
-5.662354524247348309e-04
-6.704399129375815392e-04
1.149267336586490273e-04
-2.687699394300580025e-03
-1.726418384350836277e-03
-2.420970471575856209e-03
2.130531007423996925e-03
1.042192452587187290e-03
-3.355861990712583065e-04
-8.834878099150955677e-04
1.626507611945271492e-03
2.994552850723266602e+00
6.006432231515645981e-04
-8.918528328649699688e-04
-5.189601870370097458e-05
-1.822407706640660763e-03
-1.105931471101939678e-03
1.071556354872882366e-03
-5.096064705867320299e-05
-1.402675261488184333e-04
-1.903371769003570080e-03
1.780696213245391846e-03
-1.866397680714726448e-03
-2.165857004001736641e-03
1.680190674960613251e-03
1.588888844707980752e-04
-1.827142114052549005e-05
-1.054047839716076851e-03
5.093503859825432301e-04
2.068725880235433578e-03
1.637087902054190636e-03
7.011299021542072296e-04
-3.971522382926195860e-04
-2.360630314797163010e-03
-7.203667191788554192e-04
-1.027262536808848381e-03
-1.956992549821734428e-03
-1.872942317277193069e-03
-1.748526585288345814e-03
7.540081860497593880e-04
1.823778264224529266e-03
-1.700373599305748940e-03
1.065296353772282600e-03
-7.185468566603958607e-04
-1.634776243008673191e-03
5.229669041000306606e-04
-2.454471541568636894e-03
3.239915240556001663e-03
-1.790654147043824196e-03
1.690440345555543900e-03
-6.474087131209671497e-04
1.694141887128353119e-03
-2.302218199474737048e-04
-1.524220104329288006e-03
-1.115279854275286198e-03
1.230094698257744312e-03
1.810839283280074596e-03
-1.834096270613372326e-03
1.003963872790336609e-03
-1.696453895419836044e-03
1.741916872560977936e-03
-1.660446752794086933e-03
-1.919216359965503216e-03
7.892371504567563534e-04
2.496619476005434990e-03
-1.161761756520718336e-04
5.383428651839494705e-04
-4.620137406163848937e-05
1.103981980122625828e-03
-6.017419509589672089e-04
4.179534444119781256e-04
1.678801607340574265e-03
-1.787628978490829468e-03
-2.780825830996036530e-03
2.960699319839477539e+00
-2.048654860118404031e-04
-6.150215631350874901e-04
-1.998064573854207993e-03
9.622571087675169110e-05
-1.135639497078955173e-03
1.254180097021162510e-03
-1.875269925221800804e-03
-3.186912799719721079e-04
-1.674318220466375351e-03
-1.640646718442440033e-03
5.007442086935043335e-04
2.186176776885986328e+00
6.161972414702177048e-04
-9.886921616271138191e-04
-1.118300366215407848e-03
-1.930265570990741253e-03
-3.594612644519656897e-05
-7.217383827082812786e-04
-1.145754125900566578e-03
7.145321578718721867e-04
1.908350852318108082e-03
-2.844873582944273949e-03
-2.481913834344595671e-04
-3.079010057263076305e-04
-1.606880337931215763e-03
-2.870256779715418816e-03
1.115370541810989380e-03
8.689460228197276592e-04
-2.948817331343889236e-03
1.517437864094972610e-03
-1.527635962702333927e-03
7.764378678984940052e-04
-4.860856570303440094e-04
-1.654602820053696632e-03
-1.152398413978517056e-03
1.538760542869567871e+00
-2.712649002205580473e-04
-1.085387426428496838e-03
-1.691311015747487545e-03
1.164036293630488217e-04
1.807228312827646732e-03
1.853514579124748707e-03
1.084718154743313789e-03
-4.888285766355693340e-04
-9.256201446987688541e-04
1.775171956978738308e-03
9.665019460953772068e-04
-8.891106117516756058e-04
9.154540603049099445e-04
9.665286634117364883e-04
1.836392330005764961e-03
-8.160237921401858330e-04
1.669514691457152367e-03
7.684324373258277774e-05
-1.770637580193579197e-03
8.063112036325037479e-04
2.073181560263037682e-03
-1.609518658369779587e-03
-3.609183311462402344e+00
-1.628549071028828621e-03
1.078664092347025871e-03
-8.067417657002806664e-04
2.255729123135097325e-05
1.624292694032192230e-03
4.913109587505459785e-04
1.669274875894188881e-03
-2.140958327800035477e-03
1.181922969408333302e-03
9.666303521953523159e-04
1.679235720075666904e-03
-1.508161192759871483e-03
-9.964290075004100800e-04
-7.449124241247773170e-04
-4.468590952455997467e-03
-1.482876366935670376e-03
-1.666877535171806812e-03
-7.746806950308382511e-04
3.658673449535854161e-05
5.632360116578638554e-04
7.000030018389225006e-04
-6.672079907730221748e-04
-1.668593264184892178e-03
2.171823522076010704e-03
-2.444844085403019562e-06
-6.003111484460532665e-04
3.016995324287563562e-04
-1.113052363507449627e-03
-2.303759567439556122e-03
7.646825397387146950e-04
-9.092726977542042732e-04
-1.185577013529837132e-03
-2.720823278650641441e-03
1.087745185941457748e-03
5.147615447640419006e-04
9.524210472591221333e-04
5.455234204418957233e-04
-3.319483366794884205e-04
-1.735311816446483135e-03
-1.148256473243236542e-03
-1.131305005401372910e-03
-1.070292782969772816e-03
1.617798116058111191e-03
-2.061313716694712639e-03
1.502268278272822499e-04
-1.833030371926724911e-03
-8.679416350787505507e-05
1.048922189511358738e-03
1.543235848657786846e-03
-1.709146075882017612e-03
-6.117908633314073086e-04
-1.479136641137301922e-03
-8.136411197483539581e-04
1.503667444922029972e-03
-1.094491570256650448e-03
1.293996348977088928e-03
1.529534696601331234e-03
-2.023508714046329260e-04
-1.121021923609077930e-03
8.168651838786900043e-04
1.638341112993657589e-03
5.424790433607995510e-04
-1.479972735978662968e-03
1.161089050583541393e-03
-4.023028886877000332e-04
-1.997139770537614822e-04
2.477010479196906090e-03
1.833140500821173191e-03
2.916424127761274576e-04
2.486745594069361687e-03
1.484144828282296658e-03
-5.061640986241400242e-04
-2.958816767204552889e-04
-4.191845189779996872e-03
-9.468054049648344517e-04
-1.718431711196899414e-03
1.923095434904098511e-03
-1.211460330523550510e-03
1.031200168654322624e-03
-3.188314731232821941e-04
-1.015636826195986941e-05
-8.894397760741412640e-04
1.153282704763114452e-03
-1.614032429642975330e-03
-1.136719365604221821e-03
-8.884986746124923229e-04
-1.148147392086684704e-03
1.415634644217789173e-03
-3.238536592107266188e-04
-1.822426565922796726e-03
-7.372705731540918350e-04
1.305571873672306538e-03
1.953748753294348717e-03
-1.651103957556188107e-03
1.132868113927543163e-03
-8.440772071480751038e-04
-2.332136500626802444e-03
7.314978865906596184e-04
-2.415437018498778343e-03
-2.213286235928535461e-03
-1.184004577226005495e-04
-2.349774120375514030e-03
2.445619583129882812e+00
-1.680749119259417057e-03
6.659190985374152660e-04
6.920493324287235737e-04
1.528249937109649181e-03
2.066216431558132172e-03
1.156270736828446388e-03
7.829049718566238880e-04
2.060289261862635612e-03
-2.026252914220094681e-03
8.146865875460207462e-04
8.102645515464246273e-04
1.527764019556343555e-03
6.275791092775762081e-04
-7.311907829716801643e-04
-1.971339583396911621e+00
1.623152852058410645e+00
-2.406354993581771851e-03
-1.090618752641603351e-05
-1.658310997299849987e-03
-1.822511083446443081e-03
-1.687459065578877926e-03
-4.717366246040910482e-04
-1.688735908828675747e-03
-1.086680102162063122e-03
-1.653192099183797836e-03
2.855331695172935724e-04
7.431812118738889694e-04
5.484953289851546288e-04
1.844645128585398197e-03
-1.726908725686371326e-03
8.970886119641363621e-04
2.671153517439961433e-03
-1.658146269619464874e-03
1.734968274831771851e-03
7.013377035036683083e-04
1.017438480630517006e-03
5.914550274610519409e-04
2.835944527760148048e-03
8.638903818791732192e-05
-1.524085295386612415e-03
-1.551406108774244785e-03
-1.745052519254386425e-03
-9.686646517366170883e-04
-1.226221570505003911e-06
-2.847893862053751945e-03
4.645546141546219587e-04
-1.711891614831984043e-03
-8.077179081737995148e-04
8.916381048038601875e-04
1.909783226437866688e-03
1.809369539842009544e-03
1.585695543326437473e-03
2.680374076589941978e-03
-1.100742956623435020e-03
-7.298847776837646961e-04
-1.805496169254183769e-03
-2.522485330700874329e-03
-1.725964015349745750e-03
-1.087263808585703373e-03
-1.878387294709682465e-03
1.575800124555826187e-03
-1.756192999891936779e-03
2.525847638025879860e-03
-1.136295846663415432e-03
6.952796247787773609e-04
1.695570652373135090e-03
-1.147248549386858940e-03
-1.913951942697167397e-03
-9.949350496754050255e-04
1.904776319861412048e-03
-1.628697267733514309e-03
-7.471811259165406227e-04
1.572894398123025894e-03
-8.984843152575194836e-04
1.754837692715227604e-03
-9.242797386832535267e-04
3.811902715824544430e-04
1.683348556980490685e-03
-1.245538354851305485e-03
1.724263885989785194e-03
1.101721078157424927e-03
1.703471643850207329e-03
3.036890120711177588e-04
2.057045698165893555e-03
-3.384700103197246790e-04
-1.880228286609053612e-03
1.708613359369337559e-03
-1.759901875630021095e-03
-1.768305548466742039e-03
-1.727031543850898743e-03
-7.430681143887341022e-04
6.134608993306756020e-04
-9.135762811638414860e-04
-5.143274902366101742e-04
1.650132238864898682e-03
-4.168724641203880310e-03
-3.749134193640202284e-04
1.331114326603710651e-04
9.386215242557227612e-04
1.992782473564147949e+00
-9.407058241777122021e-04
1.568452105857431889e-03
1.097457716241478920e-03
-1.868624356575310230e-03
1.565521582961082458e-03
-1.055741566233336926e-03
2.752875152509659529e-04
-7.297112024389207363e-04
-1.671065925620496273e-03
2.276669874845538288e-05
-1.635348307900130749e-03
-1.066091121174395084e-03
-9.888970525935292244e-04
-5.158135318197309971e-04
4.654114891309291124e-04
-7.976224878802895546e-04
-1.770311500877141953e-03
7.869942928664386272e-04
-1.654524123296141624e-03
-2.629132242873311043e-03
8.118599653244018555e-04
1.215902040712535381e-03
2.355217933654785156e-03
-3.887575076078064740e-06
-6.975990254431962967e-04
2.986369654536247253e-03
8.161040605045855045e-04
2.131981849670410156e+00
-2.843926660716533661e-03
1.795204472728073597e-03
-1.920030568726360798e-03
2.811865182593464851e-03
-1.715471851639449596e-03
-1.585911610163748264e-03
-2.514262159820646048e-04
-1.117997337132692337e-03
1.843832549639046192e-03
-1.688133459538221359e-03
-1.153846969828009605e-03
-3.167874820064753294e-04
2.585884809494018555e+00
1.780245336703956127e-03
1.640965929254889488e-03
-1.063056522980332375e-03
-2.385541796684265137e-03
-5.540223210118710995e-04
1.671750447712838650e-03
1.354821562767028809e+00
-8.079080143943428993e-04
-1.152349286712706089e-03
-1.820801873691380024e-03
-1.654374296776950359e-03
7.141577079892158508e-04
1.084038522094488144e-03
1.544228638522326946e-03
1.621789648197591305e-03
-1.076572574675083160e-03
2.069830428808927536e-03
1.700880820862948895e-03
1.679595909081399441e-03
-7.545225525973364711e-05
-8.189035579562187195e-04
-1.527283224277198315e-03
1.730675809085369110e-03
1.459788927604677156e-05
-1.791857765056192875e-03
2.644553933350834996e-05
1.711528515443205833e-03
1.149464282207190990e-03
-1.572223147377371788e-03
-1.798909506760537624e-03
-9.429906494915485382e-04
6.165863596834242344e-04
1.666230731643736362e-03
-1.104470458813011646e-03
-1.438461826182901859e-03
1.722290646284818649e-03
-8.056365768425166607e-04
-1.837206771597266197e-03
1.528877997770905495e-03
-1.781453145667910576e-03
1.688585383817553520e-03
-2.758300397545099258e-03
-3.480915329419076443e-04
-1.667008036747574806e-03
2.524510025978088379e-03
-4.234086954966187477e-04
8.070669136941432953e-04
-1.123602967709302902e-03
1.135433907620608807e-03
1.765400520525872707e-03
-1.682356232777237892e-03
1.686365925706923008e-03
1.575052621774375439e-03
1.166575239039957523e-03
-1.688391668722033501e-03
3.140306507702916861e-04
-7.010819390416145325e-04
2.423372818157076836e-03
-8.263430208899080753e-04
2.113546244800090790e-03
-2.772455103695392609e-03
-3.078209236264228821e-03
4.480668285395950079e-04
-1.864112855400890112e-04
2.400109544396400452e-03
1.677164691500365734e-03
-3.162065331707708538e-05
-1.528927707113325596e-03
-1.200177590362727642e-03
-6.145089282654225826e-04
-2.499981084838509560e-03
1.134106423705816269e-05
2.701473888009786606e-03
-1.722699147649109364e-03
-6.256627966649830341e-05
1.090835314244031906e-03
1.691255136393010616e-03
-1.845483784563839436e-03
1.938388228416442871e+00
8.917268132790923119e-05
1.119178603403270245e-03
-1.728314673528075218e-03
1.709753763861954212e-03
7.868965039961040020e-04
4.767580248881131411e-04
1.151595381088554859e-03
1.195503282360732555e-03
-2.730634529143571854e-03
1.516680717468261719e+00
1.267085899598896503e-03
-1.658261520788073540e-03
-2.332207077415660024e-05
1.662679133005440235e-03
-9.492752142250537872e-04
1.874149711511563510e-05
-3.736042708624154329e-04
5.739930202253162861e-04
1.699482207186520100e-03
-1.139927189797163010e-03
-2.694695256650447845e-03
-3.416550753172487020e-04
4.161640827078372240e-04
-2.385918982326984406e-03
1.675210194662213326e-03
-1.669165212661027908e-03
-7.658383692614734173e-04
-3.024840261787176132e-04
-4.993875627405941486e-04
-2.666699700057506561e-03
5.285674706101417542e-04
-1.545188948512077332e-03
-1.538443262688815594e-03
-2.982724399771541357e-04
-1.724814064800739288e-03
1.729998039081692696e-03
-7.096909685060381889e-04
2.745893318206071854e-03
9.429674246348440647e-04
-1.526024891063570976e-03
5.938482936471700668e-04
-1.032397849485278130e-03
3.910156665369868279e-04
-6.955720600672066212e-04
-4.840285109821707010e-04
1.543986494652926922e-03
4.086905624717473984e-03
3.809049259871244431e-03
1.675987499766051769e-03
1.753006596118211746e-03
7.271354552358388901e-04
1.066677388735115528e-03
-8.062699344009160995e-04
8.596575353294610977e-04
4.954500473104417324e-04
1.890471437945961952e-03
-1.217519049532711506e-03
-1.726374845020473003e-03
1.093923230655491352e-03
1.824071281589567661e-03
1.897576730698347092e-04
-1.030963612720370293e-03
-7.993543404154479504e-04
-1.127016730606555939e-03
-1.473919604904949665e-03
1.135733327828347683e-03
-9.951896499842405319e-04
8.449959568679332733e-04
4.551480524241924286e-04
6.776608643122017384e-04
-1.084727933630347252e-03
-3.047608770430088043e-04
1.115680788643658161e-03
1.739384024403989315e-03
-1.144540379755198956e-03
1.128472737036645412e-03
4.885349699179641902e-05
5.241942126303911209e-04
-2.816516673192381859e-03
-2.739958930760622025e-03
-8.909273310564458370e-04
-1.255021081306040287e-03
8.491554035572335124e-05
1.546368701383471489e-03
3.880688454955816269e-04
-3.932060790248215199e-04
-9.781125700101256371e-04
-1.600361429154872894e-03
1.111951540224254131e-03
-9.196796454489231110e-04
-7.596152136102318764e-04
2.426338505756575614e-05
-5.603428580798208714e-04
-1.521684345789253712e-03
8.427290595136582851e-04
-1.660539768636226654e-03
-1.194453798234462738e-03
-1.735399593599140644e-03
-1.545527949929237366e-03
-9.480285807512700558e-04
-8.969263872131705284e-04
-1.677324064075946808e-03
1.651741797104477882e-03
-1.019887276925146580e-03
-9.654673049226403236e-04
1.341800525551661849e-04
-1.697892439551651478e-03
-1.661372836679220200e-03
4.790946550201624632e-04
-1.114703132770955563e-03
1.567947474541142583e-04
8.961774874478578568e-04
7.580574019812047482e-04
-1.699375337921082973e-03
-1.761912135407328606e-03
2.395331859588623047e-03
2.346892841160297394e-03
1.135006663389503956e-03
-1.491433009505271912e-03
-6.948454538360238075e-04
-1.077288528904318810e-03
-1.724897068925201893e-03
-1.756789977662265301e-03
1.731731812469661236e-03
7.468299008905887604e-04
-2.720900811254978180e-03
-7.275172974914312363e-04
1.753297983668744564e-03
-2.851511817425489426e-03
-1.648471574299037457e-03
-1.673594349995255470e-03
-1.422343426384031773e-03
-1.019776915200054646e-03
1.228530309163033962e-03
-4.807238001376390457e-04
4.497687332332134247e-04
-2.093113027513027191e-03
-1.681772177107632160e-03
1.682736095972359180e-03
-1.669767429120838642e-03
-1.098424778319895267e-03
1.813534647226333618e-03
-2.397173084318637848e-03
-1.733591547235846519e-03
1.113195670768618584e-03
-1.584471552632749081e-03
-1.201689701701980084e-05
1.733951736241579056e-03
1.554482878418639302e-04
2.118971169693395495e-04
-1.793935312889516354e-03
-1.795004238374531269e-03
-4.332595854066312313e-04
-1.747079775668680668e-03
1.650390564464032650e-03
-3.887033744831569493e-05
2.095950068905949593e-03
2.715438604354858398e-03
-5.145214963704347610e-04
-1.517963362857699394e-03
-1.102365204133093357e-03
-1.827165717259049416e-03
1.076408352673752233e-06
8.047540904954075813e-04
1.175439916551113129e-03
1.701913191936910152e-03
-2.491517923772335052e-03
2.499373862519860268e-03
8.932432392612099648e-04
1.583976089023053646e-03
5.320968339219689369e-04
7.124000112526118755e-04
-8.152709924615919590e-04
8.182376041077077389e-04
-3.384585434105247259e-04
-1.838273019529879093e-03
-1.825104467570781708e-03
1.378116663545370102e-03
-5.249988753348588943e-04
-6.843240116722881794e-04
2.384357154369354248e-03
-1.284846803173422813e-05
-2.841122215613722801e-03
-1.677861786447465420e-03
8.478499948978424072e-04
-2.750058658421039581e-03
-1.719187363050878048e-03
1.528705703094601631e-03
2.628057263791561127e-03
2.080814680084586143e-03
-2.683561760932207108e-03
-2.405761042609810829e-03
1.638489193283021450e-03
-1.677214400842785835e-03
7.379843154922127724e-04
-8.173686219379305840e-04
1.159954583272337914e-03
-1.103269401937723160e-03
1.712572178803384304e-03
-3.217751218471676111e-04
-6.055809790268540382e-04
1.781343482434749603e-03
8.185443584807217121e-04
-8.425484411418437958e-04
-2.818393659254070371e-05
-7.545807166025042534e-04
-9.797289967536926270e-04
-1.770747359842061996e-03
-1.846019864082336426e+00
-2.434337511658668518e-03
-1.186030385724734515e-05
1.186172943562269211e-03
4.438702308107167482e-04
7.494543679058551788e-04
-1.627112273126840591e-03
-1.253618509508669376e-03
5.662303301505744457e-04
-1.376828586217015982e-04
-1.618403592146933079e-03
1.100236549973487854e-03
-1.757671707309782505e-03
-8.856515632942318916e-04
-2.076097764074802399e-03
4.699106648331508040e-05
-5.971153732389211655e-04
-6.214017630554735661e-04
1.700462074950337410e-03
1.200883300043642521e-03
-1.221840153448283672e-03
-2.981920551974326372e-04
1.034767599776387215e-03
1.693925121799111366e-03
2.984402002766728401e-03
2.159416675567626953e-03
4.217484383843839169e-04
-8.948862669058144093e-04
9.672796586528420448e-04
-1.080040587112307549e-03
-5.159879801794886589e-04
-5.678750312654301524e-05
2.369172638282179832e-03
1.881851116195321083e-03
-7.188657182268798351e-04
1.774409065546933562e-05
1.075640320777893066e-03
-1.741167972795665264e-03
1.704699825495481491e-03
-2.355452394112944603e-03
1.008201763033866882e-02
1.721171312965452671e-03
2.079722471535205841e-03
1.731066266074776649e-03
1.723164576105773449e-03
-1.808071858249604702e-03
2.798288594931364059e-03
-3.066081626457162201e-05
-1.825304469093680382e-03
1.802794751711189747e-03
-2.879459876567125320e-03
1.639011781662702560e-03
1.636853558011353016e-03
7.257463294081389904e-04
-1.508065266534686089e-03
-1.520700287073850632e-03
-1.082190312445163727e-03
-7.255104137584567070e-04
1.371808866679202765e-05
-1.108372700400650501e-03
1.679579145275056362e-04
-1.704357448033988476e-03
1.685229362919926643e-03
1.179840997792780399e-03
-1.411290955729782581e-03
-1.755139091983437538e-03
-1.676596119068562984e-03
-1.819670433178544044e-03
1.683661481365561485e-03
-2.804668110911734402e-05
-2.768691862002015114e-03
-2.688883687369525433e-04
1.146413502283394337e-03
-8.654125267639756203e-04
9.823770960792899132e-04
-1.843439298681914806e-03
-1.523492869637266267e-06
2.392487833276391029e-03
1.107469084672629833e-03
-1.113591250032186508e-03
1.325420453213155270e-04
-1.088332617655396461e-03
7.779888692311942577e-04
-1.652601757086813450e-03
-1.110069104470312595e-03
-1.151054282672703266e-03
-7.631000335095450282e-05
-1.748539390973746777e-03
6.247517885640263557e-04
-8.120207930915057659e-04
-2.423815429210662842e-03
2.854405203834176064e-03
1.299256546190008521e-04
-2.534816507250070572e-03
-1.837108400650322437e-03
1.774828066118061543e-03
-2.238051733002066612e-03
-1.002792734652757645e-03
-6.700523663312196732e-04
-1.798676908947527409e-03
7.421508780680596828e-04
8.168639615178108215e-04
1.536330208182334900e-03
-8.921150001697242260e-04
5.441241955850273371e-05
-1.108641852624714375e-03
1.740922918543219566e-03
1.723577617667615414e-03
-1.865666592493653297e-03
-9.980712784454226494e-04
2.453109715133905411e-03
1.726194983348250389e-03
1.653221435844898224e-03
-8.887876174412667751e-04
1.056035165674984455e-03
-1.678489614278078079e-03
1.064894022420048714e-03
2.687002299353480339e-03
-6.998867029324173927e-04
1.717080129310488701e-03
-8.039900567382574081e-04
-4.045586101710796356e-04
1.720827654935419559e-03
4.704124294221401215e-04
-2.004789886996150017e-03
-8.062720298767089844e-04
1.626238459721207619e-03
3.719225060194730759e-04
1.539389020763337612e-03
-1.970913959667086601e-03
-4.691976646427065134e-04
2.845129696652293205e-03
2.493103966116905212e-03
-8.038034429773688316e-04
2.352061681449413300e-03
-9.741587564349174500e-04
-1.721494481898844242e-03
-1.174842589534819126e-03
1.748525023460388184e+00
1.367978868074715137e-03
1.783861080184578896e-03
9.082385222427546978e-04
-1.893298467621207237e-03
9.052385576069355011e-04
1.061831135302782059e-03
-8.262639166787266731e-04
-4.378056037239730358e-04
-7.361377811321290210e-06
6.424076855182647705e-04
-2.761782146990299225e-03
1.835700240917503834e-03
6.079468294046819210e-04
-8.240813622251152992e-04
1.844778307713568211e-03
-1.830832799896597862e-03
-5.387097480706870556e-04
1.784419408068060875e-03
-9.347581071779131889e-04
-2.759453142061829567e-03
-1.662797643803060055e-03
1.625596079975366592e-03
1.665138057433068752e-03
1.412132754921913147e-03
-5.902259144932031631e-04
-1.704377122223377228e-03
1.817626296542584896e-03
-3.145243681501597166e-04
-9.726915159262716770e-04
9.859384736046195030e-04
-9.462629095651209354e-04
1.056410488672554493e-03
-7.871640846133232117e-04
-6.921711028553545475e-04
2.849533921107649803e-03
1.749038347043097019e-03
1.202730694785714149e-03
-9.491862147115170956e-04
-1.807006192393600941e-03
3.727030998561531305e-04
-1.120139961130917072e-03
-1.917249988764524460e-03
1.650165184400975704e-03
1.382472226396203041e-03
-4.933642339892685413e-04
-1.258356263861060143e-03
1.753528486005961895e-03
8.979933336377143860e-04
1.124027417972683907e-03
1.632733736187219620e-03
1.025779987685382366e-03
1.664843694015871733e-05
1.653046812862157822e-03
-2.392730675637722015e-03
-1.689922413788735867e-03
-1.537370146252214909e-03
-1.676379120908677578e-03
1.375628053210675716e-03
2.685548271983861923e-03
1.649049692787230015e-03
-3.394176892470568419e-04
-9.403727017343044281e-04
1.571494271047413349e-03
-2.895186771638691425e-04
-1.715126098133623600e-03
9.029512293636798859e-04
-1.628663158044219017e-03
1.672077807597815990e-03
-2.361085265874862671e-03
7.216880330815911293e-04
7.294541574083268642e-04
-1.674065133556723595e-03
-6.340138497762382030e-04
-1.799554331228137016e-03
6.239444017410278320e-03
1.852212822996079922e-03
1.923806034028530121e-03
1.708243158645927906e-03
1.742581720463931561e-03
1.620035851374268532e-03
1.799381454475224018e-03
6.020531873218715191e-04
-1.031017978675663471e-03
-1.682320958934724331e-03
-9.993703570216894150e-04
3.782547079026699066e-03
1.896178117021918297e-03
-1.757282181642949581e-03
-4.201764750177972019e-05
-1.061328366631641984e-04
-1.716307480819523335e-03
-3.463329339865595102e-04
-1.086849253624677658e-03
-2.717586699873209000e-03
1.304710167460143566e-04
-1.633971463888883591e-03
2.232113274658331648e-06
-1.526284322608262300e-04
-1.696580322459340096e-03
-6.587219831999391317e-05
8.989429916255176067e-04
1.085375435650348663e-03
-1.209035748615860939e-03
-1.824325066991150379e-03
-1.492658429924631491e-05
-1.679271925240755081e-03
1.032616244629025459e-03
-6.017580744810402393e-05
-1.923593576066195965e-03
2.740346360951662064e-03
-8.880388922989368439e-04
-1.668279874138534069e-03
-1.085849828086793423e-03
-2.686661435291171074e-03
1.732144039124250412e-03
1.800236175768077374e-03
-5.302083445712924004e-05
-9.743768605403602123e-04
-3.704886767081916332e-04
1.726960297673940659e-03
-9.198243787977844477e-05
-4.342865577200427651e-05
6.829439662396907806e-04
2.436591079458594322e-03
7.022346253506839275e-04
-1.665658666752278805e-03
-1.220008824020624161e-03
-2.517599146813154221e-03
1.735730562359094620e-03
3.752776246983557940e-04
3.009442938491702080e-03
8.036636863835155964e-04
1.729045296087861061e-03
-1.739885658025741577e-03
-1.115386025048792362e-03
1.499303616583347321e-04
1.160163315944373608e-03
3.407991243875585496e-05
3.143724286928772926e-03
-1.095392275601625443e-03
-1.925579272210597992e-03
-2.133689122274518013e-03
-9.950401818059617653e-07
1.064288895577192307e-03
-1.548441941849887371e-04
-4.143764381296932697e-04
1.609003171324729919e-03
1.094647799618542194e-03
-9.585150983184576035e-04
-1.683281036093831062e-03
-1.569563406519591808e-03
-1.627841702429577708e-04
-1.060445560142397881e-03
1.597041846252977848e-03
1.791030750609934330e-03
7.569929002784192562e-04
1.673749648034572601e-03
-1.648946315981447697e-03
2.748238854110240936e-03
7.164634298533201218e-04
-5.933474167250096798e-04
6.367794121615588665e-04
-1.780280261300504208e-03
-1.069877762347459793e-03
-1.577219700266141444e-05
2.154212910681962967e-03
6.510871462523937225e-04
2.917274599894881248e-03
-7.186356233432888985e-04
1.755307079292833805e-03
-1.799349323846399784e-03
-1.395171741023659706e-03
-7.897563045844435692e-04
-1.136494320235215127e-04
7.012992864474654198e-04
9.584012441337108612e-04
1.630702172406017780e-03
1.060862094163894653e-03
-1.160973799414932728e-03
-1.058393972925841808e-03
3.170048585161566734e-04
2.713775262236595154e-03
1.862143397331237793e+00
-6.793336360715329647e-04
-8.818635251373052597e-04
-2.983015496283769608e-03
1.010427877190522850e-04
-2.834113314747810364e-03
1.631536171771585941e-03
-1.553861657157540321e-03
8.108066394925117493e-04
-1.173127326183021069e-03
3.811497299466282129e-04
1.052577863447368145e-03
1.954920822754502296e-03
-4.767115115100750700e-06
-2.512040082365274429e-03
-8.497947710566222668e-04
1.674745813943445683e-03
-2.775377470243256539e-05
-1.839990844018757343e-03
5.676683504134416580e-04
1.579906325787305832e-03
-1.585044228704646230e-04
1.729322946630418301e-03
1.585373422130942345e-03
-1.728051924146711826e-03
1.634518848732113838e-03
-2.440081443637609482e-03
-3.458207705989480019e-03
1.109375385567545891e-03
-2.853558107744902372e-04
-5.601592129096388817e-04
-8.634815458208322525e-04
-1.768558518961071968e-03
-1.790701644495129585e-03
7.153456681407988071e-04
-2.398562850430607796e-03
-1.819921453716233373e-05
-9.847502224147319794e-04
4.117342468816787004e-04
-4.712324007414281368e-04
-1.156193902716040611e-03
-2.425334881991147995e-03
1.716182567179203033e-03
1.620957860723137856e-03
-1.906749443151056767e-03
-1.654280026741616894e-06
1.721230684779584408e-03
2.672075293958187103e-03
5.419001099653542042e-04
1.734369085170328617e-03
2.096039010211825371e-03
1.616933150216937065e-03
-1.106067560613155365e-03
1.752895419485867023e-03
2.681402722373604774e-03
4.336820438766153529e-06
-5.936489906162023544e-04
8.706126827746629715e-04
-2.195504261180758476e-03
8.415935444645583630e-04
1.640499685890972614e-03
1.695080194622278214e-03
4.416420590132474899e-03
1.092587015591561794e-03
1.476859557442367077e-03
-1.742800464853644371e-03
-1.058781868778169155e-03
2.695257309824228287e-03
1.520396792329847813e-03
2.318840870429994538e-06
-8.980785496532917023e-04
-1.305856403632787988e-05
-1.169829163700342178e-03
5.266126827336847782e-04
7.477538892999291420e-04
7.422523340210318565e-04
1.118915504775941372e-03
1.477481797337532043e-03
8.978868136182427406e-04
6.644708337262272835e-04
1.749866991303861141e-03
9.484744514338672161e-04
1.789237721823155880e-03
3.185151377692818642e-03
-9.403225267305970192e-04
1.062136027030646801e-03
1.656865933910012245e-03
1.705778762698173523e-03
-1.075359527021646500e-03
-1.108661759644746780e-03
-5.086950259283185005e-04
-1.643876894377171993e-03
8.192301029339432716e-04
3.164383524563163519e-04
1.884712954051792622e-03
-1.406175317242741585e-03
-9.615861017664428800e-06
1.683369046077132225e-03
-3.485169145278632641e-04
1.925928634591400623e-03
-4.695650131907314062e-04
-1.580058597028255463e-03
-4.254210216458886862e-05
1.062389230355620384e-03
-1.630417653359472752e-03
-1.722462824545800686e-03
-1.777931465767323971e-03
1.529990462586283684e-03
-2.957861870527267456e-04
-1.087910495698451996e-03
8.361454820260405540e-04
-2.503144554793834686e-03
-9.231722215190529823e-04
-3.379222107469104230e-05
1.707821036688983440e-03
-5.758804082870483398e-01
5.326501559466123581e-05
4.063529777340590954e-04
1.683329581283032894e-03
-2.510683611035346985e-03
1.085228985175490379e-03
1.673572813160717487e-03
-1.077653607353568077e-03
4.097097917110659182e-05
-1.925553893670439720e-03
5.649717422784306109e-05
1.508328132331371307e-03
1.756519544869661331e-03
1.324575714534148574e-04
1.680248766206204891e-03
-3.876127302646636963e-04
-5.918232636759057641e-05
2.999202115461230278e-04
-2.725296886637806892e-03
-1.230718684382736683e-03
-1.138229621574282646e-03
1.375839463435113430e-03
2.866165712475776672e-03
-1.060356618836522102e-03
-1.661520800553262234e-03
2.208372345194220543e-03
-1.701236004009842873e-03
2.867370843887329102e-03
1.726359012536704540e-03
-8.790480205789208412e-04
1.910366350784897804e-03
-1.653381856158375740e-03
7.986015407368540764e-05
1.810002431739121675e-04
-5.851541118317982182e-06
-7.200803374871611595e-04
1.159094739705324173e-03
2.079919213429093361e-03
-9.440826834179461002e-04
1.581592252478003502e-03
1.517638447694480419e-03
1.108569675125181675e-03
1.147977076470851898e-03
-1.833230606280267239e-03
1.741559244692325592e-03
-1.807838445529341698e-03
-8.544173906557261944e-04
8.429482841165736318e-05
1.683712354861199856e-03
-3.770144190639257431e-03
3.295242495369166136e-04
-1.625955454073846340e-03
-3.191686118952929974e-04
-2.958766999654471874e-04
1.134966616518795490e-03
7.307279156520962715e-04
4.191111307591199875e-03
-1.666900352574884892e-03
-2.992241643369197845e-03
-1.370371028315275908e-04
-5.974192172288894653e-04
-8.218126458814367652e-05
-5.485733854584395885e-04
-8.136631222441792488e-04
1.953511033207178116e-03
-1.681805006228387356e-03
-1.937387860380113125e-03
8.813349995762109756e-04
-1.676393090747296810e-03
2.717563416808843613e-03
-5.762499058619141579e-04
7.868365501053631306e-04
1.365972566418349743e-04
-1.799183432012796402e-03
-7.216128869913518429e-04
8.060035179369151592e-04
-7.280824938789010048e-04
1.003745128400623798e-03
1.145273214206099510e-03
-2.287588140461593866e-04
1.600924879312515259e-03
1.833541551604866982e-03
-1.757602323777973652e-03
2.117861062288284302e-03
-2.439821837469935417e-03
1.367157383356243372e-04
3.858339186990633607e-05
2.718622636166401207e-05
6.081315805204212666e-04
8.975295349955558777e-04
5.379836238716961816e-06
-2.757249632850289345e-03
1.626920653507113457e-03
1.615899847820401192e-03
1.685636350885033607e-03
-2.060717204585671425e-03
7.249907939694821835e-04
1.379129826091229916e-04
-2.195949433371424675e-03
1.066234894096851349e-03
8.460984099656343460e-04
-1.830059569329023361e-03
1.252418733201920986e-04
2.407536609098315239e-03
-1.602808129973709583e-03
-5.883244448341429234e-04
-1.842495403252542019e-03
-4.180091200396418571e-04
1.636491739191114902e-03
-1.555554801598191261e-03
-1.111816498450934887e-03
1.673483871854841709e-03
6.484938203357160091e-04
1.674673403613269329e-03
1.703919842839241028e-03
-9.994916617870330811e-04
5.086616147309541702e-04
1.687412848696112633e-03
-1.096976920962333679e-03
8.713181014172732830e-04
1.351042534224689007e-03
-7.908661500550806522e-04
-2.355092146899551153e-04
1.094046863727271557e-03
-1.370092795696109533e-04
1.744928304105997086e-03
4.745745100080966949e-04
8.027947624213993549e-04
-3.030247171409428120e-05
2.437941962853074074e-03
1.625620527192950249e-03
-1.820796635001897812e-03
1.734569435939192772e-03
2.820143476128578186e-03
-1.157364458777010441e-03
1.141377259045839310e-03
-5.858368822373449802e-04
1.136810635216534138e-03
1.529203960672020912e-03
2.767831610981374979e-04
-7.453176658600568771e-04
7.988225552253425121e-04
1.148503273725509644e-03
-1.769809168763458729e-03
-7.382193580269813538e-04
-1.777452300302684307e-03
-6.948535155970603228e-05
3.786033252254128456e-03
1.724898815155029297e-03
4.171314867562614381e-05
7.144224364310503006e-04
1.774973003193736076e-03
-1.642716000787913799e-03
-4.682914295699447393e-04
4.604557994753122330e-03
-1.953047118149697781e-03
1.080624060705304146e-03
5.333574372343719006e-04
1.066577038727700710e-03
-1.778969657607376575e-03
-1.244817161932587624e-03
-1.749103888869285583e-03
-5.119240959174931049e-04
9.427068871445953846e-04
3.951942780986428261e-04
1.031636493280529976e-03
5.591421086137415841e-06
7.207362796179950237e-04
1.115259248763322830e-03
-3.922915493603795767e-04
-1.013022032566368580e-03
1.029866252792999148e-04
-7.341380696743726730e-04
1.620263326913118362e-03
4.701555881183594465e-04
-2.010865136981010437e-03
2.842065645381808281e-03
1.107735908590257168e-03
1.700530061498284340e-03
8.889624150469899178e-04
1.712144119665026665e-03
-4.539203364402055740e-03
1.114400685764849186e-03
-2.720410237088799477e-03
-8.015725179575383663e-04
-1.118104206398129463e-03
-1.066977856680750847e-03
1.642872812226414680e-03
-2.680357778444886208e-03
-1.479747311350365635e-06
-2.525084419175982475e-03
1.027707708999514580e-03
-6.423687458038330078e+00
-1.669710851274430752e-03
-1.104999799281358719e-03
3.221126098651438951e-04
2.720640986808575690e-05
-4.998552612960338593e-04
-1.761068473570048809e-03
1.642627990804612637e-03
1.622598269023001194e-03
1.722823013551533222e-03
-1.623077900148928165e-03
4.520678703556768596e-05
-1.820237841457128525e-03
5.813639727421104908e-04
-1.858408795669674873e-03
-1.700133434496819973e-03
2.664047526195645332e-03
7.676837267354130745e-04
1.276465482078492641e-03
1.087006065063178539e-03
-1.654086518101394176e-03
2.415785333141684532e-03
-1.728949369862675667e-03
-4.752948298119008541e-04
1.642808085307478905e-03
-1.736439997330307961e-03
-1.728511299006640911e-03
-1.692315796390175819e-03
-1.710341544821858406e-03
-1.000584219582378864e-03
1.231700181961059570e-03
1.820625038817524910e-04
1.701471046544611454e-03
1.996382343349978328e-04
-7.005018414929509163e-04
9.986717486754059792e-04
3.344032738823443651e-04
-7.226937450468540192e-04
-3.780912375077605247e-04
9.012332884594798088e-04
1.046060235239565372e-03
-2.160019503207877278e-04
1.925294054672122002e-03
7.431483827531337738e-04
8.962480351328849792e-04
-1.040659495629370213e-03
1.813913811929523945e-03
-1.122805289924144745e-03
3.059952869080007076e-04
-1.772924908436834812e-03
1.093199360184371471e-03
1.511970069259405136e-03
-7.344448822550475597e-04
7.414721185341477394e-04
-9.762622066773474216e-04
-2.684259787201881409e-03
9.050455410033464432e-04
1.684992806985974312e-03
-1.653042738325893879e-03
-2.765563083812594414e-03
-2.834365935996174812e-03
-6.129201501607894897e-04
-2.688763896003365517e-03
-2.744714263826608658e-03
-2.252423437312245369e-04
-7.729112403467297554e-04
1.634597079828381538e-03
2.703345147892832756e-03
2.813932485878467560e-03
5.339834387996234000e-05
-4.243441799189895391e-05
-3.377557150088250637e-04
-1.905819372041150928e-04
-4.654374788515269756e-04
-9.035952389240264893e-04
1.127422903664410114e-03
1.682852744124829769e-03
1.691204030066728592e-03
-1.788928057067096233e-03
1.776970108039677143e-03
-3.300669486634433270e-04
1.756268204189836979e-03
8.741875644773244858e-04
-9.661271469667553902e-04
1.157210790552198887e-03
-1.149635994806885719e-03
-3.400697605684399605e-04
1.725199748761951923e-03
-1.658458262681961060e-03
-1.775612006895244122e-03
1.923833391629159451e-03
-1.740402891300618649e-03
-1.734800171107053757e-03
9.433244849788025022e-05
-1.675125677138566971e-03
1.599272945895791054e-03
1.962152775377035141e-03
-2.691505476832389832e-03
1.798085722839459777e-04
-1.082998118363320827e-03
-2.739735064096748829e-04
1.644544536247849464e-03
1.070447964593768120e-03
1.754747936502099037e-03
-2.698443713597953320e-04
-1.605981611646711826e-03
-1.186815643450245261e-04
1.549279782921075821e-03
-9.742163238115608692e-04
-1.127049559727311134e-03
2.556410909164696932e-04
1.625663018785417080e-03
-5.883789272047579288e-04
-1.698571024462580681e-03
-2.346004825085401535e-03
7.854970754124224186e-04
1.751196105033159256e-03
-1.679542358033359051e-03
-2.373518073000013828e-04
1.551350869704037905e-04
-2.583164256066083908e-03
-8.974914671853184700e-04
-5.239308229647576809e-04
-2.141526238119695336e-05
-1.726951682940125465e-03
2.447781385853886604e-03
-4.572315810946747661e-05
1.690761768259108067e-03
2.705970546230673790e-03
-1.709030708298087120e-03
-3.387735341675579548e-04
-5.815129843540489674e-04
-9.926110506057739258e-04
-2.387364860624074936e-03
2.395174000412225723e-03
-2.371059497818350792e-03
-1.348823716398328543e-04
-1.734394812956452370e-03
2.435084665194153786e-03
4.901516367681324482e-04
9.740805835463106632e-04
-2.490439917892217636e-03
1.601982279680669308e-03
-1.588417682796716690e-03
-1.751752570271492004e-03
-1.699014334008097649e-03
1.635275781154632568e-03
-1.484065549448132515e-03
-1.673597027547657490e-03
1.338981528533622622e-04
2.077981363981962204e-03
-7.203198620118200779e-04
2.025634050369262695e-03
-1.027160673402249813e-03
-2.536311512812972069e-03
-1.827569794841110706e-03
1.759299193508923054e-03
1.300391159020364285e-04
7.134972838684916496e-04
-5.034055793657898903e-04
2.522276947274804115e-03
1.529168221168220043e-03
2.764901844784617424e-03
1.713624107651412487e-03
1.030743354931473732e-03
-1.801289501599967480e-03
1.687274896539747715e-03
1.023955410346388817e-03
1.350159524008631706e-03
1.677995896898210049e-03
1.210693699249532074e-05
-1.068479497916996479e-03
4.007796524092555046e-04
2.742858603596687317e-03
7.999413646757602692e-04
1.146512571722269058e-03
-1.676226616837084293e-03
-2.767602680251002312e-03
1.700862543657422066e-03
1.476263743825256824e-03
1.100062741898000240e-03
9.004382882267236710e-04
1.179462531581521034e-03
-3.037633141502737999e-04
1.641002716496586800e-03
3.658104469650425017e-05
-1.626197714358568192e-03
3.090306883677840233e-03
-1.819624449126422405e-03
1.732549746520817280e-03
6.115791038610041142e-04
1.570134190842509270e-04
1.017914735712110996e-03
6.329155876301229000e-04
-3.534054267220199108e-04
-2.387223998084664345e-03
1.306862832279875875e-04
1.811353955417871475e-03
1.839698641560971737e-03
-2.950871130451560020e-04
-7.755659753456711769e-04
7.938231283333152533e-05
-2.954865572974085808e-03
1.656981185078620911e-03
1.070556114427745342e-03
-2.591132186353206635e-03
1.576782553456723690e-03
-1.800400204956531525e-03
1.082408591173589230e-03
-7.893180008977651596e-04
-2.752963919192552567e-03
1.749160699546337128e-03
-2.409501699730753899e-03
-1.055596512742340565e-03
-1.011231914162635803e-03
1.994924386963248253e-03
-4.380982427392154932e-04
-2.362641971558332443e-03
5.717776730307377875e-05
-1.742674270644783974e-03
-2.751224208623170853e-03
-9.097618749365210533e-05
9.683793759904801846e-04
-9.023961611092090607e-04
-1.389625947922468185e-03
1.063595875166356564e-03
1.834576134569942951e-03
-4.731186199933290482e-04
8.874667109921574593e-04
1.751597505062818527e-03
7.332280511036515236e-04
-1.098061329685151577e-03
3.529265522956848145e-03
1.731222611851990223e-03
-1.071743434295058250e-03
-1.832484733313322067e-03
3.131891717202961445e-04
1.836146111600100994e-03
1.714451471343636513e-03
-1.942083123140037060e-03
2.003790810704231262e-03
-2.677999436855316162e-03
2.433886053040623665e-03
-1.755364239215850830e-03
-1.760145532898604870e-03
1.792668772395700216e-04
-1.564972219057381153e-03
1.786310109309852123e-03
1.483525265939533710e-03
-4.024722729809582233e-04
-1.695714308880269527e-03
-7.386762881651520729e-04
-5.770047937403433025e-05
-7.328574429266154766e-04
-1.663103699684143066e-03
1.748431008309125900e-03
-9.474597172811627388e-04
-6.942668114788830280e-04
4.573484417051076889e-03
-1.133682555519044399e-03
-7.268190529430285096e-05
2.677802229300141335e-03
1.682077767327427864e-03
-3.217174380552023649e-04
-1.917189103551208973e-03
-4.814870189875364304e-04
-2.355856588110327721e-03
-7.824339554645121098e-04
4.710827488452196121e-04
-2.806117292493581772e-03
1.720877247862517834e-03
7.616102811880409718e-04
1.689294353127479553e-03
5.170230288058519363e-04
-9.324349812231957912e-04
-1.635914901271462440e-03
2.404642058536410332e-03
-2.069917507469654083e-03
-1.281253411434590816e-03
-1.150817377492785454e-03
2.924203581642359495e-04
2.698139287531375885e-04
-3.397008695174008608e-04
1.726262038573622704e-03
-2.579456777311861515e-04
-7.304392056539654732e-04
1.100951572880148888e-03
-1.738606253638863564e-03
-1.540270168334245682e-03
-1.894411281682550907e-03
-1.564803416840732098e-03
-1.942191389389336109e-03
4.710430279374122620e-03
1.160556683316826820e-03
2.061442239210009575e-03
1.066871802322566509e-03
-1.922991941682994366e-03
1.581550575792789459e-03
-7.214313955046236515e-04
1.783892395906150341e-03
-8.822476956993341446e-04
1.800138736143708229e-03
1.160267274826765060e-03
7.046313257887959480e-04
-9.725923300720751286e-04
8.441263344138860703e-05
5.250612739473581314e-04
-2.543313661590218544e-03
1.689914148300886154e-03
-1.857120660133659840e-03
1.244382146978750825e-04
1.945701311342418194e-03
-1.806927961297333241e-03
1.833182293921709061e-03
5.000194068998098373e-04
2.159668365493416786e-03
-1.695191953331232071e-03
3.206040244549512863e-03
7.234713993966579437e-04
1.140152919106185436e-03
1.143614761531352997e-03
-4.490829014685004950e-04
2.092962131428066641e-05
1.107365009374916553e-03
-1.832393114455044270e-03
-5.330441854312084615e-05
2.679852535948157310e-03
2.763646771200001240e-04
-2.091066678985953331e-03
9.007429471239447594e-04
1.592561951838433743e-03
-1.908438513055443764e-03
-4.729324136860668659e-04
1.593922614119946957e-03
1.163187553174793720e-03
-3.750421456061303616e-04
5.688079982064664364e-04
8.742340723983943462e-04
1.396254985593259335e-03
1.350487582385540009e-03
2.496027387678623199e-03
7.152262260206043720e-04
-2.362535102292895317e-03
1.251986395800486207e-04
-1.688457676209509373e-03
9.108839440159499645e-04
1.695881655905395746e-04
1.699726912193000317e-03
-9.098830050788819790e-04
2.349211135879158974e-03
-8.979894919320940971e-04
-2.387810964137315750e-03
-1.117542735300958157e-03
1.749485731124877930e-03
9.036982664838433266e-04
1.943184470292180777e-04
-1.362676615826785564e-03
-5.960294511169195175e-04
1.535109011456370354e-03
-2.958585355372633785e-05
1.543163671158254147e-03
2.815095940604805946e-03
1.296856062253937125e-04
-4.597324295900762081e-04
-4.820231406483799219e-04
-2.042385283857584000e-03
-2.534331521019339561e-03
8.081077830865979195e-04
-9.003652667161077261e-05
-7.358147995546460152e-04
-1.253822585567831993e-03
6.963633350096642971e-04
1.100387307815253735e-03
6.838423360022716224e-06
-1.230543246492743492e-03
4.704252060037106276e-04
9.361651791550684720e-06
-1.706772833131253719e-03
1.801123493351042271e-03
4.725675171357579529e-05
2.526624128222465515e-03
1.159449457190930843e-03
9.413041989319026470e-04
-2.347205590922385454e-04
7.805290806572884321e-06
-7.849182584322988987e-04
1.822562306188046932e-03
3.160466440021991730e-04
2.423377882223576307e-04
3.954302810598164797e-04
-1.351505343336611986e-04
-1.762636704370379448e-03
-1.193054922623559833e-04
1.665545976720750332e-03
-1.822518068365752697e-03
-1.100544701330363750e-03
1.711446209810674191e-03
1.661004149354994297e-03
-1.265251194126904011e-03
-4.644463188014924526e-04
2.716165967285633087e-03
-7.315140101127326488e-04
1.325785997323691845e-04
1.159529667347669601e-03
-2.431300003081560135e-03
-1.140491454862058163e-03
-7.924928213469684124e-04
-1.190520706586539745e-03
1.832775422371923923e-03
9.029440116137266159e-04
1.723934547044336796e-03
-2.084964944515377283e-04
1.908933511003851891e-03
5.922386771999299526e-04
-1.534939045086503029e-03
9.661443182267248631e-04
1.036255252984119579e-05
2.417977200821042061e-03
-2.798476489260792732e-04
-9.744801354827359319e-05
7.008489337749779224e-04
2.858610358089208603e-03
1.962633337825536728e-03
-6.096303332014940679e-05
1.732153701595962048e-03
-1.807897002436220646e-03
1.738429768010973930e-03
-1.662371680140495300e-03
1.654529245570302010e-03
1.044104108586907387e-03
-1.546744140796363354e-03
-1.705800299532711506e-03
1.665423158556222916e-03
-1.252727699466049671e-03
1.139547093771398067e-03
-2.867903094738721848e-03
1.097511994885280728e-04
-1.660352223552763462e-03
6.065212655812501907e-04
1.531381625682115555e-03
-2.526476047933101654e-03
-1.000923453830182552e-03
-1.666959491558372974e-03
9.524353081360459328e-04
-1.950909972947556525e-05
-1.501870108768343925e-03
1.979493768885731697e-03
-9.579143952578306198e-04
-4.976870259270071983e-04
8.084961446002125740e-04
-1.753590913722291589e-05
-2.068128436803817749e-03
-1.017206232063472271e-03
-2.755069406703114510e-03
-1.659694942645728588e-03
1.786930137313902378e-03
5.426396965049207211e-04
-7.196369697339832783e-04
-2.711597830057144165e-03
-6.116185104474425316e-04
-6.839529669377952814e-05
-2.158641582354903221e-03
-1.654539490118622780e-03
9.556705481372773647e-04
-8.204088080674409866e-04
-9.024660685099661350e-04
1.657970831729471684e-03
2.764225006103515625e-03
4.996160860173404217e-04
-1.574030495248734951e-03
-1.605503843165934086e-03
-1.775878248736262321e-03
-1.939886366017162800e-03
5.854620831087231636e-04
-1.669605844654142857e-03
-1.682106638327240944e-03
1.915053348056972027e-03
-1.975245075300335884e-03
-1.765546854585409164e-03
1.940338406711816788e-03
-2.087176078930497169e-03
-7.455766317434608936e-04
8.970945491455495358e-04
1.504574553109705448e-03
-1.610541366972029209e-03
1.128078787587583065e-03
-1.011754357023164630e-04
1.774907810613512993e-03
7.962042000144720078e-04
7.230394985526800156e-04
-9.606335079297423363e-04
-1.914882101118564606e-03
-1.199182705022394657e-03
-2.731439191848039627e-03
-8.244724594987928867e-04
-9.643566445447504520e-04
-1.133056008256971836e-03
-1.743308268487453461e-03
-1.700832392089068890e-03
1.618325943127274513e-03
2.373335650190711021e-03
4.175325739197432995e-04
1.729446579702198505e-03
1.708947122097015381e-03
1.648143283091485500e-03
-2.694290131330490112e-03
1.625338918529450893e-03
1.243919599801301956e-03
-1.662911032326519489e-03
2.697461517527699471e-03
1.060237060301005840e-03
-1.592202926985919476e-03
-1.476511126384139061e-03
-3.291434259153902531e-04
-1.720667467452585697e-03
-5.589135689660906792e-04
-8.157774573192000389e-04
2.707452047616243362e-03
1.689568161964416504e-03
-1.790257287211716175e-03
4.848479584325104952e-04
-8.858668152242898941e-04
7.979017100296914577e-04
-1.628861878998577595e-03
-1.817982411012053490e-03
-2.960216443170793355e-05
-9.077473659999668598e-04
-8.406030829064548016e-04
-3.415787359699606895e-04
